{"conv_weight": [0.4129990041255951, 0.28575825691223145, -0.0030860775150358677, 0.45260635018348694, 0.3868016004562378, -0.6428760886192322, 0.08709961920976639, 0.14202739298343658, -0.633966863155365, 0.05287427082657814, 0.42479565739631653, 0.4679318368434906, -0.14447705447673798, 0.30383309721946716, -0.24978241324424744, -0.27272745966911316, -0.02166661061346531, 0.25534969568252563, -0.2818046808242798, 0.3441663980484009, -0.09406375139951706, 0.1716943234205246, 0.07390496134757996, 0.48972225189208984, 0.36928874254226685, 0.031008819118142128, -0.004675164353102446, 0.6867559552192688, -0.5740815997123718, -0.18543364107608795, 0.22082404792308807, -0.13124758005142212, -0.01783512718975544, 0.3896592855453491, -0.45732101798057556, 0.0852801501750946, 0.41963857412338257, 0.5858868956565857, -0.11700903624296188, -0.08129590004682541, 0.20695284008979797, -0.13293425738811493, -0.10791266709566116, 0.027244199067354202, 0.022518368437886238, -0.051792602986097336, 0.3736199736595154, -0.3527032434940338, 0.41451868414878845, 0.2429400086402893, -0.5472797751426697, 0.16104057431221008, 0.26522523164749146, -0.6250936388969421, -0.18883730471134186, 0.459442675113678, -0.0274827741086483, -0.49492403864860535, 0.06470459699630737, 0.25010401010513306, -0.01079354714602232, 0.4717148244380951, 0.09373639523983002, 0.6545076966285706, 0.43931490182876587, -0.11822253465652466, -0.33703315258026123, -0.07264119386672974, 0.2661243677139282, -0.5717607736587524, -1.327223539352417, -0.7781563997268677], "conv_bias": [-0.13328583538532257, -0.00035274718538857996, -0.007535171695053577, -0.0020081070251762867, -0.003590467618778348, 0.06780444085597992, -0.0020889556035399437, 0.31295105814933777], "fc_weight": [0.03360690176486969, 0.1881614476442337, -0.10041359812021255, -0.1607889086008072, -0.060717299580574036, -0.1341603845357895, -0.05378434807062149, 0.17858856916427612, 0.06899715214967728, -0.08235767483711243, -0.023396288976073265, -0.20984436571598053, 0.07877103984355927, -0.07244217395782471, 0.10805042833089828, -0.05279352515935898, -0.1110628992319107, 0.027771862223744392, -0.10495096445083618, -0.00015664131205994636, 0.09441225975751877, -0.061605434864759445, -0.12335281074047089, -0.014171830378472805, 0.04539135843515396, 0.057160019874572754, -0.16606296598911285, -0.054110098630189896, -0.008060445077717304, -0.0460616797208786, -0.1016290932893753, -0.06587355583906174, 0.05646630749106407, 0.042771559208631516, -0.10527162998914719, 0.09990765154361725, -0.11227478832006454, 0.006891817320138216, -0.037012409418821335, 0.1347017139196396, -0.07968658953905106, -0.03975241631269455, -0.0001531141606392339, -0.11087166517972946, -0.0774841383099556, -0.034079659730196, -0.04943819344043732, -0.03678765147924423, 0.14204488694667816, 0.002837550826370716, 0.009398256428539753, -0.025702141225337982, -0.08715301752090454, 0.06126118078827858, 0.11540651321411133, -0.06832031160593033, 0.07943010330200195, -0.012387224473059177, -0.057656142860651016, -0.06474072486162186, -0.05252198502421379, 0.011030111461877823, 0.013273477554321289, 0.13076050579547882, -0.04995875805616379, -0.32094767689704895, 0.06023428961634636, 0.15795248746871948, -0.0993109717965126, 0.009375249035656452, -0.010108311660587788, -0.13587287068367004, -0.022618452087044716, -0.01957167685031891, 0.10002726316452026, -0.020355788990855217, 0.12041967362165451, -0.09267476946115494, -0.029337476938962936, -0.010817039757966995, 0.17920783162117004, -0.06479879468679428, 0.04605887830257416, -0.07948224246501923, -0.13322874903678894, -0.03860634192824364, 0.007473156321793795, -0.030562622472643852, -0.05793721601366997, 0.04088384658098221, -0.06542196124792099, 0.04948876425623894, 0.00032027717679739, 0.13823826611042023, 0.040632475167512894, -0.0012039811117574573, -0.07844872772693634, -0.11536721885204315, -0.07885349541902542, 0.06491629034280777, -0.03290923684835434, -0.12488669157028198, 0.013438521884381771, -0.030981948599219322, -0.1337650865316391, -0.12621483206748962, 0.14116933941841125, -0.11850471794605255, 0.00522063672542572, -0.07718485593795776, -0.09123478829860687, -0.118933767080307, -0.03844085708260536, -0.005209103226661682, -0.10665575414896011, 0.05612706020474434, 0.05030209571123123, -0.31120115518569946, -0.10762327909469604, 0.1190020963549614, -0.13820524513721466, -0.04852180555462837, -0.11274014413356781, -0.11795191466808319, -0.12631367146968842, -0.17022226750850677, -0.03314816206693649, -0.07590044289827347, -0.00880016852170229, 0.056669142097234726, -0.15008293092250824, 0.05696478858590126, 0.09095659852027893, -0.05326606705784798, -0.08387549966573715, -0.15418170392513275, -0.14834079146385193, -0.1944226771593094, -0.1429460644721985, -0.09422360360622406, -0.06441390514373779, 0.025738097727298737, 0.025288870558142662, 0.06128834933042526, 0.0732417032122612, -0.21749204397201538, -0.07552226632833481, -0.1335178166627884, -0.07078763842582703, -0.12131521850824356, -0.16913294792175293, -0.09166838228702545, -0.08616957068443298, -0.05041500926017761, 0.05257423594594002, 0.009259137324988842, 0.23414474725723267, -0.0030213482677936554, -0.16769404709339142, -0.06986835598945618, -0.08157014846801758, -0.13937035202980042, -0.11326947808265686, -0.09776261448860168, -0.12960617244243622, -0.09007937461137772, -0.03752179071307182, 0.020974894985556602, -0.029310451820492744, 0.008997253142297268, -0.07591533660888672, -0.11388665437698364, 0.0039412835612893105, 0.017712604254484177, -0.04389308765530586, -0.01375845167785883, -0.01553092896938324, 0.031688738614320755, 0.066474050283432, 0.04494393616914749, 0.0342387780547142, 0.007001364137977362, -0.013375028036534786, 0.006677463185042143, 0.0199816282838583, -0.03586772456765175, 0.0033006842713803053, 0.03360559418797493, -0.03193648159503937, -0.0033898060210049152, 0.008527549915015697, 0.06260264664888382, 0.09806028753519058, 0.13014215230941772, 0.007469219621270895, 0.029390394687652588, 0.09527748078107834, -0.0243070051074028, -0.005362915340811014, -0.016780730336904526, 0.012563622556626797, -0.029865367338061333, 0.0032239120919257402, -0.012903768569231033, 0.019805066287517548, 0.027250604704022408, 0.04561538249254227, 0.03523587808012962, 0.18190081417560577, 0.08780898153781891, -0.009365802630782127, 0.1080821305513382, -0.007900129072368145, 0.03450142592191696, -0.017450345680117607, -0.00176448083948344, 0.012180397287011147, 0.06435006856918335, 0.03645889461040497, 0.031195884570479393, 0.10804182291030884, 0.14011640846729279, 0.10751157253980637, 0.05377550423145294, 0.09562288224697113, 0.07846218347549438, 0.003833726979792118, 0.0010500247590243816, 0.025753220543265343, 0.01635512337088585, 0.013706346042454243, 0.0693097785115242, 0.030394859611988068, -0.05047420784831047, -0.003973671700805426, 0.07743091136217117, -0.00595540227368474, 0.06750201433897018, 0.04130464419722557, -0.016794169321656227, -0.037526365369558334, -0.00031329362536780536, 0.015481583774089813, -0.05153932794928551, 0.038626279681921005, 0.05291090905666351, -0.1541609913110733, -0.028623342514038086, -0.02452939935028553, -0.04683183133602142, 0.009272963739931583, 0.0606260746717453, 0.009196478873491287, -0.00963995885103941, -0.008225208148360252, 0.028598714619874954, -0.06806544959545135, -0.04582366347312927, -0.06244981288909912, -0.13208292424678802, -0.03082539513707161, -0.0756843090057373, -0.10999514162540436, -0.006110334303230047, 0.018424633890390396, -0.009929479099810123, -0.03314110264182091, -0.01196094136685133, 0.028069350868463516, -0.1209472119808197, -0.09669505804777145, -0.11817236244678497, -0.1388319581747055, -0.08561158180236816, -0.015565683133900166, -0.024078628048300743, 0.023325234651565552, 0.016409197822213173, 0.004362525884062052, -0.012315829284489155, -0.035858403891325, -0.0003777990350499749, -0.08535978198051453, -0.05861832946538925, -0.09319020807743073, -0.06656049191951752, -0.10136374086141586, -0.07487238943576813, -0.029606496915221214, 0.07938821613788605, 0.008727976121008396, 0.024446863681077957, -0.028640296310186386, -0.010817728005349636, 0.013490387238562107, -0.026236901059746742, -0.09238803386688232, -0.14382754266262054, -0.037872232496738434, -0.023322397843003273, -0.03458769619464874, 0.019387632608413696, 0.10135393589735031, 0.01050813402980566, 0.04250086098909378, 0.019550224766135216, 0.003779311664402485, 0.03980838879942894, 0.0025146729312837124, -0.06037077307701111, -0.09640415757894516, 0.0005275202565826476, -0.05024270713329315, -0.07437929511070251, 0.003175792982801795, 0.1011139526963234, 0.04672006517648697, 0.009105704724788666, 0.03094659559428692, 0.009197520092129707, 0.023810526356101036, 0.02124365232884884, -0.07265754789113998, -0.07050757110118866, -0.0177211444824934, -0.052196670323610306, -0.05366760492324829, 0.016504211351275444, 0.10528120398521423, 0.03998217359185219, 0.00467864191159606, 0.023410135880112648, -0.029096007347106934, 0.014332233928143978, 0.06495395302772522, -0.045843347907066345, -0.11927895992994308, -0.028033621609210968, 0.09354496002197266, -0.22709883749485016, -0.037542764097452164, 0.010912911035120487, 0.007960056886076927, 0.010425960645079613, 0.012777150608599186, -0.007556754630059004, 0.010811417363584042, 0.12178170680999756, 0.08346361666917801, -0.0056470828130841255, 0.10722292959690094, -0.07827870547771454, 0.013312084600329399, 0.010637858882546425, -0.0610702708363533, -0.020661531016230583, -0.07022162526845932, -0.08946849405765533, -0.07282549142837524, -0.028607571497559547, -0.013221641071140766, 0.09193576872348785, 0.09320823848247528, -0.03696810454130173, 0.021769585087895393, 0.029438229277729988, 0.0186545941978693, -0.05633728578686714, 0.0003833836526609957, -0.011622835882008076, -0.03305869922041893, -0.022481469437479973, 0.016898363828659058, -0.017131227999925613, 0.05053618922829628, 0.01670823059976101, -0.09936337172985077, 0.07070641219615936, 0.07828950136899948, 0.04022323712706566, 0.0580536387860775, 0.062419284135103226, -0.016233110800385475, -0.004147371277213097, 0.013101492077112198, 0.05181996151804924, 0.09907019138336182, 0.06073390319943428, 0.053001031279563904, -0.05598246678709984, 0.011327730491757393, 0.14606666564941406, 0.06735405325889587, 0.06303072720766068, 0.04401102289557457, -0.00511059258133173, -0.011808444745838642, 0.010111157782375813, 0.0025628707371652126, 0.017340613529086113, 0.031033458188176155, 0.03121587261557579, -0.13721390068531036, -0.00814860686659813, 0.04924801364541054, -0.0956064909696579, -0.025188464671373367, 0.020316287875175476, -0.04547100514173508, -0.03227530047297478, -0.013627560809254646, 0.00704601313918829, -0.029891733080148697, -0.06279394030570984, -0.03019637055695057, -0.157211571931839, -0.049196477979421616, -0.061754874885082245, -0.05459657683968544, -0.07629437744617462, 0.017426783218979836, -0.0003164188819937408, -0.03325791284441948, -0.015204771421849728, -0.00019200083625037223, -0.13866302371025085, -0.12604525685310364, -0.08811142295598984, -0.19499526917934418, -0.05215785652399063, -0.05247160419821739, -0.031152207404375076, -0.09633591026067734, 0.028446195647120476, -0.0010125077096745372, -0.013042290695011616, -0.03896726667881012, -0.012437134981155396, -0.12084481865167618, -0.15110625326633453, -0.0630706325173378, -0.08607149124145508, -0.13444863259792328, -0.0354326069355011, -0.03830583021044731, -0.030229367315769196, 0.055060066282749176, 0.008851083926856518, -0.016824524849653244, -0.04802083969116211, -0.046333082020282745, -0.11754199862480164, -0.1400000900030136, -0.04871316999197006, -0.10976504534482956, -0.08164825290441513, -0.010534364730119705, -0.03067936934530735, 0.07569275051355362, 0.0252351313829422, -0.026641685515642166, -0.03544444963335991, -0.04030832648277283, -0.011761300265789032, -0.026937829330563545, -0.09812416136264801, -0.05530939996242523, -0.03780094161629677, -0.03425602987408638, -0.012052382342517376, -0.035842519253492355, 0.09190522134304047, 0.03357227146625519, 0.006791491061449051, -0.0008170216460712254, -0.05252617597579956, 0.012999096885323524, 0.03413597121834755, -0.12746714055538177, -0.07653133571147919, -0.023958008736371994, 0.008713576942682266, -0.024783756583929062, -0.008063728921115398, 0.11018534749746323, 0.04665497690439224, 0.005215178243815899, 0.0052329665049910545, -0.01924092136323452, 0.027070563286542892, 0.03152946010231972, -0.052966199815273285, -0.08428727835416794, 0.09665237367153168, -0.04480167478322983, -0.03559190034866333, 0.04800426959991455, 0.12216704338788986, 0.035150863230228424, 0.03853727877140045, 0.023656263947486877, 0.04343650862574577, 0.018837720155715942, 0.06849390268325806, -0.010384971275925636, -0.019615257158875465, -0.017997071146965027, 0.04115716367959976, 0.09791050106287003, 0.13998350501060486, 0.12253548204898834, 0.1520017832517624, 0.09720365703105927, -0.24647124111652374, -0.5898275971412659, 0.017411863431334496, 0.14569281041622162, 0.2538626790046692, 0.05539407953619957, 0.07178597897291183, -0.12049489468336105, 0.11837469041347504, 0.008706999011337757, 0.06995051354169846, 0.07878544181585312, 0.06049823760986328, -0.08630664646625519, -0.1370716243982315, -0.16679807007312775, -0.10455197840929031, 0.05096723884344101, 0.13019680976867676, 0.17204885184764862, -0.01918490044772625, -0.12662062048912048, 0.02582096867263317, 0.09854993969202042, 0.06570536643266678, 0.10378994792699814, 0.13094107806682587, -0.1742296665906906, -0.26021912693977356, -0.03907966613769531, -0.09244012087583542, 0.10858134925365448, 0.11260200291872025, 0.04029770568013191, -0.06973621994256973, -0.008002677001059055, 0.2417820543050766, -0.03687608614563942, 0.03791357949376106, -0.054806165397167206, -0.15695129334926605, -0.10673154890537262, 0.06472642719745636, 0.03608529269695282, 0.04695571959018707, 0.04611095413565636, -0.37941354513168335, -0.11450736969709396, -0.05491293966770172, 0.10808004438877106, -0.08901762217283249, -0.10027706623077393, -0.07762793451547623, -0.11517040431499481, -0.19717250764369965, 0.08275808393955231, 0.014119981788098812, 0.05060151591897011, 0.03609210625290871, -0.4044433832168579, -0.4130987823009491, -0.08923227339982986, 0.031188717111945152, -0.10721889138221741, -0.01274587120860815, -0.07851721346378326, -0.1296178549528122, -0.12166586518287659, 0.06982380151748657, -0.02596549689769745, -0.0024913151282817125, -0.02181411162018776, -0.343858003616333, -0.4351445436477661, -0.05494038388133049, -0.04178769513964653, 0.01665143296122551, 0.18300019204616547, -0.006608815863728523, -0.07984756678342819, 0.03175835311412811, 0.06615083664655685, 0.005946159362792969, -0.06670892238616943, -0.15015822649002075, -0.2572176456451416, -0.4149317741394043, 0.01464926078915596, 0.06684812158346176, 0.02127966657280922, 0.10462135821580887, -0.09488672763109207, 0.02506604604423046, 0.17354761064052582, 0.10910885035991669, -0.06272350251674652, 0.03767352178692818, -0.12386146932840347, -0.2638968527317047, -0.3482286036014557, -0.04101010411977768, 0.10323642194271088, -0.0757421925663948, 0.04935430735349655, -0.14182043075561523, -0.13644951581954956, 0.04128217697143555, 0.04316272586584091, 0.0319148488342762, 0.06380870193243027, -0.051238976418972015, -0.33333972096443176, -0.3889898359775543, 0.0024416139349341393, 0.006011127959936857, 0.08929142355918884, 0.016329189762473106, -0.1660272628068924, -0.10580413043498993, -0.12508629262447357, 0.013486742973327637, -0.007354973815381527, -0.003492907853797078, -0.07740198820829391, -0.1851261854171753, -0.2510993778705597, -0.036315008997917175, -0.18942919373512268, -0.030020136386156082, -0.06223912164568901, -0.14353686571121216, -0.0676065981388092, -0.18388280272483826, -0.02787214331328869, 0.01727311499416828, -0.06309066712856293, -0.06599167734384537, -0.07378620654344559, -0.21672599017620087, -0.14232778549194336, -0.2260451763868332, -0.13009198009967804, -0.18848027288913727, -0.23675300180912018, -0.1333596110343933, -0.19339101016521454, -0.12432747334241867, 0.012853789143264294, -0.005547364242374897, -0.15662571787834167, -0.09510357677936554, -0.15641450881958008, -0.3675973117351532, -0.2728915214538574, -0.13188259303569794, -0.25212597846984863, -0.14747457206249237, -0.17311526834964752, -0.08894919604063034, -0.23360691964626312, 0.02918178215622902, 0.0676417276263237, -0.20416352152824402, 0.052213508635759354, 0.052179113030433655, -0.17283016443252563, -0.017244715243577957, -0.032931774854660034, 0.001961288508027792, -0.03680930286645889, -0.038086116313934326, -0.017238005995750427, 0.06518819183111191, 0.1043352261185646, 0.007768694777041674, 0.02607457898557186, 0.03847993165254593, 0.02645042911171913, 0.10462278127670288, -0.018512513488531113, 0.013860362581908703, -0.010118980892002583, -0.02141883410513401, -0.0212487131357193, -0.055994294583797455, -0.02304719388484955, 0.08574682474136353, 0.14329636096954346, 0.04886937513947487, 0.0030865496955811977, 0.04764704406261444, 0.04182711988687515, -0.04346088320016861, -0.03705545887351036, -0.028499078005552292, -0.010535551235079765, -0.05347362160682678, -0.005858718417584896, 0.009494811296463013, -0.01131435390561819, 0.047717779874801636, 0.048407260328531265, 0.18146535754203796, 0.04917619749903679, 0.07460086047649384, 0.06672267615795135, -0.007233903743326664, 0.018036626279354095, 0.008938329294323921, 0.0022938891779631376, -0.0049349418841302395, 0.05533929169178009, 0.05732443928718567, 0.011307218112051487, 0.09754758328199387, 0.15035495162010193, 0.07885892689228058, 0.03282156586647034, 0.08346407860517502, 0.036849118769168854, -0.00567119475454092, -0.017338719218969345, 0.01276958454400301, 0.01985054835677147, -0.0011808526469394565, 0.06834393739700317, 0.03405202552676201, -0.0441562794148922, 0.06901305168867111, 0.02965494431555271, 0.008070915006101131, -0.012045067735016346, 0.05226537957787514, 0.029338687658309937, -0.0492665097117424, 0.006555710919201374, 0.012416038662195206, -0.038991037756204605, 0.0008160565630532801, 0.045359622687101364, -0.0816347599029541, 0.07552789896726608, -0.017994936555624008, -0.021414799615740776, -0.09302838146686554, 0.04789862409234047, -0.010176213458180428, -0.027252817526459694, -0.026945490390062332, 0.03553445637226105, -0.05094122886657715, -0.03975678235292435, -0.03415700048208237, -0.073921337723732, 0.062108125537633896, -0.04936682805418968, -0.031960874795913696, -0.08514328300952911, 0.003484074492007494, 0.003745096502825618, -0.01385799702256918, -0.020609941333532333, 0.03647253289818764, -0.05708456039428711, -0.115447036921978, -0.10510008037090302, -0.14612910151481628, -0.052707038819789886, -0.07131871581077576, 0.06380562484264374, -0.011009982787072659, 0.00789051316678524, 0.027894068509340286, 0.014092758297920227, -0.051993854343891144, 0.004032523836940527, -0.02567148767411709, -0.09167169779539108, -0.045978713780641556, -0.06554975360631943, -0.04851474240422249, -0.12591496109962463, -0.0014494821662083268, 0.051192935556173325, 0.012047388590872288, 0.012312927283346653, 0.007523058447986841, -0.0028282650746405125, -0.023898791521787643, 0.025381194427609444, -0.10097520053386688, -0.12393344193696976, -0.025522606447339058, -0.02491295337677002, -0.08612163364887238, 0.024561326950788498, 0.11843962967395782, 0.03207195922732353, 0.03214603662490845, -0.004554669372737408, -0.029470011591911316, -0.0006880191504023969, 0.007404755800962448, -0.03306150808930397, -0.07969508320093155, -0.02217165008187294, 0.03669609874486923, -0.09788822382688522, -0.005831386893987656, 0.13561514019966125, 0.007948525249958038, 0.03349027410149574, 0.023783201351761818, -0.005676924251019955, 0.01445569284260273, 0.028397805988788605, 0.002148329047486186, -0.05638287588953972, -0.02990666776895523, 0.09564129263162613, -0.12116189301013947, -0.022875582799315453, 0.08461158722639084, 0.011836349964141846, 0.046918995678424835, 0.002995850518345833, -0.008083004504442215, -0.003961763810366392, 0.04075189679861069, -0.031058447435498238, -0.07086285203695297, -0.06606321036815643, 0.058185651898384094, 0.20224414765834808, -0.13240386545658112, 0.20906145870685577, 0.21820567548274994, -0.1673777848482132, -0.3274190127849579, 0.11450812965631485, 0.08678119629621506, -0.04477284476161003, 0.16388282179832458, 0.0751824602484703, 0.09199253469705582, 0.032389331609010696, -0.026037439703941345, 0.22938638925552368, -0.03354373574256897, 0.17518016695976257, -0.17032629251480103, -0.09913405030965805, 0.16289743781089783, -0.05201548710465431, -0.0863066017627716, 0.006933834403753281, 0.08591320365667343, 0.15722183883190155, 0.01912321150302887, -0.051496393978595734, 0.17800787091255188, 0.1343306005001068, 0.03167646750807762, 0.004528227727860212, 0.06434624642133713, 0.10082060843706131, -0.07624763250350952, 0.10890080779790878, -0.06407638639211655, 0.03462870419025421, 0.06044694036245346, -0.04815755411982536, -0.1003461554646492, -0.09181953221559525, 0.19696658849716187, -0.14873164892196655, -0.06806112080812454, -0.06654548645019531, -0.04977406933903694, -0.04722452908754349, 0.15877275168895721, 0.05420106649398804, 0.01903546042740345, 0.04264413192868233, -0.06000538170337677, -0.038089171051979065, -0.05943477153778076, -0.06844305247068405, 0.0003227282140869647, 0.06972815096378326, -0.11057764291763306, -0.03115222416818142, -0.041458629071712494, 0.03454125300049782, 0.09764809161424637, 0.15939632058143616, 0.06942613422870636, -0.07829374074935913, -0.04150222986936569, 0.02271903306245804, -0.20949099957942963, -0.03437098115682602, 0.04394400492310524, -0.0838533565402031, 0.08138220757246017, 0.009298334829509258, 0.10111334174871445, 0.026974109932780266, 0.12330301851034164, -0.05633622780442238, 0.0008475185604766011, 0.09426841139793396, 0.11106502264738083, -0.10112309455871582, 0.08366041630506516, -0.025106504559516907, -0.13409201800823212, 0.08988050371408463, 0.10880262404680252, 0.057739417999982834, 0.04302495718002319, -0.03754494711756706, -0.07144954800605774, 0.03735993802547455, 0.03574012219905853, 0.09924760460853577, -0.01645464450120926, 0.04057200253009796, -0.059426285326480865, -0.09129547327756882, 0.07162823528051376, 0.1645071804523468, 0.04743378981947899, -0.02008105255663395, -0.059735361486673355, -0.0665997862815857, 0.01400081068277359, 0.004505672957748175, 0.08911282569169998, -0.23078277707099915, -0.04611498489975929, -0.036913078278303146, -0.12411574274301529, -0.06614489108324051, 0.0471237488090992, 0.038171470165252686, 0.038091469556093216, -0.03711254894733429, -0.00849218387156725, -0.008502260781824589, -0.024902617558836937, 0.060504890978336334, -0.21339011192321777, -0.16928230226039886, -0.12894116342067719, -0.09238363802433014, -0.08395553380250931, -0.1289614886045456, 0.023053234443068504, 0.04632188752293587, -0.13886956870555878, 0.015179010108113289, -0.02214718796312809, 0.059155795723199844, -0.02477818727493286, -0.2566353976726532, -0.21155090630054474, -0.2351558655500412, -0.1746864914894104, -0.16253279149532318, -0.09197499603033066, -0.02988206408917904, 0.06266061961650848, -0.11307760328054428, 0.02971070632338524, 0.013436215929687023, 0.16364604234695435, -0.2667069733142853, -0.2638017237186432, -0.3429599404335022, -0.1076175719499588, -0.14047323167324066, -0.13484233617782593, -0.09588497877120972, -0.07161802053451538, 0.0317637175321579, -0.0231341440230608, -0.007276490330696106, 0.06827268749475479, 0.06679390370845795, -0.2790561020374298, -0.159326434135437, -0.1712108850479126, -0.16145893931388855, -0.12275030463933945, 0.0031599451322108507, -0.1392912119626999, -0.07126077264547348, -0.007196082267910242, 0.057507406920194626, -0.07872514426708221, 0.05703281983733177, -0.06710609793663025, 0.03747817128896713, -0.033346228301525116, 0.006552820559591055, -0.059177037328481674, -0.05120328441262245, -0.049466341733932495, 0.04763013869524002, 0.0694841742515564, 0.07561521232128143, 0.13666270673274994, 0.002406511688604951, -0.003294526832178235, 0.06176716461777687, -0.005409573204815388, -0.02762644924223423, 0.0031582475639879704, 0.022756101563572884, -0.01679135672748089, -0.021470682695508003, -0.0016580300871282816, -0.01221863180398941, 0.0990472137928009, 0.09082992374897003, -0.04545535147190094, 0.05806918069720268, 0.07021825760602951, 0.017832549288868904, -0.01587817072868347, -0.012904263101518154, 0.01960482820868492, -0.0304998941719532, 0.001163458451628685, 0.008520950563251972, 0.01898367516696453, 0.054735105484724045, 0.04220004007220268, 0.04718218371272087, 0.15845561027526855, 0.0829315111041069, 0.07096268981695175, 0.10150865465402603, -0.02741670422255993, 0.020250830799341202, 0.010437375865876675, 0.022241640836000443, 0.015659380704164505, 0.042293548583984375, 0.05730240046977997, -0.0018385171424597502, 0.02694413997232914, 0.13269606232643127, 0.13325120508670807, 0.016217540949583054, 0.09124830365180969, -0.0007595572387799621, 0.011434370651841164, -0.009122947230935097, -0.0036948334891349077, 0.04304831475019455, -0.0013985098339617252, 0.0782725065946579, 0.027993187308311462, -0.08848164975643158, 0.04901530221104622, 0.05253346264362335, -0.02558765560388565, 0.032211221754550934, 0.025991836562752724, -0.02699156291782856, -0.04299008473753929, -0.021413074806332588, 0.004324737470597029, -0.06295283138751984, 0.007806662004441023, 0.04479647055268288, -0.15207597613334656, -0.030123254284262657, -0.05793250724673271, -0.05632632598280907, -0.01936962828040123, 0.061251889914274216, -0.006642685737460852, -0.02969004213809967, -0.014181415550410748, 0.006333822384476662, -0.09596041589975357, -0.0511176735162735, -0.06374287605285645, -0.12756392359733582, -0.055335480719804764, -0.047600097954273224, -0.01490793563425541, -0.002666976535692811, 0.036552444100379944, -0.02871912717819214, -0.024424254894256592, 0.010662618093192577, 0.014715314842760563, -0.11981696635484695, -0.05753301456570625, -0.09651396423578262, -0.11548028141260147, -0.10981690138578415, -0.0270721185952425, -0.04771411046385765, 0.042348846793174744, 0.00754072330892086, -0.022604329511523247, -0.020139750093221664, -0.003981728572398424, -0.0002881994587369263, -0.07501716911792755, -0.06944601237773895, -0.09668810665607452, -0.12160253524780273, -0.07707928866147995, -0.06626422703266144, -0.018061993643641472, 0.0820595771074295, 0.027415946125984192, -0.009094811975955963, -0.007086992729455233, -0.015313700772821903, 0.0016859413590282202, -0.0034889488015323877, -0.08175874501466751, -0.09331595152616501, -0.06861099600791931, -0.01758948154747486, -0.0820876806974411, -0.0016264753649011254, 0.12679852545261383, 0.04056186601519585, 0.016987385228276253, 0.012418529950082302, 0.029069939628243446, 0.05023297294974327, 0.04353881999850273, -0.08239640295505524, -0.07514812052249908, -1.894325396278873e-05, -0.024195147678256035, -0.10579397529363632, 0.008841229602694511, 0.09342366456985474, 0.04217388853430748, 0.028145072981715202, 0.022753627970814705, 0.002245968673378229, 0.02777991071343422, 0.013610751368105412, -0.05108048394322395, -0.11560703814029694, -0.014855651184916496, -0.07279499620199203, -0.08744744211435318, 0.05726630985736847, 0.1683158129453659, 0.06913019716739655, 0.030839620158076286, 0.04227010905742645, 0.05313144996762276, 0.03814743086695671, 0.033508334308862686, -0.055542584508657455, -0.10709160566329956, -0.031465083360672, 0.07732857018709183, 0.11427236348390579, -0.015843752771615982, -0.15324093401432037, 0.1055096983909607, 0.2860480546951294, 0.1484302580356598, -0.08897386491298676, 0.016504835337400436, 0.028735261410474777, 0.0966440886259079, 0.10449220985174179, 0.08602878451347351, 0.09387915581464767, 0.05562162026762962, -0.2522754967212677, -0.021658923476934433, -0.0018776175566017628, 0.33172929286956787, 0.2238592505455017, 0.07395870238542557, -0.10497404634952545, -0.18449628353118896, -0.1079399362206459, 0.05330652371048927, 0.11292267590761185, 0.016392819583415985, -0.04596926271915436, -0.2105395346879959, -0.2680462896823883, -0.14016906917095184, 0.1985967457294464, 0.23275087773799896, 0.18617968261241913, 0.009292231872677803, -0.16710805892944336, -0.10774166882038116, -0.10842928290367126, 0.03253631293773651, 0.02797616459429264, -0.13566716015338898, -0.04865191504359245, -0.1793842613697052, -0.09994287043809891, 0.13535653054714203, 0.09937943518161774, 0.13709604740142822, -0.026376167312264442, 0.07195588201284409, -0.05400005355477333, -0.05139163136482239, 0.034003846347332, 0.05307532101869583, 0.20198222994804382, 0.12410612404346466, -0.07664651423692703, -0.28263959288597107, 0.038582660257816315, 0.11651673913002014, 0.1069922149181366, -0.004890688695013523, 0.143973708152771, 0.11105155199766159, 0.008790009655058384, 0.13422538340091705, 0.04246571287512779, 0.1260533630847931, 0.14072497189044952, 0.04372414946556091, -0.2707557678222656, -0.049420442432165146, 0.011895298026502132, 0.09417898952960968, -0.06761068850755692, 0.1361670047044754, 0.1698870062828064, 0.14755873382091522, 0.09070320427417755, 0.06179312244057655, 0.09635516256093979, 0.11264164000749588, -0.030198726803064346, -0.3777558207511902, -0.03607141226530075, -0.014253947883844376, 0.044216547161340714, 0.06573736667633057, 0.10101257264614105, 0.08481799811124802, 0.15095409750938416, 0.12573206424713135, 0.0554693378508091, 0.11592496186494827, 0.048443183302879333, -0.21243298053741455, -0.3390616178512573, -0.06273795664310455, -0.03644736856222153, 0.01709337718784809, -0.03558430075645447, 0.09421917796134949, 0.020942794159054756, 0.034933485090732574, 0.06692461669445038, 0.0982818752527237, 0.10700166970491409, 0.09346411377191544, -0.24684123694896698, -0.21954764425754547, -0.004005038179457188, -0.04013808071613312, 0.025549398735165596, -0.159539595246315, -0.010331173427402973, 0.1446874886751175, 0.10279322415590286, 0.035563770681619644, 0.019544854760169983, 0.10138244181871414, 0.09553278982639313, -0.4016701579093933, -0.09548301249742508, -0.14048150181770325, -0.029291782528162003, 0.06991825997829437, -0.05719777196645737, -0.15142208337783813, 0.04865438863635063, 0.07635525614023209, 0.011015807278454304, 0.046252768486738205, 0.09558276832103729, 0.05270750820636749, -0.40008920431137085, -0.01768658496439457, -0.0810718834400177, -0.09847963601350784, -0.049267228692770004, -0.05583159253001213, -0.07495433837175369, 0.09322488307952881, 0.07081249356269836, 0.04992354288697243, 0.0304807610809803, 0.10060030221939087, 0.09742012619972229, -0.21308521926403046, 0.09122533351182938, 0.013259508647024632, -0.018168209120631218, 0.039499785751104355, 0.11016439646482468, 0.02294650301337242, 0.1570567935705185, 0.0690227523446083, 0.045467864722013474, 0.0869387537240982, 0.05826875939965248, -0.0029396095778793097, -0.15160346031188965, -0.07452873140573502, 0.008745052851736546, -0.04159681871533394, -0.045665398240089417, 0.030688591301441193, -0.1414303481578827, -0.009596280753612518, 0.009773863479495049, 0.05125534161925316, -0.11149386316537857, -0.07109634578227997, 0.17862804234027863, 0.2615032196044922, 0.2221379280090332, 0.46346694231033325, -0.011862698942422867, -0.0745171383023262, 0.29185691475868225, 0.24724356830120087, 0.36608362197875977, 0.19946250319480896, -0.4636830985546112, -0.21802832186222076, 0.09925951808691025, -0.03614616021513939, -0.00022958421322982758, 0.04493173956871033, -0.044853828847408295, -0.1278720647096634, -0.06546662002801895, 0.04697079956531525, -0.032691553235054016, 0.06565021723508835, 0.059244055300951004, -0.26244062185287476, -0.3945871889591217, 0.07903538644313812, 0.08320692926645279, 0.04735812172293663, 0.06964817643165588, -0.16657641530036926, 0.004912822972983122, -0.007316218689084053, 0.0086537329480052, -0.08541268110275269, 0.013731950893998146, 0.04292294383049011, -0.185561403632164, -0.21663898229599, 0.003325853729620576, 0.19062228500843048, -0.054733019322156906, -0.07056911289691925, -0.14540977776050568, 0.07813350111246109, 0.030493486672639847, 0.011860363185405731, -0.0483209565281868, -0.07339286804199219, 0.036325570195913315, -0.07957775890827179, -0.03444135934114456, 0.07238850742578506, 0.06747478246688843, -0.17076067626476288, -0.043616898357868195, -0.11058809608221054, 0.06963792443275452, 0.05152411013841629, -0.043681107461452484, -0.03334929421544075, -0.08859558403491974, -0.00586690055206418, -0.07691678404808044, -0.044840455055236816, 0.03589031845331192, 0.06604695320129395, -0.25689029693603516, -0.07200632989406586, -0.12892445921897888, 0.028372520580887794, 0.05076989531517029, 0.05864522233605385, -0.04571355879306793, -0.08134664595127106, -0.08068659156560898, -0.03354400768876076, -0.021478764712810516, 0.19120892882347107, -0.014857416972517967, -0.20558349788188934, -0.06779614835977554, 0.042087480425834656, 0.1792909801006317, 0.1962764412164688, 0.02946942299604416, -0.1054060235619545, -0.003770481562241912, -0.052885502576828, -0.06734975427389145, -0.07366938889026642, 0.10679328441619873, -0.01453392580151558, -0.12709514796733856, -0.08056141436100006, 0.1681469976902008, 0.16350968182086945, 0.27405571937561035, 0.014096572063863277, -0.09715232253074646, -0.02803625352680683, 0.037739213556051254, -0.03399072587490082, -0.02173314243555069, -0.037307534366846085, -0.17433220148086548, -0.07872297614812851, -0.0337667316198349, 0.24722617864608765, 0.16401727497577667, 0.2188560515642166, 0.021686088293790817, -0.12450403720140457, -0.01770608127117157, 0.04072936251759529, -0.04291635379195213, -0.03608404099941254, 0.03176811337471008, -0.1262654960155487, -0.07588217407464981, 0.11944442987442017, 0.19914476573467255, 0.11749698221683502, 0.14756639301776886, 0.0013959198258817196, -0.045951131731271744, 0.028226152062416077, 0.058293845504522324, -0.027693217620253563, 0.0076210894621908665, 0.1497383713722229, -0.13146106898784637, 0.056877654045820236, 0.17070387303829193, 0.1758023500442505, 0.1485275775194168, 0.13114033639431, 0.016669314354658127, 0.0009276242926716805, 0.009325528517365456, 0.01952173188328743, -0.011784549802541733, 0.09944748133420944, 0.020709479227662086, -0.18110518157482147, 0.06310860812664032, 0.21292439103126526, 0.19007959961891174, 0.28879213333129883, 0.1729298233985901, 0.029458293691277504, 0.035413678735494614, -0.012169811874628067, -0.035049859434366226, -0.008360625244677067, -0.053591202944517136, -0.020076299086213112, -0.18331673741340637, 0.07901246100664139, 0.2055293172597885, 0.436164528131485, 0.36597776412963867, 0.16632875800132751, 0.09657390415668488, 0.0009693101164884865, -0.09471117705106735, -0.013532453216612339, -0.0046581667847931385, 0.04240565747022629, 0.06896211206912994, 0.11034209281206131, 0.02535378374159336, 0.20637282729148865, 0.0713793933391571, 0.10940834879875183, 0.11308500170707703, 0.18125693500041962, 0.16621191799640656, 0.17919307947158813, 0.08129271119832993, -0.07826901227235794, 0.0402897484600544, -0.057421352714300156, -0.10809772461652756, -0.03945660963654518, 0.07572273164987564, 0.031096279621124268, -0.014282655902206898, 0.00900021567940712, 0.05874670296907425, 0.002928486792370677, -0.018851060420274734, -0.05208691954612732, -0.21240673959255219, 0.020268090069293976, -0.0683021992444992, -0.05954049527645111, 0.031837098300457, 0.0785805881023407, 0.05924519896507263, 0.14237210154533386, 0.06791538745164871, 0.017497463151812553, -0.04479297623038292, -0.04893997311592102, -0.08999085426330566, -0.27983537316322327, -0.013562904670834541, -0.04519537091255188, -0.027847599238157272, 0.06459913402795792, 0.0719083771109581, 0.01621580310165882, 0.1600254476070404, 0.058375436812639236, 0.030787484720349312, -0.07540198415517807, -0.08323676139116287, -0.10000313073396683, -0.20913918316364288, -0.05944124236702919, 2.65128182945773e-05, -0.04484741389751434, 0.03792595863342285, 0.07870247960090637, 0.002536017680540681, 0.1159621924161911, 0.09216378629207611, 0.06594011932611465, -0.08186554163694382, -0.111196368932724, -0.09141950309276581, -0.13915704190731049, 0.045154865831136703, 0.02790828049182892, -0.015500365756452084, -0.01944967545568943, -0.0007077996269799769, -0.04024803638458252, 0.03772779554128647, 0.04146440327167511, 0.04980386793613434, -0.08570125699043274, -0.09804048389196396, -0.06064111739397049, -0.07568441331386566, 0.05942558869719505, 0.06552309542894363, 0.0590708889067173, -0.020623253658413887, -0.014693244360387325, -0.06302610784769058, -0.02948749251663685, 0.08217843621969223, 0.007102499715983868, -0.0930916890501976, -0.05022737756371498, -0.10618141293525696, -0.06219462305307388, 0.015197551809251308, 0.003530733520165086, 0.04002241790294647, -0.045171067118644714, -0.015201960690319538, -0.028553931042551994, -0.05704362690448761, 0.10668450593948364, 0.0016564008546993136, -0.05718434229493141, -0.03885924816131592, -0.035018909722566605, -0.023880792781710625, -0.011594037525355816, -0.013720954768359661, -0.0012413379736244678, -0.09988950937986374, -0.07240718603134155, -0.057822756469249725, -0.18446412682533264, 0.10802818089723587, 0.025735359638929367, -0.06543408334255219, -0.053590189665555954, -0.024533836171030998, -0.02317841351032257, -0.016221534460783005, 0.013813876546919346, 0.01408691331744194, -0.1005573645234108, -0.07359017431735992, -0.08277857303619385, -0.2633092403411865, 0.06539364904165268, 0.030354369431734085, -0.021538009867072105, -0.053416166454553604, -0.044717226177453995, -0.003579496406018734, -0.01157113816589117, 0.015402602963149548, -0.0002376761840423569, -0.08618573844432831, -0.040641430765390396, -0.036008331924676895, -0.2246323674917221, 0.09819837659597397, 0.061800938099622726, 0.00439809774979949, -0.04479382187128067, -0.05955730751156807, 0.013024214655160904, 0.036563534289598465, 0.00020740371837746352, 0.006621319334954023, -0.0778128132224083, -0.04325859993696213, -0.05945300683379173, -0.20413485169410706, 0.05477379634976387, 0.03364371135830879, 0.032162658870220184, -0.06020240858197212, -0.04982505366206169, -0.011021286249160767, 0.08460471034049988, 0.0007196344085969031, -0.0018257087795063853, -0.016552647575736046, -0.013112054206430912, -0.023540331050753593, -0.15501104295253754, 0.1847807615995407, 0.0436212420463562, 0.00573342340067029, -0.0543435774743557, -0.042717281728982925, 0.03852143883705139, -0.02518247812986374, 0.06635745614767075, -0.025599919259548187, -0.12325599789619446, 0.10395685583353043, 0.008160552941262722, 0.028994642198085785, 0.0175767969340086, 0.04511057585477829, 0.023457828909158707, 0.028655821457505226, -0.06256861984729767, -0.31082937121391296, 0.047913115471601486, 0.02475382573902607, -0.07227599620819092, -0.043258871883153915, 0.1291792094707489, 0.05358421802520752, 0.07614734023809433, 0.078599713742733, 0.07153967767953873, -0.07822347432374954, -0.016556788235902786, -0.018429698422551155, -0.17907392978668213, -0.02167772874236107, -0.061892908066511154, -0.0393826887011528, -0.01593402773141861, 0.11166118085384369, 0.06255457550287247, 0.14053326845169067, 0.12940122187137604, 0.022494276985526085, -0.0805683508515358, -0.04482271149754524, -0.10544907301664352, -0.3055371046066284, 0.02373051829636097, 0.01549033634364605, -0.010903626680374146, -0.01695246435701847, 0.08983034640550613, 0.014837212860584259, 0.19337047636508942, 0.1569267213344574, 0.03302757814526558, -0.05748748779296875, -0.1402679830789566, -0.072964608669281, -0.1888992339372635, 0.011755242012441158, 0.038909442722797394, -0.01716422103345394, -0.025067146867513657, 0.03709704056382179, -0.02709081955254078, 0.10320205986499786, 0.07916822284460068, 0.040675319731235504, -0.06315982341766357, -0.12070360779762268, -0.13898520171642303, -0.22935330867767334, 0.05670874938368797, 0.08515791594982147, 0.009622049517929554, -0.05681682750582695, -0.0584816113114357, -0.09199053794145584, -0.032746750861406326, 0.02922564186155796, 0.060189321637153625, -0.09061653167009354, -0.08374691009521484, -0.05991894006729126, -0.12450527399778366, 0.06443441659212112, 0.04941976070404053, 0.03031528741121292, 0.0006816111272200942, -0.1107855960726738, -0.04509337618947029, -0.10958734899759293, 0.07500009983778, 0.02918568253517151, -0.055788639932870865, -0.03191507235169411, -0.05373474210500717, -0.05454827472567558, 0.04697584733366966, 0.08349105715751648, -0.012774171307682991, -0.05652827024459839, -0.14101429283618927, -0.08114609867334366, -0.16997629404067993, 0.007745570503175259, 0.024930069223046303, -0.0997319296002388, -0.055927589535713196, 0.0022890621330589056, -0.06035549193620682, 0.06267490983009338, 0.03813537582755089, 0.08490757644176483, -0.06959371268749237, -0.1201440840959549, -0.08713539689779282, -0.2711515426635742, 0.0357624813914299, 0.06360187381505966, -0.02564164064824581, 0.005671145860105753, 0.001430196687579155, -0.015671873465180397, 0.05473361536860466, 0.05373874306678772, 0.026333928108215332, -0.10786464065313339, -0.14806252717971802, -0.09757275879383087, -0.3448176681995392, -0.016421465203166008, 0.09395667165517807, 0.008558159694075584, 0.019091151654720306, -0.009530049748718739, -0.011736470274627209, 0.10214666277170181, 0.04666156321763992, 0.07828497141599655, -0.09165516495704651, -0.13389015197753906, -0.07877794653177261, -0.37953341007232666, 0.01291207317262888, 0.06629795581102371, 0.06723495572805405, 0.022046001628041267, 0.016360033303499222, 0.021301230415701866, 0.012675746344029903, -0.013230781070888042, 0.0675981193780899, -0.006332972086966038, -0.11728006601333618, -0.06017054244875908, -0.3571354150772095, 0.0066375453025102615, 0.06809865683317184, 0.00971861183643341, 0.0046557290479540825, -0.03397674858570099, 0.008322677575051785, 0.039101216942071915, 0.0010779936565086246, 0.0365036278963089, 0.027691293507814407, -0.048442333936691284, -0.044609103351831436, -0.31382957100868225, 0.07975171506404877, 0.06656898558139801, 0.0014570537023246288, 0.006208593957126141, 0.011088942177593708, 0.006657127756625414, 0.05007972940802574, -0.30701565742492676, -0.20351123809814453, 0.22379128634929657, 0.0427820086479187, -0.14068397879600525, -0.26576370000839233, -0.2944194972515106, -0.0262228325009346, 0.03371024876832962, 0.2206011712551117, 0.26210179924964905, -0.17085759341716766, 0.024514734745025635, -0.13713671267032623, -0.1849047988653183, -0.02015688270330429, 0.15626169741153717, 0.04902667924761772, -0.07490621507167816, -0.0849568173289299, 0.014987826347351074, -0.016497556120157242, -0.052130892872810364, 0.07189889997243881, -0.08147939294576645, -0.16392531991004944, -0.1798124760389328, -0.16373200714588165, 0.04727022349834442, 0.14717739820480347, -0.0577772818505764, -0.2193535417318344, 0.07442691177129745, 0.09057089686393738, -0.04836542159318924, -0.06997058540582657, -0.027727097272872925, -0.06971435248851776, -0.1970873773097992, -0.1683608442544937, 0.06732311099767685, -0.026599444448947906, -0.08366627246141434, 0.00951678678393364, -0.34971725940704346, 0.1068834662437439, 0.031744979321956635, -0.04893539845943451, -0.14798863232135773, -0.02347341738641262, -0.10902538895606995, -0.3494546711444855, -0.2713049054145813, 0.09268438071012497, -0.18412308394908905, -0.14525578916072845, -0.011858335696160793, -0.12212023884057999, 0.17939075827598572, -0.13083840906620026, -0.04347749426960945, -0.11727303266525269, -0.012771972455084324, -0.12103396654129028, -0.021941237151622772, -0.23236775398254395, -0.07424453645944595, -0.2536221742630005, -0.04238437861204147, -0.16759228706359863, -0.0036113280802965164, 0.03996732085943222, -0.10960265249013901, -0.139455646276474, -0.024481670930981636, -0.09077300876379013, -0.11642090976238251, -0.12956151366233826, -0.2915571630001068, -0.026122013106942177, -0.2520662248134613, -0.2541063129901886, -0.12747810781002045, 0.1420672982931137, 0.11856681853532791, -0.04177717864513397, -0.194091334939003, -0.02923298068344593, -0.01242017187178135, -0.1134984940290451, -0.08424992859363556, -0.2972527742385864, -0.010101504623889923, -0.11363516002893448, -0.21109718084335327, 0.0835454985499382, 0.2776102125644684, 0.14610745012760162, 0.01124319713562727, -0.18486662209033966, -0.04487644135951996, 0.016546906903386116, -0.14460350573062897, 0.08434190601110458, -0.17105241119861603, -0.22475871443748474, -0.11509155482053757, -0.20349916815757751, 0.14412853121757507, 0.2911062240600586, 0.06623977422714233, -0.005795748438686132, -0.13468793034553528, -0.17739388346672058, 0.04899635910987854, -0.15688206255435944, 0.05601872503757477, -0.09771517664194107, -0.27043417096138, -0.059745047241449356, -0.15114963054656982, 0.20749938488006592, 0.36560264229774475, 0.004779632668942213, 0.02910342440009117, -0.05128772184252739, -0.10869517177343369, 0.0407676137983799, -0.14697350561618805, 0.008498595096170902, -0.05195647105574608, -0.1735277771949768, -0.0531097874045372, 0.039064835757017136, 0.18330971896648407, 0.465998113155365, -0.00823983084410429, 0.1060849279165268, -0.0497422069311142, -0.12298967689275742, 0.013782450929284096, -0.15162886679172516, 0.004727551247924566, -0.13982968032360077, -0.2795717418193817, -0.15941010415554047, 0.037418801337480545, 0.16118977963924408, 0.5186216235160828, 0.027473144233226776, 0.0840054601430893, -0.01001289114356041, -0.16565950214862823, 0.03182855248451233, -0.0941133201122284, -0.08515593409538269, 0.01769593171775341, -0.30053088068962097, -0.21364758908748627, 0.11177312582731247, 0.21326030790805817, 0.7594437003135681, 0.08538603037595749, 0.1811804175376892, 0.035280756652355194, -0.2252521961927414, -0.033088404685258865, -0.04387463629245758, -0.035808902233839035, -0.00011425923730712384, 0.18649311363697052, 0.03883955627679825, 0.18981346487998962, 0.10789330303668976, 0.09582746773958206, 0.10305086523294449, 0.18245109915733337, 0.15655209124088287, 0.21953162550926208, 0.13631601631641388, -0.07123294472694397, -0.017470207065343857, 0.01585756614804268, -0.03338177874684334, -0.1519971340894699, 0.05134349688887596, 0.04164730757474899, 0.0034771806094795465, -0.02625686302781105, 0.049832336604595184, -0.023397190496325493, -0.03942078351974487, -0.04940042644739151, -0.08749192953109741, 0.019919738173484802, -0.04610851779580116, -0.025918317958712578, -0.0948876440525055, 0.07084278017282486, 0.020077476277947426, 0.09377887099981308, 0.06285791844129562, 0.0035993815399706364, -0.042878612875938416, -0.07058002799749374, -0.05138294771313667, -0.1040954738855362, -0.011553122662007809, -0.049244657158851624, 0.0034048513043671846, -0.024622753262519836, 0.1035870760679245, -0.003650252940133214, 0.11976145207881927, 0.10172475129365921, 0.06200098618865013, -0.03720591962337494, -0.06915588676929474, -0.04902508482336998, -0.0661352127790451, -0.002352820010855794, -0.01167549192905426, -0.006523540709167719, -0.06162124127149582, 0.10907372087240219, -0.020921332761645317, 0.060469336807727814, 0.10136858373880386, 0.07781972736120224, -0.037584882229566574, -0.12605175375938416, -0.030923735350370407, -0.11308184266090393, 0.035078998655080795, 0.007308480329811573, -0.0060249436646699905, -0.027586229145526886, -0.0029841242358088493, -0.08950310200452805, 0.005671858787536621, 0.07898436486721039, 0.073416568338871, -0.04508127272129059, -0.1048118993639946, -0.08568199723958969, -0.08550716191530228, 0.04148997738957405, 0.10375595092773438, 0.04737620800733566, -0.009349324740469456, -0.0351836122572422, -0.0445597805082798, -0.03245323896408081, 0.04933668673038483, 0.02279125154018402, -0.05135886371135712, -0.052759867161512375, -0.08190342038869858, -0.07808057963848114, 0.015201734378933907, 0.06595952063798904, 0.050873178988695145, -0.010286143980920315, -0.050507526844739914, -0.05832212418317795, -0.08504681289196014, 0.0876205787062645, 0.03252729773521423, -0.10834839940071106, -0.0301738940179348, -0.03757168725132942, -0.06709058582782745, 0.021896973252296448, 0.011629373766481876, 0.026995493099093437, -0.04295798018574715, -0.11250022053718567, -0.04400428757071495, -0.12901374697685242, 0.05478385090827942, 0.03730698674917221, -0.05580264329910278, -0.07551106065511703, -0.03845749795436859, -0.05249316990375519, 0.0313764289021492, 0.038495179265737534, -0.010746870189905167, -0.061261970549821854, -0.09343848377466202, -0.042244527488946915, -0.19422177970409393, -0.02677021734416485, 0.042933762073516846, 0.011650541797280312, -0.06893007457256317, -0.05015815794467926, -0.06696240603923798, 0.024765949696302414, 0.027863284572958946, 0.013516051694750786, -0.1046314612030983, -0.12252914160490036, -0.049933310598134995, -0.20018191635608673, -0.02330620028078556, 0.05646606162190437, -0.005948680453002453, -0.04776129126548767, -0.056271303445100784, -0.008894210681319237, 0.039782073348760605, -0.015880543738603592, 0.008974329568445683, -0.06587408483028412, -0.06650746613740921, -0.07393446564674377, -0.15574637055397034, 0.011521769687533379, 0.021010037511587143, 0.03054782561957836, -0.06550882011651993, -0.04875132814049721, -0.004336748272180557, 0.03138125315308571, 0.024365343153476715, 0.013116358779370785, -0.0651874914765358, -0.06284713000059128, -0.01035857480019331, -0.12208456546068192, 0.07416454702615738, 0.074419766664505, 0.00506621366366744, -0.07655508071184158, -0.051289647817611694, 0.028624992817640305, -0.0043886625207960606, 0.007967939600348473, 0.031220395117998123, 0.15450522303581238, -0.14232313632965088, 0.07463673502206802, -0.1037454903125763, -0.27916502952575684, 0.07391031831502914, 0.08051569014787674, 0.10686193406581879, 0.02308245562016964, -0.06288338452577591, -0.018377788364887238, 0.03238740563392639, -0.0674339234828949, 0.009756205603480339, -0.09993213415145874, -0.14910249412059784, -0.1119605153799057, -0.14364850521087646, 0.00483735604211688, -0.020627452060580254, -0.01849324442446232, 0.02062409557402134, -0.062207698822021484, -0.021884877234697342, 0.08784710615873337, 0.015674790367484093, 0.0008115079835988581, -0.045724932104349136, -0.30840522050857544, -0.14795903861522675, -0.03759749233722687, -0.010588422417640686, -0.0339815653860569, -0.020617764443159103, -0.04230080172419548, -0.11577063053846359, 0.01726297289133072, -0.050162725150585175, 0.09794411063194275, -0.10701090842485428, -0.27313414216041565, -0.321161150932312, -0.11468551307916641, -0.04439982399344444, 0.0017221382586285472, 0.026575172320008278, -0.08515150099992752, -0.01950973831117153, -0.09819658100605011, 0.005450355354696512, -0.05192334204912186, 0.04234541952610016, -0.21098604798316956, -0.20103999972343445, -0.18114854395389557, -0.03102356567978859, -0.134771466255188, -0.0028618969954550266, 0.07287193089723587, -0.05427166074514389, -0.08084164559841156, -0.13339991867542267, -0.027089256793260574, -0.024653565138578415, -0.06794964522123337, -0.3058980405330658, -0.15116509795188904, -0.05167994648218155, 0.03131718933582306, -0.13860295712947845, 0.012978064827620983, -0.010199977084994316, -0.040397875010967255, -0.08845142275094986, -0.07722926139831543, -0.005068947561085224, 0.04761047661304474, -0.12278075516223907, -0.2858094871044159, -0.14119407534599304, 0.059405114501714706, 0.17259448766708374, 0.07633058726787567, -0.012030357494950294, -0.08312758058309555, -0.004714373033493757, -0.07827229797840118, -0.07938537001609802, -0.0019188522128388286, 0.012215220369398594, -0.15953925251960754, -0.22370778024196625, -0.12716148793697357, 0.2117346078157425, 0.18595139682292938, 0.1452329158782959, -0.009982222691178322, -0.036350999027490616, -0.0038176914677023888, -0.044813454151153564, -0.0505017451941967, -0.05044514685869217, -0.024680305272340775, -0.20425759255886078, -0.16606183350086212, -0.02813703939318657, 0.35002419352531433, 0.21501874923706055, 0.10697450488805771, 0.005743999034166336, -0.0832224115729332, -0.05883702263236046, 0.0033420659601688385, -0.06847415119409561, -0.026498913764953613, 0.02142295613884926, -0.210809588432312, -0.17350871860980988, 0.14809474349021912, 0.28457722067832947, 0.30144092440605164, 0.06122838333249092, -0.018082354217767715, -0.05988028645515442, -0.04647048935294151, -0.005004051607102156, -0.022833582013845444, 0.0068269879557192326, 0.05452278256416321, -0.2031380534172058, -0.038948267698287964, 0.26251018047332764, 0.25844669342041016, 0.32555505633354187, 0.08217241615056992, -0.02863510325551033, -0.0031232372857630253, -0.029245255514979362, -0.04875587299466133, -0.05407113954424858, -0.030731920152902603, -0.02696182206273079, -0.22691430151462555, -0.07504022866487503, 0.30930235981941223, 0.33432263135910034, 0.47363778948783875, 0.11182314157485962, -0.009508361108601093, -0.00211751414462924, -0.1238691583275795, -0.0790645033121109, -0.05646952614188194, -0.05775320902466774, -0.04824463278055191, -0.25656944513320923, 0.006782530341297388, 0.22603289783000946, 0.5640090703964233, 0.5463730096817017, 0.056913409382104874, 0.02329256944358349, -0.0603678822517395, -0.15286777913570404, -0.05066489800810814, -0.001335077453404665, -0.026766134425997734, -0.007413841318339109, -0.022513220086693764, -0.04015036299824715, 0.20703983306884766, 0.09002411365509033, 0.08598929643630981, 0.08015559613704681, 0.1578315943479538, 0.12259505689144135, 0.1372121125459671, 0.03685848414897919, -0.23989616334438324, 0.004052470438182354, -0.03682174161076546, -0.06001616641879082, -0.05824531242251396, 0.09308720380067825, 0.0575050488114357, 0.07702745497226715, 0.040279753506183624, 0.018338164314627647, -0.027829235419631004, -0.039492495357990265, -0.0589328408241272, -0.29698994755744934, -0.029757771641016006, -0.05505304038524628, -0.04166453331708908, -0.0042396471835672855, 0.10482924431562424, 0.08153722435235977, 0.12963137030601501, 0.048062507063150406, 0.017448369413614273, -0.01791360042989254, -0.05149898678064346, -0.10290103405714035, -0.3094855844974518, -0.04496530070900917, 0.000751826970372349, -0.00823501218110323, 0.03513326868414879, 0.109233058989048, 0.02329050563275814, 0.1267736703157425, 0.05889635905623436, 0.03253743052482605, -0.05008523538708687, -0.07362519204616547, -0.09312022477388382, -0.20526601374149323, -0.03263679891824722, 0.021979333832859993, -0.049549441784620285, -0.013786337338387966, 0.027578622102737427, -0.009564106352627277, 0.07787662744522095, 0.022308669984340668, 0.07280555367469788, -0.12128405272960663, -0.0882624089717865, -0.052112922072410583, -0.15385308861732483, 0.022019924595952034, -0.011452671140432358, 0.002068928210064769, -0.021365590393543243, -0.007868772372603416, -0.0270287673920393, 0.006740229669958353, 0.055208269506692886, 0.021135861054062843, -0.08311585336923599, -0.09829338639974594, -0.06728755682706833, -0.11178553104400635, 0.032642215490341187, -0.0061257099732756615, 0.036552056670188904, -0.05733922868967056, -0.03148720785975456, -0.019136399030685425, -0.029186248779296875, 0.0896603986620903, -0.0031400262378156185, -0.10918969660997391, -0.053983137011528015, -0.04023749381303787, -0.011463424190878868, 0.011525089852511883, 0.023176206275820732, -0.003636787412688136, -0.04558086022734642, -0.08510314673185349, -0.016076071187853813, -0.09731108695268631, 0.09070684015750885, 0.02335905283689499, -0.10845793783664703, -0.05645354837179184, -0.021351322531700134, -0.02805652841925621, -0.0173250250518322, 0.01872095838189125, 0.017728669568896294, -0.09382594376802444, -0.04530434310436249, -0.021569514647126198, -0.2012868970632553, 0.06288130581378937, 0.030342314392328262, -0.095150426030159, -0.014808529987931252, -0.05502129718661308, -0.011433291248977184, -0.013695464469492435, 0.04048282280564308, -0.021008053794503212, -0.08540929108858109, -0.06712938845157623, -0.034290436655282974, -0.2711646854877472, 0.07354388386011124, 0.035843197256326675, -0.005763844586908817, -0.04064371436834335, -0.04381418973207474, -0.005096083972603083, -0.03830588236451149, 0.022074315696954727, -0.001116227125748992, -0.10231155902147293, -0.050484806299209595, -0.07578957080841064, -0.25598472356796265, 0.10539819300174713, 0.05754904821515083, -0.03798495605587959, -0.04256576672196388, -0.006692769471555948, -0.036478377878665924, 0.006899246014654636, -0.0440325103700161, 0.018292414024472237, -0.06446899473667145, -0.06331152468919754, -0.04060918837785721, -0.21451450884342194, 0.11326658725738525, 0.023289285600185394, -0.04098445549607277, -0.08745688945055008, -0.045912835747003555, 0.017695557326078415, 0.03447302058339119, -0.009470908902585506, 0.03876949101686478, -0.05085248872637749, -0.033371906727552414, 0.004973003175109625, -0.15698514878749847, 0.18408910930156708, 0.051771752536296844, 0.02215702272951603, -0.08009377121925354, -0.020932091400027275, 0.003713376587256789, -0.01626736856997013, 0.007614466827362776, -0.024708295240998268, 0.06278019398450851, -0.22013896703720093, -0.2867911159992218, -0.21487991511821747, -0.24438489973545074, -0.25953224301338196, -0.14455284178256989, -0.04322400316596031, 0.0016527766129001975, 0.030483145266771317, 0.004992134403437376, 0.009280714206397533, 0.0075670648366212845, 0.05609172582626343, -0.1755465269088745, -0.23569974303245544, -0.4371699392795563, -0.3175816833972931, -0.09949157387018204, -0.14755769073963165, -0.1261870414018631, -0.008616194128990173, -0.010532822459936142, -0.02295449934899807, 0.00014691092655993998, -0.07452777773141861, -0.08104738593101501, -0.2925989031791687, -0.08672291785478592, -0.27742999792099, -0.33459585905075073, -0.28916510939598083, -0.10284465551376343, -0.040929798036813736, -0.04073148965835571, -0.013343323953449726, 0.006962567567825317, -0.007364161312580109, -0.062107693403959274, -0.11222216486930847, -0.3996277153491974, -0.03467099741101265, -0.1542227566242218, -0.3125247359275818, -0.39182087779045105, -0.10085108131170273, -0.05008277669548988, -0.0351705476641655, 0.002508035860955715, -0.012554694898426533, -0.03036978840827942, -0.07266648858785629, -0.1827448159456253, -0.304147869348526, -0.049392059445381165, -0.09366324543952942, -0.3716140687465668, -0.3458665907382965, -0.12062279134988785, -0.0775199830532074, 0.0009419243433512747, -0.02814709022641182, -0.00937121082097292, -0.042867861688137054, -0.07934403419494629, -0.1394553780555725, -0.27779871225357056, -0.29601535201072693, -0.08357130736112595, -0.4474732279777527, -0.23225246369838715, -0.11697732657194138, -0.0621299110352993, 0.0015524054178968072, -0.018443167209625244, 0.010182272642850876, -0.01522864867001772, -0.03786002844572067, -0.10570927709341049, -0.10834062844514847, -0.13685810565948486, 0.013020101934671402, -0.44427263736724854, -0.06753015518188477, -0.0752745270729065, -0.013725543394684792, 0.01509236078709364, 0.020205464214086533, 0.004102604929357767, -0.006822464056313038, -0.05967088043689728, -0.08969850838184357, -0.01219943817704916, 0.11891990900039673, 0.2601712942123413, -0.32747066020965576, -0.13425807654857635, -0.11299382150173187, -0.08132767677307129, 0.012074126861989498, -0.014318378642201424, 0.0009451685473322868, -0.04616294801235199, -0.033104296773672104, -0.08889350295066833, -0.01764081045985222, 0.23396770656108856, 0.40945860743522644, -0.10782770812511444, -0.11623790115118027, -0.14047609269618988, -0.11157788336277008, 0.03237633407115936, 0.011337119154632092, -0.003273254493251443, -0.02643870748579502, -0.046171676367521286, -0.01348036713898182, 0.06130993738770485, 0.18871502578258514, 0.20782744884490967, -0.2995515465736389, -0.08682215213775635, -0.11044749617576599, -0.0173477940261364, -0.000763893302064389, -0.022530343383550644, -0.017349690198898315, 0.010686514899134636, -0.061544179916381836, -0.0839257538318634, -0.010342522524297237, 0.13096414506435394, 0.1894722431898117, -0.24149271845817566, -0.027650445699691772, -0.055459242314100266, -0.07370524108409882, 0.04715905711054802, -0.008095082826912403, -0.019623255357146263, -0.035784997045993805, -0.047246698290109634, 0.04388703778386116, 0.1116391196846962, 0.0953279659152031, 0.12672851979732513, -0.38054996728897095, 0.007797093130648136, 0.07447408139705658, 0.038052406162023544, -0.019626161083579063, 0.02114442177116871, -0.008498376235365868, -0.06131533905863762, -0.14886553585529327, -0.28722769021987915, -0.5106081962585449, -0.2896295189857483, 0.48694854974746704, -0.48817411065101624, -0.4502822458744049, -0.14480094611644745, -0.1349642425775528, -0.02806633897125721, -0.01824304088950157, 0.020454196259379387, -0.10062570869922638, -0.43558087944984436, -0.43990957736968994, 0.29829832911491394, 0.003385058604180813, -0.1389317661523819, 0.10091078281402588, 0.32780563831329346, 0.20320893824100494, 0.011848779395222664, -0.40961989760398865, -0.5704182982444763, -0.1639210283756256, -0.13280385732650757, 0.13740864396095276, -0.24915958940982819, -0.2151125818490982, -0.14752237498760223, -0.22431135177612305, -0.2870025038719177, -0.17748256027698517, -0.24108293652534485, -0.20096279680728912, 0.23938781023025513, -0.1055075079202652, -0.3035906255245209, -0.06769557297229767, 0.07418272644281387, 0.05811034142971039, 0.10353023558855057, 0.010195848532021046, -0.15817783772945404, -0.1584225594997406, -0.23396679759025574, -0.14006510376930237, -0.08033215254545212, -0.025045163929462433, -0.06972445547580719, -0.40643197298049927, 0.0015178981702774763, 0.14553575217723846, 0.05791845917701721, 0.05927338823676109, 0.07921469956636429, -0.03488408029079437, -0.08441246300935745, -0.13176725804805756, -0.2287452667951584, -0.017881182953715324, -0.06550879031419754, -0.10215827077627182, -0.25410041213035583, -0.07916337996721268, -0.009412125684320927, -0.008016424253582954, 0.03924841806292534, 0.1468823403120041, -0.047545984387397766, -0.06499118357896805, 0.04937753453850746, -0.07990510761737823, -0.11048797518014908, -0.1371747851371765, -0.08501162379980087, -0.27590152621269226, 0.017019351944327354, -0.0032363268546760082, 0.03676057979464531, 0.05433935672044754, 0.01677212491631508, -0.14558297395706177, -0.15817710757255554, -0.034726109355688095, 0.05754992738366127, -0.04219638183712959, -0.10248798131942749, -0.07323994487524033, -0.296764999628067, -0.01727612130343914, 0.0036920090205967426, 0.021808095276355743, -0.009302406571805477, -0.059911202639341354, -0.1900402456521988, -0.17653800547122955, -0.011941266246140003, 0.012957165017724037, -0.02735695242881775, -0.13596458733081818, -0.09825741499662399, -0.3410130441188812, 0.005921410862356424, -0.013230269774794579, -0.01828908361494541, -0.07380886375904083, -0.12428812682628632, -0.2567855715751648, -0.13395705819129944, -0.03927822411060333, -0.06850874423980713, -0.03236287087202072, -0.11326655000448227, -0.041191648691892624, -0.1522313952445984, 0.1121407002210617, -0.05044905096292496, -0.009874165058135986, -0.09197600930929184, -0.12578177452087402, -0.20952904224395752, -0.10602527856826782, 0.041183795779943466, -0.09313644468784332, -0.04268524423241615, -0.02331460826098919, -0.11337922513484955, 0.03728405758738518, 0.17122715711593628, 0.02983337827026844, 0.027782944962382317, -0.10007738322019577, -0.1605328470468521, -0.25380221009254456, -0.13235758244991302, 0.036904290318489075, -0.0679062232375145, -0.06925003230571747, -0.03505376726388931, -0.16824492812156677, 0.09668930619955063, 0.14085812866687775, 0.0016072988510131836, 0.041812267154455185, -0.07015252113342285, -0.134409561753273, -0.16546957194805145, -0.13785883784294128, 0.013559280894696712, 0.05130981281399727, -0.009407445788383484, -0.05231273174285889, -0.10816622525453568, 0.015155027620494366, 0.18556822836399078, 0.050783347338438034, 0.033905789256095886, 0.012229002080857754, -0.12675181031227112, -0.1709928959608078, -0.10844936966896057, 0.0470561645925045, 0.02100956439971924, 0.057601992040872574, -0.02235751785337925, -0.07309379428625107, 0.09200143069028854, 0.08462301641702652, 0.14214205741882324, 0.0606950968503952, 0.38389459252357483, 0.032344136387109756, -0.09601388871669769, -0.060638535767793655, -0.190737783908844, 0.04947138577699661, 0.09510169178247452, 0.09566523879766464, -0.09312308579683304, -0.11185170710086823, -0.014292540960013866, -0.18504758179187775, 0.1314222812652588, 0.21884746849536896, 0.0741262435913086, 0.0069494424387812614, 0.056689709424972534, 0.21781499683856964, 0.08357951790094376, 0.07025530934333801, -0.2746376693248749, -0.268358439207077, -0.10038401931524277, 0.08764133602380753, 0.027779225260019302, -0.12928326427936554, 0.011565573513507843, -0.0012396203819662333, -0.002166269812732935, -0.0012551759136840701, -0.010556659661233425, -0.07986140996217728, -0.015409620478749275, 0.04103698581457138, -0.30658018589019775, -0.03134416043758392, 0.06288907676935196, 0.06488677114248276, 0.027948586270213127, -0.01873120293021202, -0.011080308817327023, -0.03517083451151848, -0.0402320958673954, 0.008171425200998783, 0.015501867979764938, 0.01305872667580843, 0.010418636724352837, -0.1788226217031479, -0.06650298088788986, 0.05336829647421837, 0.06248612329363823, 0.05540237948298454, 0.05003736540675163, 0.017323557287454605, -0.009602929465472698, 0.002835217397660017, 0.0030038675758987665, 0.012284873053431511, 0.007489609997719526, -0.04486086964607239, -0.1938616782426834, -0.010482032783329487, 0.012726111337542534, 0.061574261635541916, -0.0025753697846084833, 0.08302120119333267, 0.03542070463299751, -0.015980802476406097, 0.024588413536548615, 0.05035177245736122, -0.01522888895124197, -0.02047349326312542, -0.05752229318022728, -0.1481417417526245, 0.007485467009246349, -0.011748681776225567, 0.023143893107771873, 0.030628060922026634, 0.04425528645515442, 0.022881703451275826, -0.009279209189116955, 0.023985721170902252, 0.026979321613907814, 0.0061438982374966145, 0.04268648102879524, -0.05363120138645172, -0.12988527119159698, 0.030826227739453316, 0.02960089221596718, 0.0812407061457634, 0.028792547062039375, 0.016072023659944534, 0.036382656544446945, -0.026321331039071083, 0.01266433671116829, -0.028611065819859505, -0.02798363007605076, 0.0412687286734581, -0.019758593291044235, -0.13731907308101654, 0.02844172529876232, -0.014264173805713654, 0.04122552275657654, 0.02273847907781601, 0.013278942555189133, 0.0465814471244812, -0.029484756290912628, -0.027147848159074783, -0.039895351976156235, -0.029992111027240753, 0.063931904733181, 0.00013090604625176638, -0.049194321036338806, -0.04593747854232788, 0.00040214252658188343, -0.003359050489962101, 0.002592543140053749, -0.0008932290365919471, 0.030943702906370163, 0.019156573340296745, -0.0035534289199858904, -0.056695662438869476, -0.036977171897888184, 0.03626338765025139, -0.03637019917368889, -0.060772575438022614, -0.0633869469165802, -0.04325439780950546, -0.0035881856456398964, 0.029649050906300545, 0.00803481973707676, -0.0032944045960903168, 0.02436845377087593, -0.021404268220067024, -0.07510410249233246, -0.016259150579571724, 0.00020454124023672193, -0.0047567919827997684, -0.06489695608615875, -0.046482909470796585, 0.003225841326639056, -0.0161299891769886, -0.022448264062404633, 0.019090566784143448, 0.035894960165023804, -0.003443940542638302, 0.0007875337032601237, -0.014756102114915848, 0.01929016225039959, 0.00928487628698349, 0.018410684540867805, -0.010056708008050919, -0.025784827768802643, 0.006616509053856134, -0.00836380384862423, 0.014053073711693287, 0.030115889385342598, 0.05486584082245827, 0.04296229034662247, 0.008009514771401882, -0.012481683865189552, 0.016270264983177185, 0.032364629209041595, 0.02088090404868126, -0.029050659388303757, -0.07799284905195236, 0.01949789561331272, 0.0037913352716714144, 0.03088649921119213, -0.034788742661476135, -0.026973888278007507, -0.0264754481613636, -0.020695654675364494, -0.05999816581606865, 0.0010779125150293112, 0.031123802065849304, 0.023066647350788116, 0.008504997938871384, -0.14555926620960236, -0.2803400754928589, 0.23610137403011322, 0.060814931988716125, 0.10170755535364151, -0.0056913141161203384, 0.06609783321619034, 0.04624505341053009, 0.10708022117614746, 0.07715199887752533, -0.02548755332827568, -0.00831559207290411, -0.2996910810470581, -0.08818359673023224, 0.061890289187431335, 0.042186349630355835, -0.01453875657171011, 0.05427156761288643, -0.04467203468084335, -0.09614366292953491, -0.09390416741371155, -0.07331346720457077, -0.07947596162557602, 0.0029555640649050474, -0.15288980305194855, -0.22949638962745667, -0.11231843382120132, 0.03268507495522499, 0.07916566729545593, 0.052136536687612534, 0.023463888093829155, -0.036450665444135666, -0.07239853590726852, -0.08177582919597626, 0.016488077118992805, 0.028862720355391502, -0.013969138264656067, -0.06738775968551636, -0.26580166816711426, -0.06166599690914154, -0.01108960434794426, 0.0687900260090828, 0.05528464540839195, 0.04095051437616348, 0.05810808762907982, 0.0037946149241179228, -0.002043426502496004, 0.03530599921941757, -0.0006493001128546894, -0.02185189537703991, -0.10482702404260635, -0.2137099802494049, -0.04169682785868645, -0.04200870543718338, 0.013478394597768784, 0.06775166839361191, 0.10242299735546112, 0.06317999213933945, 0.00847510527819395, 0.012443019077181816, 0.02000902034342289, -0.01981671154499054, 0.002477742498740554, -0.11148567497730255, -0.15616081655025482, -0.04586410149931908, -0.06607792526483536, 0.023123236373066902, 0.029346736147999763, 0.03802116960287094, 0.02010524272918701, 0.0009774205973371863, -0.051808182150125504, -0.029866809025406837, -0.02687903121113777, 0.01802888512611389, -0.06691014766693115, -0.1839161366224289, 0.0070163048803806305, -0.024897702038288116, 0.04951269552111626, -0.0021309133153408766, 0.029937759041786194, -0.002126202918589115, -0.034880705177783966, -0.04964602366089821, -0.049907438457012177, -0.025807267054915428, 0.021636929363012314, -0.022696485742926598, -0.10344041883945465, 0.033613190054893494, -0.04647491127252579, 0.03274475410580635, -0.02545800246298313, 0.004075512755662203, 0.0022033625282347202, -0.022431304678320885, -0.018899988383054733, -0.08217871934175491, -0.07654827833175659, 0.030219200998544693, -0.0401822105050087, -0.06477639824151993, -0.011511305347084999, -0.08784793317317963, -0.011361058801412582, -0.04244159907102585, 0.028341371566057205, 0.019897503778338432, 0.013218994252383709, -0.053199801594018936, -0.07492029666900635, -0.04092227667570114, 0.013601929880678654, -0.06029985100030899, -0.06338343769311905, -0.015370907261967659, -0.09350375086069107, -0.03943058103322983, -0.07680316269397736, 0.0013555913465097547, -0.0158083438873291, 0.00946127064526081, -0.050870731472969055, -0.051342472434043884, -0.08295159786939621, -0.03603588417172432, -0.05808839574456215, -0.09466639906167984, -0.10265473276376724, -0.05541815608739853, -0.013784894719719887, -0.09583135694265366, 0.030556583777070045, 0.04225080460309982, 0.009160667657852173, -0.030526526272296906, -0.022202419117093086, -0.07228859513998032, -0.05362611263990402, -0.05737693980336189, -0.031315434724092484, -0.06883077323436737, -0.039900947362184525, -0.04240848869085312, -0.06841790676116943, 0.08025702834129333, 0.051906611770391464, 0.053243398666381836, 0.021885430440306664, 0.01276945136487484, -0.008857221342623234, -0.020270386710762978, -0.011935659684240818, 0.017265144735574722, -0.20834118127822876, -0.0566604919731617, -0.0693991631269455, 0.02732951194047928, 0.048507604748010635, -0.010249810293316841, -0.057802315801382065, -0.05132396146655083, -0.03356838598847389, 0.029428794980049133, -0.018629465252161026, -0.002497859066352248, -0.0943998321890831, -0.0049109915271401405, 0.08453678339719772, 0.009316586889326572, -0.24655142426490784, -0.08423922210931778, 0.4412956237792969, -0.19269536435604095, -0.6963312029838562, -0.1370789259672165, 0.47726908326148987, -0.186555877327919, 0.08139370381832123, -0.35569655895233154, 0.12650181353092194, -0.0922224149107933, -0.07095348834991455, 0.04152195155620575, -0.2998535931110382, -0.1013752818107605, -0.3324015736579895, -0.06952609121799469, -0.1771194040775299, -0.2598288059234619, -0.021030880510807037, 0.0701974481344223, -0.13102982938289642, -0.36553260684013367, -0.2223009169101715, -0.015235625207424164, -0.0019978005439043045, -0.18180352449417114, 0.04770757630467415, -0.31975406408309937, -0.07929610460996628, -0.34476473927497864, -0.023288149386644363, 0.005293452180922031, -0.04413844645023346, -0.008135288022458553, -0.5256221890449524, -0.06847034394741058, -0.05495493486523628, 0.15525856614112854, 0.05373575538396835, 0.25952717661857605, 0.0380060113966465, 0.04835052788257599, 0.07426927983760834, -0.2654295265674591, 0.06816790252923965, -0.00638426560908556, 0.008151894435286522, -0.32755833864212036, 0.07213236391544342, 0.18549081683158875, 0.08413705229759216, -0.08442913740873337, 0.37712767720222473, 0.07486362755298615, -0.008408041670918465, 0.21360163390636444, 0.022281676530838013, 0.026881057769060135, -0.006268591620028019, 0.008536847308278084, -0.3852469325065613, 0.0865701362490654, -0.1013135313987732, 0.19577401876449585, 0.015371439047157764, 0.22642406821250916, -0.14049150049686432, -0.22131790220737457, 0.18090063333511353, -0.00980213563889265, -0.07734617590904236, -0.039859697222709656, 0.05222753807902336, -0.36869797110557556, 0.16524264216423035, -0.11464134603738785, 0.15554189682006836, 0.1597675234079361, 0.036669787019491196, -0.14386878907680511, -0.4654525816440582, 0.21814899146556854, -0.07475714385509491, -0.059339556843042374, -0.017375947907567024, 0.024921700358390808, -0.3771387040615082, 0.0896395593881607, -0.020131928846240044, 0.05131570249795914, 0.19439266622066498, -0.031568743288517, -0.23448365926742554, -0.48625797033309937, 0.2600787281990051, -0.09954679012298584, -0.0519869402050972, -0.040430281311273575, -0.052150044590234756, -0.1896076798439026, -0.14623242616653442, 0.07455157488584518, -0.043660495430231094, 0.016984310001134872, -0.02147448994219303, -0.3206612467765808, -0.3507719337940216, 0.15628165006637573, -0.041443098336458206, -0.024227939546108246, 0.03432978317141533, -0.09894442558288574, -0.24639959633350372, -0.10019803047180176, 0.16607505083084106, 0.07401904463768005, -0.05182068049907684, -0.187063068151474, -0.3368411958217621, -0.43463456630706787, 0.0662851631641388, 0.09418684244155884, 0.04138578474521637, 0.044815827161073685, -0.10491013526916504, -0.18438228964805603, -0.00512352678924799, 0.21504470705986023, 0.1899651736021042, -0.09518487751483917, -0.37359488010406494, -0.4025517404079437, -0.3342477083206177, 0.06146853417158127, 0.24685640633106232, 0.11155703663825989, 0.006824098993092775, -0.10897915065288544, -0.20868191123008728, 0.07035902142524719, 0.22837474942207336, 0.20314298570156097, 0.026253677904605865, -0.4591373801231384, -0.5593686103820801, -0.43911832571029663, -0.07509838044643402, 0.18987208604812622, 0.21584081649780273, 0.015894204378128052, -0.06448182463645935, -0.08475293219089508, 0.21903662383556366, 0.3715709149837494, 0.17179244756698608, 0.30676692724227905, -0.5725492835044861, -0.8412891626358032, -0.7739249467849731, -0.551981508731842, 0.208163321018219, 0.42876505851745605, 0.19546116888523102, -0.08286003768444061, -0.016135960817337036, -0.03056861273944378, -0.24688288569450378, -0.024189762771129608, 0.3094273507595062, 0.05348696559667587, 0.04033166542649269, 0.014684369787573814, 0.1481686681509018, 0.201307475566864, -0.013839635998010635, -0.15128359198570251, -0.19360636174678802, -0.023654626682400703, 0.006494271103292704, 0.12508843839168549, -0.10909061133861542, -0.06443427503108978, -0.00026607888867147267, -0.010387253016233444, -0.013368883170187473, -0.05259932950139046, -0.09561144560575485, -0.0643257424235344, 0.07482340931892395, -0.16187028586864471, -0.04013872891664505, 0.06267628073692322, 0.03755857050418854, 0.056038957089185715, -0.003171641146764159, -0.027248011901974678, -0.024148235097527504, -0.05769076570868492, -0.011982765048742294, 0.0035659754648804665, 0.0032997659873217344, -0.025482451543211937, -0.07041466236114502, -0.068183533847332, 0.11958916485309601, 0.03838951140642166, 0.05284764617681503, 0.002854797290638089, 0.02774309739470482, -0.027187328785657883, 0.002190154977142811, 0.024085022509098053, 0.0022565096151083708, 0.016603514552116394, -0.038392290472984314, -0.08638784289360046, -0.016167907044291496, 0.05109541490674019, 0.04412537440657616, 0.030132660642266273, 0.04625974968075752, 0.07084286957979202, -0.015008359216153622, 0.015210475772619247, 0.06181512027978897, -0.059425778687000275, -0.029883945360779762, -0.04435105621814728, -0.13142654299736023, -0.010218054056167603, 0.004822551738470793, 0.01846328005194664, 0.018723120912909508, 0.012666472233831882, 0.023504752665758133, -0.035055775195360184, -0.008340839296579361, 0.014508388936519623, 0.018838796764612198, 0.02399504743516445, -0.025914201512932777, -0.08527188003063202, 0.01963679865002632, 0.010656127706170082, 0.0290695633739233, 0.034496478736400604, -0.012765619903802872, 0.025724362581968307, -0.0060846698470413685, -0.021174848079681396, -0.030928704887628555, -0.02403525449335575, 0.03089296445250511, -0.028612351045012474, -0.10790600627660751, -0.022545568645000458, -6.0328478866722435e-05, 0.0616324320435524, -0.0002557005500420928, -0.016916582360863686, 0.04777592420578003, -0.008529025129973888, -0.011197020299732685, -0.035762302577495575, -0.023810893297195435, 0.001410847995430231, 0.025334473699331284, -0.010472479276359081, -0.01574345864355564, -0.055347662419080734, 0.03231310844421387, 0.007460182998329401, 0.03606526181101799, 0.013118491508066654, -0.029444195330142975, -0.02964155748486519, -0.03181526064872742, -0.056532252579927444, 0.017965517938137054, 0.023245016112923622, -0.05835537612438202, -0.00824902206659317, -0.07788237929344177, 0.046276338398456573, 0.013161630369722843, 0.0040872832760214806, 0.018489044159650803, 0.0036313796881586313, -0.04329623281955719, -0.03268447145819664, -0.023218173533678055, -0.0075753419660031796, 0.039504364132881165, -0.07402711361646652, 0.0020621640142053366, -0.06473875045776367, 0.05953836441040039, -0.017360515892505646, 0.03057907335460186, -0.0095042260363698, 0.029145212844014168, 0.00012972293188795447, 0.0039834631606936455, -0.006719726137816906, -0.008412009105086327, 0.05091296136379242, -0.06285639852285385, -0.04003415256738663, -0.013979640789330006, 0.02721267193555832, -0.004646576475352049, -0.005761191248893738, 0.03788932040333748, -0.003829383524134755, 0.02190297469496727, 0.004263057839125395, -0.050024569034576416, 0.016232065856456757, 0.04331111162900925, 0.013589974492788315, 0.007780023384839296, -0.013599193654954433, 0.09394630789756775, 0.03360139578580856, 0.04064749926328659, -0.011386618949472904, -0.04291723296046257, -0.03624292463064194, -0.005598823074251413, -0.023814737796783447, 0.01651824451982975, 0.06396216154098511, 0.046895045787096024, 0.09091280400753021, 0.03691231831908226, -0.3770606219768524, -0.009948301129043102, 0.06359026581048965, -0.46111300587654114, -0.050153471529483795, -0.20481429994106293, 0.31709879636764526, 0.1584075540304184, 0.17294912040233612, 0.03927106410264969, -0.059676315635442734, 0.052437447011470795, -0.05818377062678337, 0.27337586879730225, -0.2421932965517044, -0.2856001853942871, -0.38857942819595337, -0.43310919404029846, -0.2542022466659546, -0.1146388128399849, -0.15264929831027985, -0.0907645896077156, 0.06962547451257706, 0.0089760422706604, 0.04757557436823845, -0.11521785706281662, -0.13998699188232422, 0.06675839424133301, 0.239809051156044, 0.09760455042123795, -0.10766768455505371, -0.026842746883630753, -0.20044483244419098, -0.004137388896197081, -0.03416280075907707, 0.07669081538915634, -0.015086626634001732, 0.04010669142007828, -0.07613617181777954, -0.011053645983338356, 0.03830530494451523, 0.11505477875471115, 0.22877192497253418, 0.08107677847146988, 0.21416130661964417, -0.046641647815704346, -0.150526762008667, 0.004595492035150528, -0.009951619431376457, -0.025290876626968384, 0.05943240597844124, -0.1040058508515358, -0.03437778353691101, 0.0203502606600523, 0.116836778819561, 0.21249482035636902, -0.012393022887408733, 0.13929744064807892, -0.00263778492808342, -0.05547806993126869, -0.05698356777429581, -0.02210387773811817, -0.06783934682607651, -0.007579061668366194, -0.09512109309434891, 0.07983715087175369, 0.07844340056180954, 0.1793004870414734, -0.08766425400972366, -0.0848313719034195, 0.06020307168364525, -0.061351314187049866, 0.09278236329555511, 0.03319254517555237, -0.021558700129389763, -0.02691245637834072, 0.014629053883254528, 0.07251580059528351, 0.13473214209079742, 0.028932755813002586, 0.04389332979917526, -0.15444466471672058, -0.26499971747398376, -0.11197756975889206, -0.04433141276240349, 0.059763867408037186, 0.05353494733572006, 0.006202245131134987, 0.003468848066404462, -0.01021942961961031, 0.10950401425361633, 0.07313072681427002, -0.034986138343811035, -0.005361982621252537, -0.2775026857852936, -0.31506818532943726, -0.06450805813074112, -0.03965631499886513, -0.008270279504358768, 0.0782889574766159, 0.025354739278554916, -7.086397818056867e-05, -0.03913334384560585, 0.1132039725780487, 0.013993595726788044, 0.041271548718214035, -0.1287633180618286, -0.26372846961021423, -0.29852598905563354, 0.021180281415581703, 0.11169728636741638, 0.005401677452027798, 0.02596120536327362, 0.051940444856882095, -0.03684020787477493, -0.016270048916339874, 0.16620565950870514, 0.11827974766492844, 0.09807570278644562, -0.1366656869649887, -0.3618445098400116, -0.4218764901161194, -0.09185009449720383, 0.1226736456155777, 0.0610145702958107, 0.058532897382974625, -0.002399156102910638, -0.05777198448777199, -0.03801918774843216, 0.15304410457611084, 0.13811561465263367, 0.20589718222618103, -0.19321875274181366, -0.2995651364326477, -0.2738569974899292, -0.08255527913570404, 0.15859109163284302, 0.15819774568080902, 0.07953399419784546, 0.04144706949591637, -0.058825183659791946, 0.027913104742765427, 0.18888205289840698, 0.15978212654590607, 0.18896235525608063, -0.03912699967622757, -0.3029671311378479, -0.3515024185180664, -0.1119956523180008, 0.1732310652732849, 0.13675513863563538, 0.15387707948684692, 0.0705355852842331, -0.00021791733161080629, 0.08498997241258621, 0.18499980866909027, 0.17486941814422607, 0.15127019584178925, 0.42767322063446045, 0.0018183774081990123, -0.17106281220912933, -0.10934576392173767, -0.12153619527816772, 0.16034816205501556, 0.1535167247056961, 0.10153473913669586, 0.0008782665827311575, -0.20515333116054535, -0.03270864114165306, 0.15297116339206696, -0.05687553063035011, 0.16208234429359436, 0.029302893206477165, 0.014447856694459915, -0.005237462464720011, 0.1292492002248764, 0.07106311619281769, -0.19351179897785187, -0.004843215923756361, -0.387749582529068, -0.08136650174856186, 0.14352519810199738, 0.026706630364060402, -0.02081899717450142, 0.033701036125421524, -0.01976948417723179, -0.040188997983932495, -0.05010261386632919, -0.03337268903851509, -0.07029147446155548, 0.016417093575000763, 0.0017021616222336888, -0.3571280539035797, -0.0673767477273941, 0.09316965937614441, 0.043420277535915375, 0.02273663319647312, -0.016385668888688087, 0.008630948141217232, -0.02199874445796013, -0.0016928642289713025, 0.03184935078024864, 0.019997507333755493, -0.0034895578864961863, 0.006233043968677521, -0.20530210435390472, -0.018574830144643784, 0.08181802183389664, 0.047995951026678085, 0.043388694524765015, 0.017831895500421524, 0.05558634549379349, -0.031208420172333717, 0.04913759604096413, 0.037665653973817825, -0.03623068705201149, 0.013443216681480408, -0.020262286067008972, -0.17379003763198853, -0.02610117197036743, 0.041657473891973495, 0.026956893503665924, -0.0024858019314706326, 0.03660999983549118, 0.032232869416475296, -0.05468401312828064, 0.0361822172999382, 0.07511553168296814, -0.006656209472566843, 0.04222346097230911, -0.04967588558793068, -0.10037890076637268, 0.02289571426808834, -0.02093156985938549, 0.05367308482527733, -0.00196807156316936, 0.04103611409664154, 0.042321473360061646, -0.03209324926137924, -0.00244612293317914, 0.0033455186057835817, -0.03732655197381973, 0.06108253821730614, -0.03529674932360649, -0.1471148282289505, 0.058912329375743866, 0.00803285837173462, 0.03930693492293358, 0.013626358471810818, 0.04806462302803993, 0.017378680408000946, -0.03599660098552704, 0.01621253974735737, -0.05543465539813042, -0.05061562359333038, 0.06679248809814453, -0.06224481388926506, -0.11325212568044662, -0.010694863274693489, -0.02148856408894062, 0.024623211473226547, 0.025153659284114838, 0.03939802944660187, 0.06448200345039368, -0.04279318451881409, -0.03300434723496437, -0.04327552765607834, -0.037279222160577774, 0.09566503763198853, -0.028058800846338272, -0.09605961292982101, -0.052470531314611435, -0.02984033152461052, 0.00025118287885561585, 0.015540780499577522, 0.0439995601773262, 0.01071950513869524, -0.03528176620602608, -0.02688669040799141, -0.06735480576753616, -0.0012295169290155172, 0.04171843081712723, 7.643832941539586e-05, -0.019582301378250122, -0.0639866515994072, -0.014735345728695393, -0.003625616431236267, -0.015082871541380882, -0.0002744393714237958, 0.033719275146722794, 0.010928425937891006, -0.024145323783159256, -0.05129816383123398, -0.010221284814178944, 0.010809550061821938, -0.007385609205812216, -0.03914010524749756, -0.06688758730888367, -0.008842550218105316, 0.031435344368219376, -0.005627474747598171, 0.008476603776216507, 0.04182969033718109, 0.03434518724679947, -0.013989351689815521, -0.0061517516151070595, 0.025728577747941017, 0.03876131400465965, 0.005833175964653492, -0.04056354612112045, -0.031201032921671867, 0.012687291949987411, -0.0036405364517122507, 0.040325697511434555, 0.060847148299217224, 0.05282992124557495, 0.04103901982307434, 0.022705139592289925, -0.03597547113895416, 0.025089528411626816, 0.043111350387334824, 0.0525151863694191, -0.04005473852157593, -0.1315344125032425, -0.007836516946554184, 0.03246402367949486, 0.062856525182724, -0.010042604058980942, -0.08488858491182327, -0.12906035780906677, -0.07772933691740036, -0.08444089442491531, 0.03634896129369736, 0.11471210420131683, 0.04904414713382721, 0.016043344512581825, 0.08168652653694153, 0.09310387820005417, -0.0844239890575409, -0.1508381962776184, 0.30307963490486145, 0.3755831718444824, 0.11774245649576187, -0.3142213225364685, 0.15076692402362823, -0.09931617230176926, -0.07379574328660965, 0.12560805678367615, 0.07946188002824783, 0.08462434262037277, 0.03248464688658714, 0.023613307625055313, 0.0040407259948551655, -0.02925815060734749, -0.09046699851751328, 0.19442680478096008, 0.08521777391433716, -0.2800746560096741, -0.1742800772190094, 0.040390338748693466, -0.03675614297389984, 0.06509700417518616, 0.055924251675605774, -0.020441904664039612, -0.10938617587089539, -0.3946118950843811, 0.07471293210983276, 0.20356841385364532, 0.2896004021167755, 0.182014599442482, 0.11494134366512299, -0.04639609530568123, -0.13437163829803467, 0.025261225178837776, 0.048532042652368546, 0.050057925283908844, -0.05627533420920372, -0.15825626254081726, -0.42579346895217896, -0.21571865677833557, 0.014700991101562977, 0.2033812552690506, 0.2924029529094696, 0.14504021406173706, -0.24260713160037994, -0.12539543211460114, 0.018516499549150467, -0.006817725952714682, 0.016334734857082367, -0.14207616448402405, -0.4342123866081238, -0.31866997480392456, -0.15829110145568848, -0.06592579931020737, 0.07505877315998077, 0.24687588214874268, 0.31496375799179077, -0.1098814606666565, -0.3950173854827881, -0.011544200591742992, 0.02700543962419033, 0.055701225996017456, -0.13263477385044098, -0.517507791519165, -0.2652013897895813, -0.04279177635908127, 0.06405021995306015, 0.20460689067840576, 0.16073226928710938, 0.20921917259693146, 0.10727917402982712, -0.4498451352119446, -0.033520448952913284, 0.03851732611656189, -0.0037198790814727545, -0.03784148022532463, -0.3882799744606018, -0.12686581909656525, -0.06179766356945038, -0.1082666665315628, 0.16043205559253693, 0.13472972810268402, 0.1390272080898285, -0.045062389224767685, -0.4275107979774475, -0.09751235693693161, -0.018605438992381096, -0.004333252087235451, -0.028834477066993713, -0.3718748092651367, -0.009792831726372242, -0.02651272714138031, -0.16083012521266937, 0.002300234278663993, 0.11163517832756042, 0.24261261522769928, 0.026821259409189224, -0.41429153084754944, -0.0562206469476223, -0.004758091643452644, 0.0354105643928051, -0.0003239369543734938, -0.3297956883907318, -0.19197148084640503, -0.10015074908733368, -0.13694415986537933, 0.06472904235124588, 0.027702227234840393, 0.22919169068336487, 0.08897560089826584, -0.3958702087402344, -0.022097308188676834, -0.010260706767439842, 0.0642329603433609, -0.0444280207157135, -0.31723129749298096, -0.1325647234916687, -0.13077199459075928, -0.09461764991283417, -0.0036584974732249975, -0.02732369303703308, 0.08260386437177658, -0.04634157940745354, -0.41681382060050964, -0.04053812474012375, 0.010579516179859638, 0.06667385250329971, -0.010572460480034351, -0.24830889701843262, -0.15032601356506348, -0.08592238277196884, -0.07760024815797806, -0.008381958119571209, 0.007181192748248577, 0.11546305567026138, 0.12676487863063812, -0.29671362042427063, -0.11016184091567993, -0.01561612356454134, 0.01421171985566616, 0.11346026510000229, -0.15913084149360657, -0.16236057877540588, -0.041685864329338074, 0.029554324224591255, 0.18264979124069214, 0.10273248702287674, 0.10531630367040634, 0.06724371016025543, -0.17322567105293274, 0.016255347058176994, 0.03615269064903259, 0.03240786865353584, -0.027101287618279457, -0.26100316643714905, -0.09209102392196655, -0.08195517957210541, 0.1858396828174591, 0.2819589674472809, 0.1953170895576477, 0.027618588879704475, -0.11785533279180527, -0.22853025794029236, -0.06537382304668427, 0.082584448158741, -0.11931309849023819, -0.16235187649726868, 0.23847435414791107, -0.07901830971240997, 0.21318164467811584, -0.12000919133424759, -0.08604834973812103, -0.1724006086587906, -0.2008194774389267, 0.13114884495735168, -0.011356749571859837, 0.1926933228969574, -0.08559175580739975, -0.26364120841026306, -0.48793718218803406, 0.06494764238595963, 0.17892839014530182, -0.11757759004831314, -0.07464393228292465, -0.2553544044494629, -0.33751800656318665, -0.03964320570230484, -0.021723071113228798, 0.040965303778648376, -0.12024848908185959, -0.17321881651878357, -0.34274670481681824, -0.13588294386863708, 0.16569297015666962, 0.03682328015565872, 0.17976485192775726, 0.08436907082796097, -0.14800092577934265, -0.10653243213891983, 0.0766758844256401, -0.060638677328825, 0.09880013763904572, -0.028359822928905487, -0.15033166110515594, -0.7700998783111572, -0.1592525988817215, 0.13680970668792725, 0.1363881677389145, 0.27435874938964844, 0.19231154024600983, -0.04702945798635483, 0.07619651407003403, 0.09616297483444214, 0.005895182024687529, 0.11713258922100067, -0.03803473338484764, -0.29975858330726624, -0.271761417388916, -0.055434100329875946, 0.17346443235874176, 0.1909492313861847, -0.0855180025100708, 0.008006058633327484, -0.1291789561510086, 4.168332816334441e-05, 0.13482950627803802, -0.08121025562286377, 0.07824058085680008, -0.04570336267352104, -0.16112291812896729, -0.18470805883407593, 0.007592737674713135, 0.09741394966840744, 0.2355792373418808, -0.16322022676467896, 0.03176109492778778, -0.050627030432224274, -0.03695974126458168, 0.03155619278550148, -0.16264432668685913, 0.04516790062189102, -0.09569011628627777, 0.05461961403489113, -0.007999520748853683, 0.10825193673372269, 0.08676407486200333, 0.13378305733203888, -0.09753739088773727, -0.07862669229507446, -0.04879516363143921, -0.08876913040876389, -0.023986216634511948, -0.029767652973532677, 0.141847625374794, -0.04308725520968437, 0.05318435654044151, -0.04053610935807228, 0.09267034381628036, 0.05091315507888794, -0.07056234031915665, -0.1569172590970993, -0.13784651458263397, 0.038895707577466965, -0.1548633575439453, -0.08460140228271484, 0.0011632234090939164, 0.054912369698286057, -0.13546116650104523, -0.04964502900838852, -0.13189268112182617, 0.18678522109985352, 0.049174562096595764, 0.05980118736624718, -0.000529819109942764, -0.1494014859199524, -0.017780836671590805, -0.09044957160949707, -0.10332074761390686, -0.0037729984614998102, 0.05668465420603752, 0.006388005800545216, 0.04787473380565643, -0.23556800186634064, 0.14316344261169434, 0.03782038018107414, 0.18783599138259888, -0.01768307387828827, -0.04603013023734093, 0.04089529812335968, -0.08119338750839233, -0.04934195056557655, 0.052414584904909134, 0.08576445281505585, 0.10789971053600311, 0.0562589168548584, -0.1873236745595932, -0.07984815537929535, -0.02344190888106823, -0.023561451584100723, -0.057688504457473755, -0.02380478009581566, -0.024959594011306763, -0.09975214302539825, -0.07698064297437668, 0.012806530110538006, -0.04249792546033859, -0.063170425593853, 0.0072351074777543545, -0.7791880369186401, -0.39571183919906616, -0.27984362840652466, -0.235905259847641, 0.06877503544092178, -0.10632126033306122, -0.1126340702176094, -0.10283826291561127, -0.07694612443447113, 0.006683470215648413, -0.06420660763978958, -0.12714555859565735, 0.0810776948928833, -0.17882481217384338, -0.22869089245796204, -0.5065295100212097, -0.06294699758291245, 0.06259848177433014, -0.025922683998942375, -0.11408255994319916, -0.08652152866125107, -0.023650020360946655, -0.009496989659965038, 0.08015912771224976, 0.06037970632314682, 0.15243522822856903, -0.026682313531637192, 0.18127404153347015, 0.07739140838384628, 0.16711664199829102, 0.08926095068454742, 0.01913987472653389, 0.0548335500061512, -0.014796359464526176, 0.009974405169487, 0.04240173101425171, 0.016352185979485512, 0.07092616707086563, -0.06590361893177032, -0.040188830345869064, -0.010670104995369911, 0.06426208466291428, 0.047397758811712265, 0.020103467628359795, -0.008935974910855293, -0.03318779170513153, -0.05791987478733063, 0.0011679703602567315, -0.03207170590758324, -0.04822564497590065, -0.14625927805900574, -0.024789033457636833, -0.15291321277618408, -0.1784224510192871, 0.11457440257072449, -0.0036141739692538977, 0.08671928197145462, 0.01822846382856369, -0.043978314846754074, -0.030149037018418312, 0.04485088586807251, 0.03558185696601868, 0.039307601749897, -0.17241086065769196, -0.15135832130908966, -0.16882027685642242, -0.17705754935741425, 0.03221776708960533, -0.12770995497703552, 0.09309563040733337, 0.06144854426383972, -0.07184243202209473, -0.07289386540651321, 0.03794967010617256, 0.04292817786335945, 0.02135697938501835, -0.21136750280857086, -0.22129663825035095, -0.10137191414833069, -0.14534981548786163, 0.004640338011085987, -0.18729117512702942, -0.009235512465238571, 0.07976139336824417, -0.030040927231311798, -0.10357300937175751, -0.06682839244604111, -0.012616578489542007, -0.001037313835695386, -0.18304544687271118, -0.1622663140296936, 0.07873580604791641, -0.07115684449672699, 0.05500476434826851, -0.12937162816524506, 0.017952783033251762, 0.08668264746665955, 0.027840174734592438, -0.04824703559279442, -0.055520907044410706, 0.007077867165207863, -0.019865049049258232, -0.12111277133226395, -0.03616275638341904, 0.09369989484548569, -0.048467621207237244, 0.016248829662799835, -0.07568307220935822, 0.02425968274474144, 0.03484402596950531, 0.019719647243618965, -0.025629494339227676, -0.022566810250282288, 0.030072659254074097, -0.03817670792341232, -0.03906029462814331, 0.07102973759174347, 0.05107109248638153, -0.03044702298939228, 0.01860070787370205, -0.03472313657402992, 0.02621181309223175, 0.042552221566438675, 0.052437927573919296, -0.023043742403388023, -0.05361729487776756, 0.018140705302357674, -0.014960897155106068, -0.008867665193974972, 0.04465905949473381, 0.050745654851198196, 0.008385779336094856, -0.028393149375915527, -0.013302674517035484, 0.018746215850114822, 0.032917626202106476, 0.009735382162034512, -0.04184848815202713, -0.04449170082807541, 0.01562993973493576, 0.012353737838566303, 0.021340124309062958, 0.013986608944833279, -0.031037768349051476, 0.08866805583238602, 0.055920470505952835, 0.01890413835644722, -0.01701834797859192, 0.015786852687597275, 0.016370287165045738, -0.05582865700125694, -0.027211518958210945, -0.01305671501904726, -0.001976769883185625, 0.05034869164228439, -0.01308951061218977, -0.01979907974600792, 0.027916250750422478, -0.04694029316306114, 0.012366883456707, 0.03666842728853226, -0.010651418007910252, 0.013024454936385155, -0.02811293490231037, 0.024042507633566856, -0.05189954861998558, -0.06966643780469894, -0.03581716865301132, -0.00199997634626925, -0.04306843504309654, -0.008273989893496037, -0.09261348098516464, -0.05240201577544212, 0.05338657274842262, 0.017886653542518616, 0.04985704645514488, 0.0013910697307437658, 0.041239481419324875, 0.0022150937002152205, -0.05107198655605316, -0.09539645910263062, 0.04618342965841293, -0.03624124825000763, -0.04559876769781113, -0.05441054701805115, -0.0050367554649710655, 0.054265573620796204, 0.03816623240709305, 0.10409019887447357, 0.03464500233530998, 0.05369606986641884, 0.06564080715179443, 0.041356950998306274, 0.03207824379205704, 0.13675464689731598, -0.0059978170320391655, 0.16684883832931519, 0.04049823433160782, 0.20914587378501892, 0.031560927629470825, 0.01764453388750553, -0.023588599637150764, -0.07780168950557709, 0.02141719125211239, 0.014284729957580566, -0.05153345689177513, -0.1035832017660141, -0.04320612549781799, -0.29609352350234985, -0.06373829394578934, 0.0719476193189621, 0.09469128400087357, -0.015404109843075275, 0.010963586159050465, -0.024165300652384758, -0.06951472163200378, -0.05190102756023407, 0.04789748787879944, -0.07461504638195038, -0.13532206416130066, -0.15195350348949432, -0.20110461115837097, -0.15169280767440796, 0.01642223447561264, 0.09257122874259949, 0.06635034084320068, 0.07749563455581665, -0.048599112778902054, -0.06845053285360336, 0.023569399490952492, 0.035070206969976425, -0.006178256589919329, -0.14186470210552216, -0.19506686925888062, -0.3132520318031311, -0.1291130781173706, -0.0401502400636673, -0.10167494416236877, 0.012491610832512379, 0.09585271030664444, -0.05304122343659401, -0.09752657264471054, -0.010541686788201332, -0.034232549369335175, 0.008616148494184017, -0.15555217862129211, -0.50957190990448, -0.045209381729364395, -0.10164262354373932, 0.05055703595280647, -0.171640083193779, -0.018646426498889923, 0.1511509269475937, -0.007403843570500612, -0.11604224890470505, -0.12444344162940979, -0.12753303349018097, 0.007853059098124504, -0.1926133781671524, -0.11361732333898544, 0.15688814222812653, -0.0067758820950984955, 0.056474026292562485, -0.12035799771547318, 0.044432785362005234, 0.09288207441568375, 0.03313564509153366, -0.04456112161278725, -0.08451351523399353, -0.08794382959604263, 0.01205819845199585, -0.1186031773686409, -0.09095146507024765, 0.17278270423412323, 0.002024606103077531, 0.03378939628601074, -0.11914171278476715, 0.03872022405266762, 0.07682562619447708, 0.004354753997176886, -0.05284672603011131, -0.005435442551970482, -0.019639983773231506, 0.051623277366161346, -0.07008904963731766, 0.04630706086754799, 0.10172116011381149, -0.033384013921022415, -0.035528022795915604, -0.06050347536802292, 0.04268147051334381, 0.06385147571563721, 0.03332285210490227, -0.02477245032787323, -0.006476182024925947, -0.02391544170677662, -0.01678350754082203, -0.08116617053747177, 0.05912500619888306, 0.1010603979229927, 0.07392008602619171, 0.0010567614808678627, -0.02852439135313034, -0.008543575182557106, 0.029388584196567535, 0.06403076648712158, -0.0409298799932003, -0.042182572185993195, -0.029807228595018387, 0.05449741706252098, 