{"conv_weight": [0.6621654629707336, -0.06997518986463547, -0.6886502504348755, -0.029815146699547768, 0.6558220982551575, -0.6200475692749023, -0.022241003811359406, 0.29250240325927734, -0.13801069557666779, -0.06440643966197968, 0.21657134592533112, 0.39038679003715515, 0.2533273696899414, 0.2219017893075943, -0.01185693684965372, 0.18205539882183075, 0.5064532160758972, -0.4029942452907562, -0.04178037494421005, -0.33696624636650085, -0.44559070467948914, -0.18256209790706635, 0.3947273790836334, -0.35633882880210876, 0.22557929158210754, -0.08294568210840225, 0.8033298850059509, -0.04110687971115112, -1.352855920791626, -1.483802080154419, -0.06236850470304489, -0.5462878942489624, -0.6536444425582886, 0.2337343692779541, 0.3259517550468445, -0.10926405340433121, 0.2680436372756958, 0.7785730361938477, -0.2378907948732376, 0.043551698327064514, 0.25015100836753845, -0.5541321039199829, -0.18714065849781036, 0.20518289506435394, -0.6007032990455627, 0.2281697392463684, -0.24287718534469604, 0.16841275990009308, 0.4320465624332428, -0.25792941451072693, -0.26244083046913147, 0.09480936080217361, 0.18501567840576172, 0.0774560272693634, -0.5142795443534851, 0.41076549887657166, 0.10808415710926056, 0.04484300687909126, 0.34809547662734985, 0.04515836015343666, -0.2777465879917145, 0.38197633624076843, 0.31381452083587646, 0.5758163332939148, 0.05606945976614952, -0.6063571572303772, 0.11305900663137436, 0.1857551783323288, -0.24011453986167908, 0.3927110433578491, -0.29553258419036865, -0.28535696864128113], "conv_bias": [0.0017167504411190748, -0.0018076269188895822, -0.0026088247541338205, 0.5183905363082886, 0.020316358655691147, -0.007046470884233713, -0.00874558836221695, 0.10661327093839645], "fc_weight": [-0.03228382766246796, 0.30610600113868713, 0.03355316445231438, 0.16210372745990753, 0.0931728333234787, 0.08531824499368668, -0.22356456518173218, -0.28731828927993774, 0.0167818833142519, -0.019095446914434433, 0.14004988968372345, -0.0315086655318737, 0.029040686786174774, -0.2440103441476822, 0.01957351341843605, 0.022249765694141388, -0.0538785457611084, 0.09791462868452072, -0.03977736830711365, -0.16815771162509918, -0.158725306391716, -0.1770334392786026, -0.14004261791706085, 0.036777742207050323, 0.06669463217258453, 0.015332655981183052, 0.05189534276723862, 0.1442723125219345, 0.20675745606422424, 0.02105305902659893, -0.016863761469721794, -0.08636494725942612, -0.16045640408992767, -0.16688251495361328, -0.17773285508155823, 0.0002114663802785799, -0.060130100697278976, 0.062416527420282364, 0.09590970724821091, -0.04817952215671539, 0.13568462431430817, 0.24495525658130646, 0.20041503012180328, -0.09884185343980789, -0.1199909895658493, -0.15561823546886444, -0.1019720584154129, -0.10095535963773727, 0.06670299917459488, -0.011402402073144913, 0.0075168367475271225, 0.00541407335549593, -0.13675187528133392, -0.06214732304215431, -0.040604617446660995, 0.12870587408542633, 0.01681174710392952, -0.11704320460557938, -0.20418713986873627, -0.12916766107082367, -0.11745341867208481, -0.0883755311369896, -0.015776367858052254, 0.11430005729198456, -0.09679487347602844, -0.43565040826797485, -0.128249391913414, -0.015701603144407272, -0.021941162645816803, 0.09098619967699051, -0.031256213784217834, -0.17680999636650085, -0.12025533616542816, -0.12052547186613083, -0.01957065798342228, -0.14797836542129517, 0.09560228884220123, -0.09164681285619736, -0.4006556570529938, -0.22582820057868958, 0.11721955239772797, -0.05487143248319626, 0.11155306547880173, 0.0013784179463982582, -0.09541039168834686, -0.028867173939943314, -0.07984697818756104, 0.014554074965417385, -0.09533862769603729, -0.05873972177505493, -0.08980333060026169, -0.32172873616218567, -0.20939788222312927, 0.12583805620670319, 0.0766204372048378, 0.022587275132536888, 0.08625478297472, -0.13113412261009216, -0.08193909376859665, 0.08802112936973572, 0.009753059595823288, -0.08669471740722656, -0.05584656447172165, -0.10272688418626785, -0.4251302182674408, -0.13192714750766754, 0.10311497747898102, 0.08615634590387344, -0.02174682542681694, -0.07073728740215302, -0.18406224250793457, -0.06069038435816765, 0.04396560788154602, 0.02454427070915699, -0.09792283177375793, 0.0027731622103601694, -0.004204105585813522, -0.43966352939605713, -0.31972357630729675, 0.10026444494724274, -0.06274928152561188, -0.05757714807987213, -0.0644562840461731, -0.13617253303527832, -0.13451048731803894, -0.11456633359193802, 0.06118646636605263, -0.019148461520671844, -0.06321094930171967, 0.007564755622297525, -0.36238372325897217, -0.1093645915389061, -0.04009963572025299, 0.012531946413218975, -0.16247178614139557, -0.11073974519968033, -0.09825176745653152, -0.16811618208885193, -0.15367792546749115, -0.03818686306476593, 0.04619250074028969, -0.08581698685884476, 0.05583410710096359, -0.2611488997936249, -0.09028604626655579, -0.21206167340278625, -0.09245292842388153, -0.13457752764225006, -0.16292789578437805, -0.23304754495620728, -0.20227588713169098, -0.19513669610023499, -0.07871738821268082, -0.02331431582570076, -0.023171961307525635, 0.01130424253642559, -0.2679789662361145, -0.08982867002487183, -0.5518103241920471, -0.0912303775548935, -0.18063417077064514, -0.053802043199539185, -0.09062612801790237, -0.05053155496716499, -0.07049782574176788, -0.003016889560967684, -0.00041224664892069995, 0.007245837710797787, -0.16202083230018616, -0.04832711070775986, -0.15339627861976624, -0.20678408443927765, -0.1081191897392273, 0.04054221883416176, 0.009944286197423935, -0.01971421204507351, 0.03641795739531517, 0.0027300063520669937, -0.048371072858572006, 0.08868102729320526, 0.056069985032081604, 0.0863010436296463, -0.06378239393234253, -0.02722497284412384, 0.09058335423469543, -0.08764847368001938, 0.03134223818778992, -0.019041437655687332, -0.048088304698467255, -0.007002411410212517, -0.0107133062556386, 0.04513227567076683, 0.03470592945814133, 0.06737861782312393, 0.05393059179186821, 0.04861535504460335, -0.014527937397360802, 0.04990652576088905, 0.02627725899219513, -0.010983241721987724, 0.006510341539978981, -0.057128529995679855, -0.03311809152364731, -0.04541011154651642, 0.02280161902308464, -0.0016895991284400225, 0.06796817481517792, 0.027884064242243767, 0.08463732898235321, 0.0777570977807045, 0.06949657946825027, 0.0561210922896862, -0.013277904130518436, -0.05406501144170761, -0.08599261939525604, -0.037943657487630844, -0.01045799721032381, 0.049544766545295715, 0.07871796190738678, 0.08239084482192993, -0.018246596679091454, 0.07950660586357117, 0.10936633497476578, 0.12374594062566757, 0.0039282324723899364, 0.06404048949480057, -0.05136715620756149, -0.07926250994205475, -0.038042787462472916, 0.0010693894000723958, 0.01786738447844982, 0.03301255777478218, 0.1267853081226349, -0.11998476088047028, -0.025194644927978516, 0.03584722429513931, 0.03181827813386917, -0.12310522794723511, 0.02813851833343506, -0.06403208523988724, -0.09410933405160904, -0.049162738025188446, 0.009817943908274174, 0.028659461066126823, -0.008667638525366783, 0.029913531616330147, -0.18534916639328003, 0.039724256843328476, -0.018699070438742638, -0.02305609919130802, -0.1745012402534485, 0.0419856496155262, -0.026818115264177322, -0.060354024171829224, -0.025205032899975777, -0.056121986359357834, -0.055847570300102234, -0.1442481279373169, -0.08972655236721039, -0.19591599702835083, -0.013415306806564331, -0.037152230739593506, 0.02054641582071781, -0.12660591304302216, 0.04266836866736412, -0.015966234728693962, -0.03112603910267353, -0.013940208591520786, -0.04706982895731926, -0.11221107095479965, -0.13382291793823242, -0.09876161813735962, -0.12606355547904968, -0.0455625019967556, -0.032852645963430405, 0.03549981489777565, -0.021320799365639687, 0.037583671510219574, -0.01648496650159359, -0.06497395038604736, -0.06059689074754715, -0.05200094357132912, -0.04561758041381836, -0.13089202344417572, -0.03793634846806526, -0.048670828342437744, -0.08016170561313629, -0.07516145706176758, -0.01952601596713066, 0.0765426829457283, 0.017950428649783134, -0.01887105591595173, -0.03960377350449562, -0.06254337728023529, -0.02660740539431572, -0.007079588249325752, -0.11765125393867493, -0.11238951981067657, -0.05427362397313118, 0.04042387753725052, -0.06909933686256409, 0.014419197104871273, 0.11467181891202927, 0.03252467140555382, 0.006929703988134861, -0.025787295773625374, -0.0362454392015934, -0.00028380576986819506, -0.011063474230468273, -0.035798028111457825, -0.08382359892129898, -0.05976489931344986, 0.10245964676141739, -0.1541147232055664, -0.04335033521056175, 0.0898207351565361, 0.013797441497445107, 0.011010002344846725, -0.019329406321048737, -0.02845999039709568, -0.021640997380018234, 0.030494237318634987, -0.06382181495428085, -0.0844729095697403, -0.06468582153320312, 0.023457014933228493, -0.19838160276412964, -0.08215560764074326, 0.12770713865756989, 0.038603752851486206, -0.03421580418944359, -0.00927196815609932, 0.01885531097650528, -0.02283252403140068, 0.008588734082877636, -0.015679514035582542, -0.06933613866567612, -0.11625327169895172, -0.07853220403194427, 0.008152175694704056, -0.053986918181180954, 0.02645481564104557, 0.14011640846729279, 0.10773034393787384, 0.11639243364334106, -0.0682540014386177, 0.002387551823630929, 0.02981572225689888, 0.08445513993501663, 0.08186142146587372, 0.047471512109041214, -0.013548335991799831, 0.12463395297527313, -0.18127049505710602, -0.08392179757356644, 0.2274862676858902, 0.08848964422941208, 0.04654435068368912, -0.023259762674570084, -0.0008360393112525344, -0.22158031165599823, -0.02858160063624382, -0.01787441223859787, -0.1961369514465332, 0.10658241808414459, 0.0048485551960766315, -0.13878440856933594, 0.06128504499793053, 0.17557500302791595, 0.17158640921115875, 0.11969432979822159, 0.23099879920482635, 0.05872613191604614, -0.14302662014961243, -0.1773047298192978, -0.1122146025300026, 0.042581263929605484, 0.13109846413135529, -0.0722716674208641, 0.16827961802482605, 0.2269565612077713, 0.19612860679626465, 0.22836528718471527, 0.21959716081619263, 0.3945644795894623, 0.2176334112882614, 0.13854150474071503, -0.04879548400640488, -0.16683363914489746, -0.07165214419364929, -0.24986323714256287, 0.006589733995497227, -0.05799081176519394, -0.12136243283748627, 0.09349411725997925, 0.03584533557295799, 0.1277889609336853, 0.2499409168958664, 0.02674727886915207, 0.08878859132528305, 0.1296280026435852, 0.009803542867302895, -0.2738116979598999, -0.17064811289310455, -0.03942007198929787, -0.16745437681674957, -0.3060358166694641, 0.1774095743894577, 0.2075621336698532, 0.15775245428085327, 0.10631107538938522, -0.21097978949546814, -0.20481917262077332, -0.2016465663909912, 0.030185513198375702, -0.046223945915699005, -0.23621024191379547, 0.015473111532628536, -0.15654294192790985, -0.41019219160079956, 0.047420088201761246, 0.08663482218980789, 0.208799809217453, 0.19150413572788239, -0.38966119289398193, -0.3852849006652832, -0.35523125529289246, -0.16278482973575592, -0.17549268901348114, -0.35373881459236145, 0.10895691066980362, -0.28381189703941345, -0.09862349927425385, -0.0485757477581501, 0.002458670875057578, -0.09525534510612488, 0.0020034729968756437, -0.1267915815114975, -0.24085384607315063, -0.21827958524227142, -0.08864691108465195, -0.10835546255111694, -0.340715229511261, -0.1968357115983963, -0.2570168673992157, 0.15306749939918518, -0.007724557537585497, -0.008255853317677975, -0.10601439327001572, -0.08528026938438416, -0.023738469928503036, -0.12755653262138367, -0.3110252916812897, -0.1010291576385498, -0.17832620441913605, -0.11200842261314392, -0.1590554118156433, 0.15032105147838593, 0.05460163205862045, 0.07179197669029236, 0.010133816860616207, -0.08600601553916931, 0.015632834285497665, -0.002433614805340767, -0.10173691809177399, -0.14658698439598083, -0.042754411697387695, -0.06264364719390869, -0.1438187211751938, -0.11135829240083694, -0.08238670229911804, -0.041692882776260376, 0.05969551205635071, -0.03950798138976097, -0.01215716265141964, 0.05892843008041382, -0.036602143198251724, -0.1031009778380394, -0.07239554822444916, -0.048922330141067505, 0.020650537684559822, -0.19185085594654083, -0.10342570394277573, -0.23733769357204437, -0.12801173329353333, -0.004725774750113487, -0.22463726997375488, -0.2636246383190155, -0.059759438037872314, -0.057853471487760544, -0.17811959981918335, -0.0213930681347847, 0.01868925616145134, 0.0598159022629261, -0.39789485931396484, 0.13279832899570465, 0.038254160434007645, 0.0926964282989502, 0.07601576298475266, -0.019823379814624786, 0.11212114989757538, -0.030900340527296066, -0.030019739642739296, 0.0647132396697998, 0.21280546486377716, 0.06252580136060715, -0.13346533477306366, -0.0057072872295975685, 0.05912192538380623, 0.17794376611709595, 0.2500193119049072, 0.23161737620830536, 0.14688341319561005, 0.1929808408021927, 0.06400521844625473, 0.09057048708200455, 0.009821715764701366, 0.10966493934392929, 0.04196177423000336, 0.0422280952334404, 0.041421934962272644, 0.100965216755867, -0.08383672684431076, -0.10876791179180145, 0.14721447229385376, 0.11799342930316925, 0.09700919687747955, 0.11432325094938278, -0.041580092161893845, -0.17166656255722046, 0.0068724555894732475, 0.006327209062874317, 0.02872222103178501, 0.04998253658413887, -0.05910426005721092, -0.12291169166564941, -0.05447383597493172, 0.09457992017269135, 0.16253870725631714, 0.16493886709213257, 0.17707858979701996, -0.05821140855550766, -0.036510638892650604, -0.1660810261964798, -0.011813884600996971, 0.08637594431638718, -0.017359616234898567, -0.14484114944934845, -0.09341560304164886, -0.2726105749607086, 0.007836515083909035, 0.06298330426216125, 0.09184340387582779, 0.06309792399406433, -0.20642076432704926, -0.047614049166440964, -0.092192143201828, -0.0009577151504345238, 0.04371393099427223, -0.04619695246219635, -0.1935320645570755, -0.053154487162828445, -0.2739659547805786, -0.08693329244852066, 0.008496291935443878, 0.022900119423866272, 0.007307988125830889, -0.22638005018234253, -0.0988035649061203, -0.13864906132221222, -0.014454751275479794, 0.0060298750177025795, -0.0171746164560318, 0.01596383936703205, 0.0757642611861229, -0.09604891389608383, -0.10461602360010147, -0.010358350351452827, -0.010546757839620113, -0.028144406154751778, -0.23232531547546387, 0.09723446518182755, 0.026755353435873985, 0.05936003848910332, 0.07693785429000854, 0.010947025381028652, 0.06791652739048004, 0.11535120755434036, -0.1410568654537201, -0.13359491527080536, -0.09655214101076126, -0.06590338051319122, 0.033993910998106, -0.14650970697402954, 0.11791840940713882, 0.06284850090742111, 0.03768530488014221, 0.027946099638938904, 0.03892034664750099, 0.09986729174852371, 0.09103340655565262, -0.11661282181739807, -0.1940428465604782, -0.12216396629810333, -0.14490742981433868, -0.02602854184806347, -0.013862108811736107, 0.1705629825592041, 0.13489365577697754, 0.0772712379693985, 0.03311777859926224, 0.06910844892263412, 0.07259101420640945, 0.09390807151794434, -0.21305979788303375, -0.16661053895950317, -0.04243877902626991, -0.014757631346583366, 0.018582783639431, 0.047374971210956573, 0.19900798797607422, 0.10468412190675735, 0.07616715133190155, 0.07178513705730438, 0.0739535465836525, 0.13142076134681702, 0.09840897470712662, -0.3892415463924408, -0.13728854060173035, -0.018233079463243484, -0.034704264253377914, 0.002506907796487212, 0.04647586867213249, 0.11170644313097, 0.13712629675865173, 0.050512149930000305, 0.0891404002904892, 0.031972575932741165, 0.09507869184017181, 0.05408177524805069, -0.46056315302848816, -0.07307357341051102, -0.07831525057554245, -0.01463261991739273, 0.1211918443441391, -0.14220158755779266, 0.0005105871823616326, 0.12210918217897415, 0.11168530583381653, 0.02523326873779297, 0.03743480518460274, 0.11270736157894135, 0.05124032497406006, -0.4291558265686035, -0.08084022998809814, -0.16864335536956787, -0.04365266114473343, 0.059653591364622116, -0.10358784347772598, -0.03680047020316124, 0.09278569370508194, 0.09316206723451614, 0.021043183282017708, 0.007223219145089388, 0.09333828091621399, 0.05041120573878288, -0.383370041847229, 0.020455779507756233, -0.03333628550171852, -0.11745249480009079, 0.07108806073665619, 0.0798313319683075, 0.008412064053118229, 0.14206288754940033, 0.06384353339672089, 0.020736100152134895, 0.03727024421095848, 0.26802438497543335, -0.1345774233341217, 0.1347205638885498, 0.10187631845474243, -0.13078320026397705, -0.08426562696695328, 0.2665463387966156, 0.1590149700641632, 0.2515223026275635, 0.08892714232206345, -0.06719722598791122, 0.10130944848060608, 0.047454964369535446, 0.1022779643535614, 0.08880520612001419, -0.024232126772403717, 0.01236899383366108, -0.17990802228450775, -0.04945141449570656, 0.22240011394023895, 0.021152133122086525, -0.15772882103919983, 0.10972167551517487, 0.05587749183177948, 0.1023736447095871, -0.03211752325296402, -0.017442699521780014, -0.11135834455490112, -0.09377539157867432, -0.13778185844421387, -0.030401108786463737, 0.0895485132932663, 0.15539346635341644, -0.09433800727128983, 0.0633656233549118, -0.0338258296251297, 0.0689515471458435, -0.010872378014028072, -0.031763993203639984, -0.0930829718708992, -0.11278118938207626, 0.11467350274324417, -0.16533710062503815, 0.006247436162084341, -0.004809892736375332, 0.07020203769207001, 0.03983836621046066, 0.10711007565259933, 0.010660763829946518, 0.03408330678939819, 0.0724407434463501, -0.06221013516187668, 0.25835323333740234, 0.09401219338178635, -0.04768999293446541, 0.04327872768044472, 0.07178127765655518, -0.029724029824137688, -0.010491784662008286, 0.06675057113170624, 0.026998402550816536, 0.12010107189416885, 0.1117074117064476, 0.00884624756872654, -0.13877369463443756, 0.11914921551942825, 0.11909238994121552, -0.02521984651684761, 0.00881322380155325, 0.061415985226631165, -0.15137746930122375, 0.10027781128883362, 0.10090497136116028, 0.08975083380937576, 0.056480180472135544, 0.15829205513000488, -0.045297104865312576, -0.025510085746645927, 0.08034288883209229, 0.13072563707828522, -0.11784868687391281, 0.12202750891447067, -0.06820905953645706, -0.13347449898719788, 0.12475403398275375, 0.1709856390953064, 0.02619084157049656, 0.0237252339720726, 0.07019273191690445, -0.09283150732517242, -0.05323665589094162, -0.0035867493133991957, 0.05694983899593353, -0.037779711186885834, 0.028162308037281036, -0.141046404838562, -0.11841940879821777, 0.07666553556919098, 0.13844498991966248, -0.010405749082565308, -0.06601838767528534, -0.14337250590324402, -0.07792750746011734, 0.02385144867002964, -0.13895827531814575, 0.11645914614200592, -0.1183280274271965, -0.0778585746884346, -0.05681862682104111, -0.08976329118013382, -0.13521017134189606, 0.035136736929416656, 0.02833351120352745, -0.0207277312874794, -0.05852486193180084, 0.032885175198316574, -0.14251747727394104, -0.18041394650936127, 0.017624961212277412, -0.06888201087713242, -0.13596348464488983, -0.13814856112003326, -0.09805242717266083, -0.07726933062076569, -0.13368940353393555, -0.014526661485433578, -0.017087679356336594, -0.15976031124591827, 0.04439824819564819, -0.11479724943637848, -0.015093968249857426, -0.006663484498858452, -0.12932026386260986, -0.1729695051908493, -0.19210971891880035, -0.16256703436374664, -0.11428478360176086, -0.09138096123933792, -0.08192156255245209, -0.010024577379226685, -0.06824983656406403, 0.04960581660270691, 0.005084878299385309, 0.06779370456933975, -0.3330972194671631, -0.17098368704319, -0.15495336055755615, -0.09479411691427231, -0.11048074811697006, -0.07759689539670944, 0.05862383544445038, -0.03772249072790146, -0.016810469329357147, -0.03260490298271179, -0.005170880351215601, 0.12282375246286392, -0.02367284521460533, -0.24504202604293823, -0.2079407274723053, -0.2353401780128479, -0.14810368418693542, -0.1543745994567871, -0.10493165999650955, -0.14788936078548431, -0.07984967529773712, -0.07109340280294418, -0.015528980642557144, -0.06239824369549751, -0.00972871482372284, 0.05240101367235184, 0.039943501353263855, 0.0022976798936724663, 0.01083112508058548, 0.042074672877788544, -0.040155865252017975, -0.07825229316949844, 0.016553880646824837, 0.0013905793894082308, 0.1249614804983139, -0.002073862822726369, 0.14798076450824738, -0.11330953985452652, 0.07690134644508362, 0.00470288610085845, -0.05446460470557213, -0.006719459779560566, 0.05216752365231514, -0.005906082224100828, -0.08305783569812775, -0.007406587712466717, 0.014272071421146393, 0.0116020692512393, 0.07650426030158997, 0.12135180830955505, 0.079329714179039, 0.03099883161485195, 0.0029672584496438503, -0.036072053015232086, -0.0016787647036835551, 0.01564258709549904, -0.02799663506448269, -0.03933507204055786, -0.0364200621843338, 0.030479397624731064, -0.007166689727455378, 0.058999691158533096, 0.04556526988744736, 0.19971024990081787, 0.06947711110115051, 0.06539538502693176, 0.048494853079319, 0.04952523857355118, -0.006061897147446871, 0.009239038452506065, -0.028019269928336143, 2.16971748159267e-05, 0.013469161465764046, 0.029267748817801476, 0.05529593303799629, 0.05394463613629341, 0.07702858746051788, 0.07946714013814926, 0.11138392239809036, 0.06636475771665573, 0.046300362795591354, -0.03740007430315018, -0.008729655295610428, -0.05092020332813263, -0.027574483305215836, -0.03453456982970238, 0.037835072726011276, 0.12978187203407288, 0.02988569065928459, -0.047861430794000626, 0.0066046216525137424, 0.013231603428721428, -0.011753243394196033, 0.044411733746528625, -0.024568114429712296, -0.0653642937541008, -0.050768155604600906, -0.03326225280761719, -0.051085423678159714, -0.07089681923389435, -0.03674725070595741, -0.049542345106601715, 0.026167502626776695, -0.09397462010383606, -0.0516512468457222, -0.04298759996891022, 0.02238229289650917, 0.006666498724371195, -0.03033008612692356, -0.041688222438097, 0.004505821969360113, -0.07071984559297562, -0.12200450152158737, -0.0679023414850235, -0.10565099865198135, 0.006705680396407843, -0.10030510276556015, -0.057446494698524475, -0.03408775478601456, 0.010981898754835129, 0.027043551206588745, -0.012944160029292107, -0.006904209963977337, 0.008053602650761604, -0.052409328520298004, -0.12453330308198929, -0.033451393246650696, -0.15118485689163208, -0.1284267157316208, -0.10091689229011536, 0.0023128679022192955, -0.0063009727746248245, 0.03831872716546059, -0.0009476154227741063, -0.0009147609816864133, -0.015446282923221588, -0.025430431589484215, -0.041096873581409454, -0.09901537001132965, 0.010968347080051899, -0.05820706859230995, -0.13411377370357513, -0.11910255253314972, -0.04839325696229935, -0.010285437107086182, 0.06574631482362747, -0.011683844029903412, -0.03660798817873001, -0.05090562254190445, -0.03289835527539253, -0.020667338743805885, -0.01414234098047018, 0.031886883080005646, -0.07768543064594269, -0.015882598236203194, -0.045749131590127945, -0.023251628503203392, 0.05136497691273689, 0.10005045682191849, 0.03905581682920456, -0.013288643211126328, -0.01504791434854269, -0.03169921040534973, -0.014909031800925732, 0.024053320288658142, -0.015806762501597404, -0.07979123294353485, 0.02522381953895092, -0.09012159705162048, 0.04731850326061249, 0.01661616377532482, 0.05881596356630325, 0.007893413305282593, -0.004631443414837122, 0.00013625867723021656, -0.01845400221645832, -0.014134193770587444, 0.025168320164084435, -0.06863397359848022, -0.06801186501979828, -0.028678076341748238, -0.14246506989002228, 0.05003909394145012, 0.07828609645366669, 0.07903007417917252, 0.040296439081430435, 0.03478778526186943, 0.012856164947152138, 0.035792961716651917, 0.017362527549266815, 0.06780199706554413, -0.006110804621130228, -0.1510525792837143, 0.018262214958667755, -0.04549610987305641, -0.05625758320093155, -0.026172343641519547, 0.0313112773001194, 0.023295028135180473, 0.008577365428209305, 0.024380920454859734, 0.04178256168961525, 0.059753939509391785, 0.09333281219005585, 0.14162398874759674, 0.05998329818248749, -0.01113681960850954, 0.02828032337129116, 0.057416774332523346, -0.018854117020964622, 0.013419495895504951, 0.019862623885273933, -0.007638003211468458, 0.0025639308150857687, 0.05043364316225052, 0.030001943930983543, 0.09064453095197678, 0.07501102238893509, -0.013781064189970493, 0.07543130218982697, 0.05990756303071976, 0.031824443489313126, 0.02403135597705841, 1.4533484318235423e-05, -0.002370069967582822, -0.013202819041907787, 0.0004892885335721076, 0.03278151527047157, 0.05158005282282829, 0.05684593319892883, 0.017708001658320427, 0.009099224582314491, 0.1319904327392578, 0.11791170388460159, 0.07647646218538284, 0.0668824166059494, 0.015687964856624603, 0.004595016594976187, -0.027783585712313652, 0.019955705851316452, -0.01668078638613224, 0.035866666585206985, 0.061590176075696945, 0.009583293460309505, 0.01154585462063551, 0.1098952442407608, 0.15872350335121155, 0.022401219233870506, 0.08971555531024933, -0.003177087288349867, 0.0005770312272943556, -0.06048907712101936, -0.010151057504117489, 0.024113768711686134, -0.02639997936785221, 0.12097495049238205, 0.01756300963461399, -0.11648577451705933, 0.052888739854097366, 0.053865768015384674, -0.04826812073588371, -0.010134375654160976, 0.023917540907859802, -0.046063587069511414, -0.08977707475423813, -0.013875268399715424, 0.008624508045613766, -0.07695651054382324, 0.04869462549686432, -0.024605391547083855, -0.1770479679107666, 0.0017232191748917103, -0.05106084793806076, -0.09394044429063797, -0.007319517433643341, 0.013041220605373383, -0.009327170439064503, -0.07072987407445908, -0.022504398599267006, 0.019353896379470825, -0.10768415778875351, -0.056526463478803635, -0.061411142349243164, -0.13342903554439545, -0.03139420226216316, -0.029324930161237717, -0.04651901125907898, -0.027098320424556732, 0.015236456878483295, -0.02441151812672615, 0.001810763729736209, 0.0030827282462269068, 0.02828085795044899, -0.12155855447053909, -0.005519770551472902, -0.07279061526060104, -0.11292395740747452, -0.09955830127000809, -0.005284826271235943, -0.022394929081201553, 0.0248775202780962, 0.024092964828014374, -0.0028877106960862875, -0.040214307606220245, -0.038796745240688324, 0.014343776740133762, -0.08888265490531921, -0.04765137657523155, -0.06381602585315704, -0.07364239543676376, -0.06478410214185715, -0.024461328983306885, 0.0020876259077340364, 0.09185223281383514, 0.02767615206539631, 0.015625514090061188, -0.04142865538597107, -0.02868412435054779, -0.004725822247564793, -0.0074760159477591515, -0.057779572904109955, -0.0876564085483551, -0.06398054957389832, -0.005110003519803286, -0.04634549841284752, -0.004352711606770754, 0.08953186869621277, 0.01618988625705242, 0.05150790512561798, -0.019812701269984245, -0.0025020658504217863, 0.014629311859607697, 0.008271721191704273, -0.06855851411819458, -0.08803682774305344, 0.015123428776860237, -0.019749484956264496, -0.09732972085475922, 0.002782973228022456, 0.12014531344175339, 0.02096661552786827, 0.05106113478541374, 0.006918807979673147, -0.002703829202800989, 0.038122233003377914, 0.010787160135805607, -0.04493783414363861, -0.09638530015945435, -0.0018083250615745783, -0.02860666811466217, -0.04624669998884201, 0.04023338854312897, 0.10417607426643372, 0.025865299627184868, 0.028367336839437485, 0.04951111227273941, -0.0164669007062912, 0.0036847470328211784, 0.05488636717200279, -0.034088365733623505, -0.09132591634988785, -0.02894119918346405, 0.029056692495942116, 0.14312860369682312, -0.06408274173736572, -0.02789589948952198, 0.13187822699546814, -0.10755637288093567, -0.2698899805545807, -0.09358524531126022, 0.11574380844831467, 0.13290168344974518, 0.159669429063797, 0.030606435611844063, 0.0797981396317482, 0.021126868203282356, 0.009918028488755226, 0.07699214667081833, 0.1590002328157425, 0.07607913762331009, -0.1290457397699356, -0.061904534697532654, 0.0511210672557354, -0.0641428530216217, -0.06703348457813263, -0.004083655774593353, 0.10810422897338867, 0.10689729452133179, 0.005680144764482975, -0.10016388446092606, 0.03575308993458748, 0.03608165308833122, -0.00513612711802125, -0.07745179533958435, -0.007484775967895985, -0.03639209643006325, -0.12098608165979385, 0.009345182217657566, 0.01845354400575161, 0.04346979781985283, 0.03998846188187599, -0.05621327832341194, -0.1037120595574379, -0.09812355041503906, 0.011821389198303223, -0.212447851896286, -0.1085420697927475, -0.10266519337892532, -0.10071442276239395, -0.14507737755775452, 0.11444481462240219, -0.032318297773599625, -0.0032047133427113295, 0.07806000113487244, -0.0977521613240242, 0.009775342419743538, 0.06299225986003876, -0.06019162759184837, -0.17618241906166077, -0.10838440805673599, -0.12471011281013489, -0.09224148839712143, -0.03174726292490959, 0.025206642225384712, 0.03587476164102554, 0.1652948409318924, 0.07551824301481247, -0.07912150770425797, -0.0512235127389431, 0.12810711562633514, -0.11544660478830338, -0.12056614458560944, 0.044360317289829254, -0.04510337486863136, -0.04601699486374855, -0.028084347024559975, 0.07651019096374512, -0.005495389923453331, 0.13545651733875275, 0.058910056948661804, 0.013265456072986126, 0.07563827186822891, 0.14178751409053802, -0.07291711866855621, -0.027776287868618965, 0.05624964460730553, -0.059308357536792755, -0.04330980032682419, 0.10420934110879898, 0.08504010736942291, -0.006611885968595743, 0.015113589353859425, -0.022475583478808403, 0.014454365707933903, 0.052420515567064285, 0.1909850537776947, 0.09122958779335022, -0.011396040208637714, -0.04074466973543167, -0.08527761697769165, 0.0118302833288908, 0.14261433482170105, 0.052430011332035065, -0.0493474118411541, 0.024768441915512085, -0.06249592825770378, 0.04359506443142891, 0.06229735165834427, 0.18110018968582153, -0.11381211876869202, -0.040097977966070175, -0.005606132093816996, -0.06077319383621216, -0.05988500639796257, 0.08858424425125122, 0.040806833654642105, 0.03089594654738903, 0.09786101430654526, -0.020720645785331726, 0.0009687605779618025, -0.013166321441531181, 0.16979877650737762, -0.2642603814601898, -0.08923068642616272, -0.06363056600093842, -0.09787710011005402, -0.08735805749893188, -0.11304513365030289, 0.027352340519428253, 0.05003853142261505, -0.0057476297952234745, -0.03156884014606476, 0.00716528482735157, 0.06521245837211609, 0.07994765043258667, -0.33549371361732483, -0.19019922614097595, -0.17314836382865906, -0.1481393277645111, -0.10194844752550125, -0.17143870890140533, -0.04688706994056702, 0.057479437440633774, 0.005153228994458914, -0.025051649659872055, 0.011214030906558037, 0.1255475878715515, -0.10386817157268524, -0.29964905977249146, -0.22612281143665314, -0.11493927985429764, -0.12955202162265778, -0.09608511626720428, -0.0718773901462555, -0.0793248787522316, 0.08507604897022247, 0.05355919152498245, -0.041498035192489624, 0.024737656116485596, 0.0925239846110344, -0.2802567780017853, -0.2205815464258194, -0.20750731229782104, -0.22300215065479279, -0.178731307387352, -0.16642162203788757, -0.26312822103500366, -0.20911458134651184, 0.10014215856790543, 0.030675554648041725, -0.055365871638059616, -0.15883231163024902, 0.08258229494094849, 0.0505155511200428, 0.1704399287700653, -0.07595060765743256, -0.04876793175935745, -0.18547643721103668, -0.3316451609134674, -0.046581514179706573, -0.019369840621948242, 0.22694624960422516, 0.12331797927618027, -0.5050287246704102, -0.17922627925872803, -0.17130282521247864, 0.03848322108387947, -0.011460942216217518, -0.1330876350402832, 0.04626099765300751, 0.15188880264759064, 0.06653670966625214, 0.07340872287750244, 0.005645066499710083, 0.026943722739815712, -0.03557144105434418, -0.35785672068595886, -0.4692222774028778, 0.06443621218204498, -0.05092862248420715, 0.05737350136041641, -0.04096449911594391, -0.15248239040374756, 0.17780974507331848, 0.13050402700901031, 0.050284840166568756, -0.0038275644183158875, 0.02294095978140831, 0.03310253471136093, -0.1928957998752594, -0.6122633218765259, -0.02103249542415142, 0.06544140726327896, -0.09986096620559692, -0.009188203141093254, -0.17931050062179565, 0.11455679684877396, 0.045127421617507935, 0.05050240829586983, -0.04859652370214462, -0.038905199617147446, 0.015610896982252598, -0.16433775424957275, -0.4338536560535431, -0.1313769370317459, 0.1368221640586853, -0.1407429724931717, -0.07924333214759827, -0.13895481824874878, 0.06912945955991745, 0.04115856811404228, 0.012631320394575596, -0.03954489156603813, -0.10127540677785873, -0.0032505847048014402, -0.08483213931322098, -0.14773912727832794, 0.028960349038243294, 0.08718640357255936, -0.1322806477546692, 0.07960144430398941, -0.032183922827243805, 0.08421026170253754, -0.03600354492664337, -0.06189246103167534, -0.10380852222442627, -0.031870659440755844, -0.04714913293719292, -0.10050331801176071, -0.19984014332294464, 0.22507010400295258, -0.08006031811237335, -0.07628963142633438, 0.013012227602303028, -0.012206167913973331, 0.09008843451738358, 0.10852701961994171, -0.0655670240521431, -0.15717178583145142, -0.036548856645822525, -0.0383223220705986, -0.07442964613437653, -0.03743583709001541, 0.043458934873342514, 0.06186143681406975, -0.11186948418617249, 0.07260321080684662, 0.07622184604406357, 0.17081524431705475, 0.24266478419303894, -0.02625030092895031, -0.14968688786029816, -0.04011194035410881, -0.011518733575940132, -0.06142868101596832, -0.07324959337711334, 0.01473625935614109, -0.003617287380620837, 0.014177064411342144, 0.028361797332763672, 0.22793683409690857, 0.15425518155097961, 0.24237072467803955, -0.020784083753824234, -0.10342603921890259, -0.1004529595375061, 0.038676582276821136, -0.007051317021250725, -0.08000783622264862, 0.10444915294647217, -0.10754048079252243, -0.011810196563601494, 0.12946929037570953, 0.23146261274814606, 0.23012936115264893, 0.15040995180606842, -0.007959683425724506, -0.06864087283611298, -0.04469272494316101, 0.01693885773420334, -0.021959751844406128, -0.061153821647167206, 0.12073444575071335, -0.06436854600906372, 0.08523215353488922, 0.18198111653327942, 0.23502430319786072, 0.25822779536247253, 0.17348918318748474, -0.01437410432845354, -0.049409374594688416, 0.0006371727795340121, 0.0042531052604317665, -0.00711916945874691, -0.08477354794740677, 0.09851409494876862, -0.05868983268737793, 0.07609210908412933, 0.2487286776304245, 0.2634231150150299, 0.41758066415786743, 0.16900599002838135, 0.03332139924168587, 0.006454403977841139, -0.09761536866426468, -0.048236291855573654, -0.062285106629133224, -0.13978363573551178, 0.08720669895410538, -0.19103309512138367, 0.04999870806932449, 0.3496832549571991, 0.42397448420524597, 0.47186946868896484, 0.2747817635536194, 0.15171605348587036, 0.03373052552342415, -0.11752621829509735, -0.022506847977638245, 0.00034968554973602295, -0.4063704013824463, 0.03136320039629936, 0.143573597073555, -0.029657039791345596, 0.20505133271217346, 0.07021093368530273, -0.019776929169893265, 0.06911114603281021, 0.20537078380584717, 0.14023497700691223, 0.12325483560562134, 0.00035692128585651517, -0.47315993905067444, -0.03335599973797798, -0.04987236112356186, -0.11035360395908356, -0.14427822828292847, 0.11853249371051788, -0.0018176577286794782, 0.06850537657737732, 0.07608339935541153, 0.08591081202030182, 0.014640549197793007, 0.006767250131815672, -0.08742666244506836, -0.35875368118286133, -0.033113010227680206, -0.06876715272665024, -0.06490154564380646, -0.0660017728805542, 0.10078751295804977, 0.0316152349114418, 0.16133324801921844, 0.11210532486438751, 0.019886145368218422, -0.06797754019498825, -0.015674352645874023, -0.1008022278547287, -0.3243217170238495, -0.06052275002002716, -0.005615863483399153, 0.004785268101841211, -0.08408808708190918, 0.12495087832212448, 0.014531273394823074, 0.18763931095600128, 0.08387813717126846, 0.07196787744760513, -0.07744793593883514, -0.07115735113620758, -0.04021642357110977, -0.20911149680614471, -0.07904764264822006, 0.011199249885976315, -0.05470825359225273, -0.053814295679330826, 0.057281043380498886, 0.01979830116033554, 0.11818573623895645, 0.09635058045387268, 0.11361924558877945, -0.08408223092556, -0.09768611192703247, -0.07966452091932297, -0.15945923328399658, -0.020716467872262, 0.06544706225395203, -0.016795815899968147, -0.060320183634757996, -0.01664523035287857, -0.007622774224728346, 0.014581202529370785, 0.09296253323554993, 0.1534053534269333, -0.052503399550914764, -0.057397887110710144, -0.07605162262916565, -0.13976912200450897, 0.04952344298362732, 0.10025236010551453, 0.015106821432709694, -0.03143615648150444, -0.04997290298342705, 0.015706822276115417, -0.054522596299648285, 0.12596435844898224, 0.1088792234659195, -0.08669116348028183, -0.060771312564611435, -0.0716952234506607, -0.08577382564544678, 0.008180941455066204, 0.06326121091842651, 0.05350355803966522, -0.06417679786682129, -0.09303495287895203, 0.01474711298942566, -0.13945917785167694, 0.10842245817184448, 0.1295945793390274, -0.050743468105793, -0.051173556596040726, -0.02362026646733284, -0.1015806570649147, 0.02320280857384205, 0.05025917664170265, 0.005763974040746689, -0.07215810567140579, -0.09657038003206253, 0.023981645703315735, -0.23653322458267212, 0.05429069697856903, 0.09374263882637024, -0.014401097781956196, -0.026951299980282784, 0.022989479824900627, -0.09073673188686371, 0.0003844694292638451, 0.04889911785721779, 0.03787628188729286, -0.10233213007450104, -0.08619774132966995, -0.04338860511779785, -0.3214389681816101, -0.008597361855208874, 0.14476707577705383, 0.0275444146245718, 0.002797462046146393, 0.011078950949013233, -0.025904936715960503, 0.035853318870067596, 0.028667498379945755, 0.021756161004304886, -0.052101895213127136, -0.07523299753665924, -0.018550189211964607, -0.3261159062385559, 0.0440366193652153, 0.11339227110147476, 0.062398359179496765, -0.03005767986178398, 0.004041746258735657, 0.020477579906582832, 0.062245097011327744, 0.03510557487607002, 0.005140745546668768, -0.0527055524289608, -0.07637066394090652, 0.008747346699237823, -0.26643168926239014, 0.09035082906484604, 0.15781228244304657, 0.08142267167568207, -0.05003773048520088, -0.007293938659131527, 0.015640778467059135, 0.08402861654758453, -0.006067565642297268, 0.049833085387945175, 0.031171636655926704, -0.0035270333755761385, 0.11323519051074982, -0.21433210372924805, 0.1692827343940735, 0.1358017921447754, 0.042124226689338684, 0.023339590057730675, 0.01650245301425457, 0.05092687904834747, -0.0532451868057251, -0.20098625123500824, -0.6602157950401306, -0.6447518467903137, -0.6271768808364868, -0.5658467411994934, -0.4310866892337799, -0.5841792225837708, -0.7163493037223816, -0.9234311580657959, -0.37958577275276184, -0.20030002295970917, -0.23981495201587677, -0.05108659714460373, -0.161797896027565, 0.03566773608326912, 0.12497369945049286, -0.042876631021499634, 0.003830776084214449, 0.1497844010591507, -0.15917523205280304, -0.17496894299983978, -0.24952374398708344, -0.2887856364250183, -0.07596138119697571, -0.19668340682983398, -0.05482309311628342, -0.01917159929871559, -0.16301704943180084, -0.07577380537986755, 0.09221463650465012, -0.013845660723745823, 0.22908402979373932, -0.021721642464399338, -0.21950790286064148, -0.43435797095298767, -0.1813708394765854, -0.07823171466588974, -0.17099469900131226, -0.18758665025234222, -0.07319405674934387, -0.2935349941253662, -0.2503643333911896, -0.25748950242996216, -0.06940175592899323, 0.18102100491523743, -0.20113083720207214, -0.10209401696920395, -0.40149375796318054, -0.3433949947357178, -0.11981233209371567, -0.29945364594459534, 0.019702311605215073, -0.02790859341621399, -0.1982441246509552, -0.36502164602279663, -0.6100287437438965, -0.36144310235977173, -0.2411859780550003, -0.27271193265914917, -0.35456591844558716, -0.22690518200397491, -0.44136789441108704, -0.09220633655786514, -0.14896440505981445, 0.05132518336176872, 0.06261274963617325, -0.0072508566081523895, -0.3835548460483551, -0.48280540108680725, -0.23790083825588226, -0.2875491678714752, -0.42400988936424255, -0.4791377782821655, -0.17591418325901031, -0.049946945160627365, -0.030684687197208405, -0.13537682592868805, -0.33274760842323303, 0.11857989430427551, 0.04625895246863365, -0.2817063331604004, -0.4100029468536377, -0.2789064347743988, -0.08448757231235504, -0.37608209252357483, -0.21281203627586365, -0.11410008370876312, 0.059290237724781036, 0.04151296243071556, 0.02738352119922638, -0.05171509087085724, -0.07910161465406418, -0.1463961899280548, -0.47143444418907166, -0.39701277017593384, -0.2349264770746231, -0.31641528010368347, -0.34534600377082825, -0.20544220507144928, -0.24620352685451508, 0.06321413815021515, 0.09298335760831833, -0.019270069897174835, -0.12166836857795715, 0.06072197109460831, -0.2249947041273117, -0.4989747107028961, -0.2770807445049286, -0.3651542365550995, -0.38467270135879517, -0.4150989353656769, -0.03725080192089081, -0.13687816262245178, 0.078410305082798, 0.044812850654125214, 0.02312125265598297, 0.05920032039284706, 0.1647537350654602, -0.14408926665782928, -0.35144418478012085, -0.4023737907409668, -0.3808702528476715, -0.3944782018661499, -0.4424647092819214, -0.15794333815574646, -0.37028729915618896, -0.09403111785650253, 0.20801419019699097, 0.1940789371728897, -0.1008874699473381, -0.1161615401506424, -0.1630527228116989, -0.3282378911972046, -0.29813799262046814, -0.46559450030326843, -0.24296154081821442, -0.5626847147941589, -0.14158274233341217, -0.146754190325737, 0.14065222442150116, 0.12447217851877213, 0.025319747626781464, -0.058482397347688675, -0.12728679180145264, -0.11912163347005844, -0.1967012882232666, -0.3782253563404083, -0.3706419765949249, -0.08941209316253662, -0.6001641154289246, -0.16119635105133057, -0.1613001823425293, 0.013965222984552383, 0.15811681747436523, -0.03565683588385582, 0.03228742629289627, 0.06445693224668503, 0.0757892057299614, -0.029074646532535553, -0.2238622009754181, -0.23108531534671783, 0.08044623583555222, -0.5036159753799438, 0.033314675092697144, 0.10409433394670486, 0.25385725498199463, 0.12064149975776672, 0.0923599898815155, -0.03612986207008362, -0.002365976804867387, -0.13806696236133575, -0.2110997587442398, -0.5308681130409241, -0.15927977859973907, -0.17527423799037933, -0.5940412878990173, -0.3233502209186554, -0.2513502240180969, -0.07098865509033203, -0.017403023317456245, -0.024894192814826965, -0.010330796241760254, -0.004616063088178635, -0.010080903768539429, 0.049144428223371506, -0.2063646912574768, -0.15796686708927155, 0.038252729922533035, -0.2915857136249542, -0.09218059480190277, -0.022400034591555595, -0.06387846171855927, -0.032488640397787094, -0.04528367146849632, -0.007456191815435886, -0.02112259902060032, -0.007528429850935936, 0.033625323325395584, -0.1645534783601761, -0.12430427968502045, -0.17755499482154846, -0.17255531251430511, -0.042630068957805634, -0.07827208191156387, -0.030634714290499687, -0.014457585290074348, -0.056266143918037415, -0.006533004343509674, 0.004167662933468819, 0.012664875015616417, -0.052763309329748154, -0.23850463330745697, -0.061222296208143234, -0.34173455834388733, -0.13992232084274292, -0.06591478735208511, -0.07612282037734985, -0.07067415118217468, -0.009021652862429619, -0.0464983768761158, -0.003139263018965721, -0.02585958130657673, -0.01939515210688114, -0.0889735072851181, -0.35327956080436707, 0.027045132592320442, -0.31316062808036804, -0.21128572523593903, -0.23554281890392303, -0.035551611334085464, -0.044127047061920166, -0.04595862329006195, -0.013006588444113731, -0.04569663852453232, -0.032796941697597504, -0.031999051570892334, -0.10894861072301865, -0.18308986723423004, 0.153285413980484, 0.02103303372859955, -0.24824538826942444, -0.25618937611579895, -0.11427528411149979, -0.01613318733870983, -0.05221424996852875, -0.014265992678701878, -0.024200253188610077, -0.03276332467794418, -0.07682597637176514, -0.09003159403800964, -0.22953346371650696, 0.05706034228205681, 0.06567269563674927, -0.19446095824241638, -0.0683763176202774, -0.08848334103822708, -0.018459975719451904, -0.038763049989938736, -0.031704023480415344, -0.0012818777468055487, -0.003788214409723878, -0.05877676606178284, -0.04938093200325966, -0.07603254169225693, 0.08693356812000275, 0.0992833599448204, -0.22793930768966675, 0.005239706486463547, -0.0900714099407196, -0.04431426152586937, 0.0024372476618736982, -0.024774760007858276, -0.05422179773449898, -0.0011174000101163983, -0.0661478191614151, 0.001229572924785316, 0.02532607689499855, 0.28601035475730896, 0.33751556277275085, -0.17430511116981506, 0.015690455213189125, -0.06779219210147858, -0.06404455006122589, -0.026729486882686615, -0.04882947728037834, -0.03437068313360214, -0.01598084531724453, -0.04915846139192581, 0.019105231389403343, 0.04563407227396965, 0.309954971075058, 0.3757466971874237, -0.03720103204250336, -0.008780937641859055, -0.03930110111832619, -0.06654706597328186, 0.007224897388368845, -0.0660330206155777, -0.018964555114507675, -0.030916403979063034, -0.08387365192174911, 0.07715445011854172, 0.1513846218585968, 0.29964306950569153, 0.4088268280029297, -0.08702784031629562, 0.04201454296708107, -0.04758133366703987, -0.02790001966059208, -0.06319285929203033, -0.06247957423329353, -0.010725343599915504, -0.007569520268589258, -0.07366867363452911, 0.017125340178608894, 0.1670188009738922, 0.3278854489326477, 0.3730139136314392, -0.005053587257862091, 0.10085646063089371, -0.016750900074839592, -0.09924197942018509, -0.028789198026061058, -0.07584130018949509, -0.03675564378499985, -0.03420642763376236, -0.07036390155553818, 0.03753076493740082, 0.1752651035785675, 0.27372878789901733, 0.3127029836177826, -0.053169135004282, 0.17437608540058136, 0.0783863514661789, -0.02281166985630989, -0.04914947599172592, -0.004587788134813309, 0.0027304720133543015, -0.030190888792276382, 0.04945006221532822, 0.16496558487415314, 0.08570553362369537, 0.3373381197452545, -0.15343816578388214, -0.1931154727935791, 0.22786371409893036, 0.281685471534729, 0.38990113139152527, 0.10479627549648285, -0.15543901920318604, -0.03114866092801094, 0.040644630789756775, -0.04973984882235527, 0.04057352989912033, 0.1374555379152298, 0.08329499512910843, -0.19573643803596497, -0.07437826693058014, 0.1251186579465866, 0.022836631163954735, 0.05468400940299034, -0.05308585241436958, -0.18802987039089203, -0.0464845672249794, 0.03366875275969505, -0.012585119344294071, 0.024805154651403427, 0.10533267259597778, -0.11889951676130295, 0.13870544731616974, 0.026968052610754967, 0.03490418568253517, -0.037127964198589325, 0.06225050613284111, -0.03483634814620018, -0.17065393924713135, -0.04874862730503082, -0.0626499131321907, -0.009090431034564972, -0.05705311894416809, -0.1306673288345337, -0.13694559037685394, 0.12002918124198914, -0.010791989043354988, -0.0008833032916299999, -0.007872538641095161, -0.007753444369882345, -0.014866527169942856, -0.11579229682683945, -0.0980900302529335, -0.04703423008322716, -0.043234508484601974, -0.2379399985074997, -0.04453190416097641, -0.022350749000906944, 0.08258421719074249, -0.021852761507034302, 0.039515379816293716, -0.02174198254942894, -0.12675130367279053, -0.011551883071660995, -0.10434123128652573, -0.11892294883728027, -0.09948579967021942, -0.06063370406627655, -0.2851172387599945, 0.02088608406484127, -0.13590160012245178, 0.0769650936126709, -0.08344408124685287, 0.08592838793992996, -0.06605833023786545, -0.10285970568656921, -0.13164202868938446, -0.045425549149513245, -0.07258713245391846, 0.11265061050653458, -0.11282751709222794, -0.19296357035636902, -0.03797224909067154, -0.019596537575125694, 0.18283022940158844, 0.06617089360952377, 0.011020106263458729, -0.08586189150810242, 0.03493870049715042, -0.12383478879928589, -0.1066572517156601, -0.1206216961145401, 0.0954376831650734, -0.07345869392156601, -0.20098808407783508, -0.04432060196995735, 0.09284842759370804, 0.2121245265007019, 0.16996480524539948, 0.010338968597352505, -0.09498877078294754, -0.018831145018339157, -0.07550394535064697, -0.03765241801738739, -0.09870833903551102, -0.044408466666936874, -0.20244860649108887, -0.27883055806159973, -0.02812504582107067, 0.16969478130340576, 0.1852572113275528, 0.15919768810272217, -0.05287997052073479, -0.08250917494297028, -0.045158177614212036, -0.008322637528181076, -0.07077214866876602, -0.09889901429414749, -0.006918285507708788, -0.27136221528053284, -0.2456868290901184, -0.01875298097729683, 0.1256665140390396, 0.1830010563135147, 0.06459216773509979, -0.08019698411226273, -0.0529477596282959, 0.014929236844182014, -0.029170986264944077, -0.031030138954520226, -0.0932426005601883, -0.030931750312447548, -0.15716926753520966, -0.12392779439687729, 0.04994947463274002, 0.1103396862745285, 0.2337815761566162, 0.05594537779688835, -0.05065862461924553, -0.04078289121389389, -0.048888616263866425, -0.08065889030694962, -0.04871740937232971, -0.01311849057674408, -0.06407338380813599, -0.20265676081180573, -0.12177533656358719, 0.052555132657289505, 0.10439656674861908, 0.31598880887031555, 0.008852602913975716, -0.058899350464344025, 0.0295072253793478, -0.05655810609459877, -0.08629515022039413, -0.01235391478985548, -0.011839737184345722, -0.02781672030687332, -0.3006441593170166, -0.1484254151582718, -0.03627663105726242, 0.28278425335884094, 0.31442075967788696, 0.05920076370239258, -0.027928998693823814, -0.08590193837881088, -0.13724561035633087, -0.09139201790094376, 0.017963530495762825, 0.03469211608171463, 0.01865994557738304, -0.0017167908372357488, 0.045722682029008865, 0.08934828639030457, 0.19733662903308868, 0.031240146607160568, 0.03541954234242439, 0.17820923030376434, 0.11715566366910934, 0.09523745626211166, 0.041077177971601486, -0.19714537262916565, 0.005799419246613979, -0.004522742237895727, -0.02328946813941002, -0.04494154453277588, 0.12080105394124985, 0.11834079027175903, 0.08612771332263947, 0.10095743834972382, 0.09682650864124298, 0.04473428800702095, 0.019408682361245155, -0.001189965638332069, -0.09675279259681702, -0.04192263260483742, 0.00412557739764452, -0.03864035755395889, -0.013592340983450413, 0.1690395474433899, 0.09748821705579758, 0.10387130081653595, 0.12693148851394653, 0.10854504257440567, -0.02798421122133732, 0.00736581115052104, -0.009226799942553043, -0.12102699279785156, 0.0021604225039482117, -0.04006839171051979, -0.058935776352882385, 0.002201689640060067, 0.10828940570354462, 0.03972737863659859, 0.03946232795715332, 0.15057864785194397, 0.050205715000629425, 0.010556953027844429, -0.06404779851436615, -0.024632589891552925, -0.09403641521930695, 0.017737150192260742, 0.000816701736766845, -0.0296267569065094, -0.014319743029773235, -0.025489870458841324, 0.013444471172988415, 0.0338360033929348, 0.15553201735019684, 0.013111051172018051, 0.03190935030579567, -0.11190922558307648, -0.054546575993299484, -0.09052247554063797, 0.02060639299452305, 0.050272442400455475, 0.00645269313827157, -0.04666781425476074, -0.013390286825597286, -0.011181836016476154, 0.053678080439567566, 0.0574323870241642, 0.020151307806372643, -0.052812352776527405, -0.059253592044115067, -0.07086359709501266, -0.10278639197349548, 0.02908707968890667, 0.03413758799433708, 0.010283110663294792, 0.0036263589281588793, -0.05402654781937599, 0.006593723781406879, 0.031886644661426544, 0.10213908553123474, -0.01165110245347023, -0.03871063143014908, -0.04939878359436989, -0.04870907962322235, -0.08720099180936813, 0.08788114041090012, 0.034930720925331116, 0.010707535780966282, -0.004251864738762379, -0.06613951921463013, -0.01771215721964836, 0.039946384727954865, 0.06430258601903915, -0.012462136335670948, -0.04404338449239731, -0.05926089361310005, 0.01712067984044552, -0.06265188753604889, 0.07890541851520538, -0.008644388057291508, -0.017994746565818787, -0.0264293123036623, -0.1039920523762703, -0.03582150489091873, -0.046367745846509933, -0.0039010150358080864, 0.008564826101064682, -0.055546440184116364, -0.11821749806404114, 0.0262595321983099, -0.046646662056446075, 0.0750403106212616, 0.013923430815339088, -0.013774369843304157, -0.02962007187306881, -0.08223556727170944, -0.07761596143245697, -0.025258895009756088, -0.04087650030851364, 0.030723534524440765, 0.0020423722453415394, -0.04853315278887749, 0.026464907452464104, -0.05085082724690437, 0.1080770194530487, 0.03676212206482887, 0.02649960294365883, -0.004724664613604546, -0.10779030621051788, -0.077372245490551, -0.012940374203026295, -0.07189876586198807, 0.047314491122961044, 0.006966181565076113, -0.0779741033911705, -0.016515089198946953, 0.008628597483038902, 0.0754985436797142, 0.10637562721967697, -0.03869377076625824, -0.012553587555885315, -0.07027687877416611, -0.056612685322761536, 0.011419042013585567, -0.06623559445142746, 0.06982267647981644, 0.020579209551215172, -0.09837613999843597, 0.020733648911118507, -0.007451728451997042, 0.004145951475948095, 0.03177846223115921, -0.02751407027244568, 0.06230400502681732, 0.027937890961766243, -0.0035625130403786898, 0.10643737018108368, 0.0007833951967768371, 0.11900210380554199, 0.053497713059186935, -0.05073155462741852, 0.02876909449696541, -0.006010848097503185, -0.037005890160799026, -0.003424258902668953, -0.00975310429930687, -0.010560208931565285, 0.1319253146648407, -0.005499684251844883, 0.023893753066658974, 0.07788542658090591, 0.08978613466024399, 0.09503813832998276, 0.0808660015463829, -0.08796720951795578, -0.25457367300987244, -0.024193327873945236, -0.06846514344215393, -0.07655796408653259, -0.02808527648448944, 0.09192994982004166, 0.08187979459762573, 0.08872152119874954, 0.06153682991862297, 0.06978792697191238, -0.021323449909687042, 0.014890065416693687, -0.0647663101553917, -0.285431832075119, -0.017451176419854164, -0.03660942614078522, -0.07204513996839523, 0.026799755170941353, 0.09248708188533783, 0.09676303714513779, 0.14250685274600983, 0.10578415542840958, 0.012941786088049412, -0.027439918369054794, -0.010976622812449932, -0.12686361372470856, -0.2867854833602905, -0.05890107899904251, -0.039113420993089676, -0.0420212484896183, 0.005661096423864365, 0.10501468926668167, 0.0371931828558445, 0.15182791650295258, 0.07598159462213516, 0.023753855377435684, -0.08184447139501572, -0.03369394689798355, -0.04058169946074486, -0.17383964359760284, -0.021488016471266747, -0.023473059758543968, -0.04382741451263428, -0.016670383512973785, 0.04061799496412277, -0.04668377339839935, 0.08329545706510544, 0.0808219388127327, 0.04953743889927864, -0.09959101676940918, -0.06310736387968063, -0.05361693352460861, -0.11968009918928146, 0.03132816404104233, 0.018979346379637718, -0.018970970064401627, -0.05686036869883537, 0.03439271077513695, -0.040314123034477234, 0.042644672095775604, 0.047682251781225204, 0.04463011398911476, -0.09947890788316727, -0.06117583066225052, -0.04867080971598625, -0.055446233600378036, 0.024424029514193535, -0.016023142263293266, 0.017911339178681374, -0.049200959503650665, 0.019452817738056183, -0.012581504881381989, 0.004243114031851292, 0.09550291299819946, 0.04896245524287224, -0.11232247203588486, -0.05747062340378761, -0.030735671520233154, -0.06792683899402618, 0.011521931737661362, 0.007237840909510851, 0.02173401042819023, -0.05295020714402199, -0.015963496640324593, 0.017062867060303688, -0.09197975695133209, 0.13994617760181427, 0.05419691652059555, -0.11895421892404556, -0.05542028322815895, -0.04105813056230545, -0.030142860487103462, 0.0283056553453207, -0.03327770158648491, -0.014787659980356693, -0.10100828856229782, -0.027039583772420883, -0.01524245087057352, -0.15989311039447784, 0.09157180786132812, 0.06599308550357819, -0.03029600903391838, -0.021838102489709854, -0.026524679735302925, 0.00659797852858901, -0.029860233888030052, 0.016767140477895737, 0.002792769344523549, -0.09739244729280472, -0.03946162015199661, -0.06125117465853691, -0.2573867440223694, 0.12367229908704758, 0.07504234462976456, -0.008997670374810696, -0.06474181264638901, -0.027356641367077827, -0.02775280550122261, -0.02040926180779934, -0.02536902390420437, 0.025311414152383804, -0.055862244218587875, 0.02136392518877983, -0.020324276760220528, -0.2776653468608856, 0.1349843293428421, 0.07340461015701294, -0.0042401873506605625, -0.051865965127944946, -0.018621480092406273, -0.021487265825271606, 0.019619664177298546, -0.047938019037246704, 0.016512461006641388, -0.024179356172680855, -0.0015780542744323611, 0.007678869180381298, -0.2179275006055832, 0.1899905502796173, 0.06478146463632584, 0.015346446074545383, -0.030891401693224907, -0.06020643189549446, 0.026232091709971428, 0.0343702994287014, -0.0484648235142231, 0.059120453894138336, -0.004279734566807747, 0.07767560333013535, 0.04843780770897865, -0.2106432318687439, 0.22555236518383026, 0.06487401574850082, 0.051883287727832794, -0.06806553155183792, 0.008600144647061825, 0.05218733474612236, -0.020236307755112648, -0.057214539498090744, -0.04617831110954285, 0.23667745292186737, -0.14994114637374878, 0.03507716581225395, -0.18865026533603668, -0.4665738642215729, -0.004633122123777866, 0.030629033222794533, 0.19613444805145264, 0.09247463941574097, -0.08403919637203217, -0.06281808763742447, 0.011180083267390728, -0.0038610037881881, 0.0976250022649765, -0.04914660379290581, -0.08587606251239777, -0.21571460366249084, -0.1864372342824936, 0.02435465343296528, -0.0005566245527006686, 0.04795073717832565, 0.04642322659492493, -0.08184278756380081, -0.057891350239515305, 0.047517329454422, -0.021082958206534386, 0.12869954109191895, 0.0031113172881305218, -0.2005535364151001, -0.30018097162246704, -0.08618652075529099, 0.0016008297679945827, -0.017003381624817848, 0.07687875628471375, 0.05637607350945473, -0.09553026407957077, -0.01295926608145237, 0.027738366276025772, 0.1287609189748764, -0.019581332802772522, -0.22342060506343842, -0.19457678496837616, -0.33662477135658264, -0.08298411965370178, -0.02378893457353115, -0.00547537999227643, 0.03449321538209915, 0.034632258117198944, -0.09176748245954514, -0.03691994398832321, -0.04941938444972038, 0.0387253575026989, -0.1631680279970169, -0.1831618994474411, -0.24134640395641327, -0.21121709048748016, -0.08873731642961502, -0.0590246208012104, 0.042675454169511795, -0.0013471515849232674, -0.0032725296914577484, -0.10695943981409073, -0.0599372461438179, -0.046790361404418945, -0.017761528491973877, -0.13103587925434113, -0.0770261362195015, -0.08023382723331451, -0.0491345077753067, -0.12259096652269363, -0.027804069221019745, 0.013554970733821392, 0.02617058716714382, -0.0775824636220932, -0.06278934329748154, -0.06259668618440628, -0.03852873668074608, -0.02432335540652275, -0.05718027055263519, -0.14715847373008728, -0.017560163512825966, 0.10800378769636154, 0.004992382600903511, 0.001878518844023347, -0.002207708777859807, 0.01074895542114973, 0.007747816387563944, -0.08689428120851517, -0.06153138726949692, -0.025767751038074493, -0.04117731377482414, -0.0771731585264206, -0.06518726050853729, 0.2516947090625763, 0.2776322066783905, 0.11414738744497299, 0.014256072230637074, 0.010912160389125347, 0.007895327173173428, 0.011512118391692638, -0.03683365136384964, -0.03532196208834648, -0.02432621270418167, -0.1606200486421585, -0.0028706640005111694, 0.061192601919174194, 0.37536555528640747, 0.32374879717826843, 0.1357542723417282, 0.00903357844799757, -0.03490988537669182, -0.03810333088040352, 0.04380643367767334, -0.06840402632951736, -0.04200592264533043, -0.03589890897274017, -0.15053240954875946, 0.0364566333591938, 0.20514366030693054, 0.3811638057231903, 0.2997618615627289, 0.047094278037548065, -0.00508398050442338, -0.004252699203789234, 0.010099737904965878, 0.03372903913259506, -0.060482922941446304, -0.04768745228648186, 0.036147791892290115, -0.14600811898708344, 0.08137533068656921, 0.23802879452705383, 0.35493743419647217, 0.3832392990589142, 0.05054383724927902, -0.013298689387738705, -0.012102620676159859, 0.0015578031307086349, 0.03679605573415756, -0.0698629766702652, -0.03502412512898445, 0.03980287164449692, -0.14746373891830444, 0.08551624417304993, 0.27002713084220886, 0.3054162263870239, 0.4873898923397064, 0.01728176325559616, 0.04944818839430809, 0.04825406149029732, -0.060472581535577774, 0.011124767363071442, -0.09225818514823914, -0.07739143073558807, -0.003255570540204644, -0.26229843497276306, -0.0284884050488472, 0.14673341810703278, 0.5225216746330261, 0.7425188422203064, -0.05348643660545349, 0.0966014564037323, -0.006669256370514631, -0.11321115493774414, -0.03300764784216881, -0.05117661505937576, -0.06756886094808578, -0.4079498052597046, -0.27671024203300476, -0.1653372347354889, 0.02635197341442108, 0.11663871258497238, -0.20011094212532043, -0.5256228446960449, -0.057275522500276566, 0.24178160727024078, 0.029121117666363716, -0.25694921612739563, -0.7347518801689148, -0.38932910561561584, -0.2934321463108063, -0.1908293068408966, -0.2027374505996704, -0.07872392237186432, -0.19715869426727295, -0.39882728457450867, -0.31598547101020813, 0.007464861962944269, -0.04104911908507347, -0.02729513682425022, 0.2564842998981476, -0.2996063828468323, -0.3201487064361572, -0.10996051877737045, 0.11879001557826996, -0.05667492374777794, -0.12970998883247375, -0.20408093929290771, -0.3474518656730652, -0.25999486446380615, -0.2878560423851013, 0.028222620487213135, -0.04075740650296211, -0.024941585958003998, -0.12524263560771942, -0.587704062461853, -0.1485896110534668, 0.06321244686841965, 0.08997489511966705, 0.11756038665771484, 0.02140210010111332, -0.14238552749156952, -0.03789067268371582, -0.004877510014921427, -0.135932058095932, 0.009025589562952518, -0.03861674293875694, -0.08582713454961777, -0.31419968605041504, 0.040940433740615845, 0.06686709821224213, -0.030847035348415375, 0.0363084115087986, 0.12286987155675888, -0.1084437295794487, -0.017769528552889824, -0.04455220326781273, -0.06516856700181961, -0.010924754664301872, -0.04221317917108536, -0.0938900038599968, -0.16573724150657654, 0.051593977957963943, 0.036507949233055115, 0.03786094859242439, 0.09604189544916153, -0.028229426592588425, -0.22130893170833588, -0.08358924090862274, -0.09420998394489288, 0.014418431557714939, 0.021149568259716034, -0.0652809888124466, -0.08724368363618851, -0.17929397523403168, 0.04953746497631073, 0.11561457067728043, 0.06254369765520096, 0.03180128335952759, -0.06186547130346298, -0.19808712601661682, -0.12228798121213913, -0.05872606486082077, 0.07047444581985474, 0.018863266333937645, -0.020395470783114433, -0.016279296949505806, -0.3538776636123657, 0.17723792791366577, 0.016276737675070763, 0.02781829982995987, -0.003189863171428442, -0.17534387111663818, -0.26609715819358826, -0.13802509009838104, -0.036198750138282776, -0.0022617231588810682, -0.03400454670190811, -0.05625491216778755, -0.02030550315976143, -0.14188294112682343, 0.07706158608198166, 0.020832549780607224, 0.00610892940312624, -0.020243408158421516, -0.26587119698524475, -0.35218334197998047, -0.20754127204418182, 0.002841735491529107, -0.049981649965047836, -0.002166994148865342, -0.027849027886986732, -0.09093958884477615, -0.08593537658452988, 0.21022388339042664, 0.05400235950946808, 0.08437623083591461, -0.1420028954744339, -0.19950157403945923, -0.354260116815567, -0.1492161601781845, 0.06378930807113647, -0.00851102638989687, -0.020198388025164604, -0.02120480313897133, -0.1184750497341156, -0.24065960943698883, 0.13612453639507294, 0.18657447397708893, 0.12226112931966782, -0.12040718644857407, -0.27019524574279785, -0.2758709192276001, -0.21774505078792572, 0.054982900619506836, 0.12136209011077881, 0.01239025965332985, -0.020582517609000206, -0.14523568749427795, -0.1042131558060646, 0.13427944481372833, 0.16921891272068024, 0.19135230779647827, -0.04406780004501343, -0.41474395990371704, -0.3242124915122986, -0.13873787224292755, 0.1551673859357834, 0.09930961579084396, 0.10096859931945801, 0.04736337438225746, -0.039130035787820816, 0.07640646398067474, 0.3485969007015228, 0.27857255935668945, 0.13615694642066956, -0.07175548374652863, -0.6664177179336548, -0.6846276521682739, -0.5426415801048279, -0.10023807734251022, 0.24794866144657135, 0.28196942806243896, 0.061732012778520584, -0.056716188788414, -0.12685707211494446, -0.36834096908569336, -0.07165998965501785, 0.1552899181842804, 0.12189798802137375, 0.03671017661690712, -0.05790305510163307, 0.007908063940703869, 0.18372176587581635, -0.018017904832959175, 0.0004024685767944902, -0.08264723420143127, -0.5488318800926208, -0.29974743723869324, 0.05454688519239426, 0.001679070177488029, -0.06796243041753769, 0.007562031503766775, -6.500089511973783e-05, -0.11314085870981216, -0.06028805673122406, -0.02807133086025715, -0.1008787527680397, -0.028281569480895996, -0.005641284864395857, -0.19866590201854706, -0.1546078324317932, 0.0494343526661396, -0.009549577720463276, 0.03950672224164009, 0.009585550986230373, -0.03807108849287033, -0.08044489473104477, -0.07538037747144699, -0.014609212055802345, -0.04040244594216347, 0.03430192172527313, -0.04500435292720795, -0.1688833087682724, -0.20249636471271515, 0.04989545792341232, 0.03951478376984596, 0.02238224633038044, 0.008942661806941032, 0.06312354654073715, -0.049095481634140015, -0.024333398789167404, 0.023000262677669525, -0.05807260051369667, -0.002229738049209118, -0.08422183245420456, -0.16263550519943237, -0.1578548103570938, 0.00792756862938404, -0.004041906911879778, 0.02011728659272194, 0.07090706378221512, 0.004629726987332106, -0.04816755652427673, -0.02759217657148838, 0.014735240489244461, -0.06459128111600876, -0.04078833758831024, -0.06961392611265182, -0.15011340379714966, -0.088200144469738, -0.022101035341620445, 0.04969072714447975, 0.0632435604929924, 0.01806688867509365, -0.013349750079214573, -0.062423139810562134, -0.030556833371520042, -0.01208934374153614, -0.06637758761644363, 0.03077218309044838, -0.032978881150484085, -0.0866749957203865, 0.022123942151665688, -0.032269272953271866, 0.06929030269384384, 0.03424931690096855, -0.008560191839933395, -0.0070921434089541435, -0.0644945278763771, -0.031852252781391144, -0.012421666644513607, -0.05442529171705246, 0.013754958286881447, -0.020058659836649895, -0.058838896453380585, 0.03470369055867195, -0.05207100138068199, 0.036522239446640015, 0.024933291599154472, 0.006130307447165251, -0.0051268781535327435, -0.06591781973838806, -0.04795008525252342, -0.03915649279952049, -0.060424838215112686, -0.0122535964474082, 0.002268966054543853, -0.05771636590361595, -0.0038042226806282997, -0.07621592283248901, 0.029402533546090126, -0.007676700595766306, 0.02113931067287922, -0.009105022065341473, -0.05283454433083534, -0.05352218821644783, -0.04825957864522934, -0.05301055312156677, -0.014467702247202396, 0.029363665729761124, -0.09543905407190323, 0.0005080441478639841, -0.11845418065786362, 0.007700255140662193, -0.02121647819876671, 0.03973327577114105, -0.009447835385799408, -0.032731685787439346, -0.07670740783214569, -0.06708686053752899, -0.05611329525709152, -0.04026976227760315, 0.005587809253484011, -0.07680289447307587, -0.04184209555387497, -0.04227057844400406, 0.04360273852944374, -0.04608536884188652, -0.011225510388612747, 0.005838287062942982, -0.036547381430864334, -0.015702540054917336, -0.02583516389131546, -0.0528254471719265, -0.03982488438487053, -0.023580459877848625, -0.02905896306037903, -0.023607157170772552, -0.05023808404803276, 0.034269850701093674, -0.011053024791181087, 0.052537836134433746, -0.03371679410338402, -0.029107099398970604, -0.007853723131120205, -0.07104384899139404, -0.03736916184425354, -0.020799756050109863, 0.05624065548181534, -0.020347364246845245, -0.09769260883331299, -0.16117915511131287, 0.14834949374198914, 0.09089723974466324, 0.054953087121248245, -0.11797528713941574, -0.12688136100769043, -0.08784400671720505, -0.13233083486557007, -0.016048582270741463, 0.08875574916601181, 0.16874465346336365, -0.04097071290016174, -0.23270632326602936, 0.1839156299829483, -0.13579148054122925, -0.12547673285007477, -0.047678545117378235, 0.14501871168613434, 0.13613295555114746, -0.3092610836029053, -0.15566690266132355, -0.06492555141448975, 0.11869775503873825, 0.019352076575160027, -0.29135334491729736, -0.08945514261722565, 0.0058123208582401276, 0.009138115681707859, -0.13285671174526215, 0.01957925222814083, -0.05675731971859932, -0.07862472534179688, 0.027604009956121445, 0.16510653495788574, -0.11834404617547989, -0.09712342917919159, -0.04590370133519173, -0.3529476821422577, -0.3405563533306122, -0.21892091631889343, 0.19135203957557678, -0.01169446762651205, -0.048345185816287994, 0.09518320858478546, 0.15451182425022125, 0.18685798346996307, -0.16470757126808167, 0.1334833800792694, -0.080694280564785, -0.28170347213745117, -0.4620615541934967, -0.3980580270290375, -0.27206262946128845, -0.23078195750713348, -0.25943467020988464, 0.4222373068332672, 0.4357401728630066, 0.32584473490715027, 0.4993445575237274, 0.09278592467308044, -0.22482402622699738, -0.36417752504348755, -0.34214600920677185, -0.3060261309146881, -0.3258756697177887, -0.4249946177005768, -0.2026643604040146, -0.04486860707402229, 0.14518338441848755, 0.36133918166160583, 0.23590248823165894, 0.269039511680603, 0.1246243417263031, -0.059351660311222076, -0.15459024906158447, -0.2648678123950958, -0.17326118052005768, -0.25484350323677063, -0.28894150257110596, -0.14798662066459656, 0.027678675949573517, 0.162755087018013, 0.21162384748458862, 0.06441173702478409, 0.25539302825927734, -0.11127772182226181, -0.025806214660406113, -0.19637444615364075, -0.2992565333843231, -0.3879750072956085, -0.1976213902235031, -0.1614038646221161, -0.12140475958585739, -0.06907711178064346, 0.16157612204551697, 0.24269171059131622, 0.15893438458442688, 0.14663393795490265, -0.043752558529376984, -0.11343851685523987, -0.13996151089668274, -0.04615515097975731, -0.07283119857311249, -0.435930460691452, -0.19096267223358154, -0.35550934076309204, -0.13044621050357819, 0.17310403287410736, 0.06411247700452805, 0.10889881104230881, -0.08646468073129654, -0.2947728633880615, -0.08474521338939667, -0.19154497981071472, -0.2092672735452652, -0.16172082722187042, -0.49666738510131836, -0.38202282786369324, -0.46173226833343506, -0.12151292711496353, 0.08337035775184631, -0.022638477385044098, -0.03911195695400238, -0.08021552115678787, -0.2057615965604782, -0.24932529032230377, -0.21311883628368378, -0.1612073928117752, -0.20370487868785858, -0.5227930545806885, -0.39850446581840515, -0.5820150971412659, -0.11272101104259491, -0.038131583482027054, 0.09355887025594711, 0.007988717406988144, 0.010418187826871872, 0.06912847608327866, -0.12435922771692276, -0.31685274839401245, -0.25641965866088867, -0.251864492893219, -0.350401371717453, -0.3600577116012573, -0.4527561664581299, -0.07224926352500916, 0.0424741767346859, 0.14633676409721375, 0.03525855019688606, -0.06892504543066025, -0.020053284242749214, -0.03707321733236313, -0.29520878195762634, -0.11875113844871521, -0.180122509598732, -0.22319893538951874, -0.3863336145877838, -0.2840908467769623, 0.1951296627521515, 0.3828262388706207, 0.21908040344715118, 0.24370267987251282, 0.28325220942497253, 0.16783446073532104, 0.018101824447512627, -0.26210156083106995, -0.2328052967786789, -0.1982174962759018, -0.7592111825942993, -0.35151830315589905, -0.16867947578430176, 0.29116004705429077, 0.10193696618080139, -0.09278354048728943, -0.14090754091739655, -0.15625907480716705, 0.0474165715277195, 0.22580362856388092, -0.25650304555892944, -0.3230462670326233, -0.4765244126319885, 0.058714546263217926, 0.0715755745768547, 0.15435749292373657, 0.10947903990745544, -0.45843997597694397, 0.06695148348808289, 0.07995736598968506, -0.14531253278255463, -0.12845847010612488, 0.11285501718521118, 0.041851386427879333, 0.09163560718297958, 0.06467774510383606, 0.08690624684095383, 0.0809379443526268, -0.2027270793914795, 0.07728386670351028, 0.050818707793951035, -0.13369601964950562, -0.11641768366098404, -0.07596439123153687, 0.21534191071987152, 0.054289329797029495, 0.052751436829566956, 0.09842607378959656, 0.06725567579269409, 0.04991770163178444, 0.014921565540134907, 0.07619667798280716, -0.08929714560508728, -0.16406093537807465, -0.15255282819271088, 0.04009617492556572, -0.0662088394165039, -0.22660809755325317, -0.015856793150305748, 0.05644797533750534, 0.030203616246581078, 0.029251839965581894, 0.037203580141067505, -0.006417492404580116, -0.1594223976135254, -0.20948147773742676, -0.08715914189815521, -0.08625379204750061, -0.084824338555336, -0.051940567791461945, 0.03555035591125488, -0.3116188049316406, -0.010025855153799057, 0.05759059637784958, 0.06273506581783295, 0.08924724906682968, -0.007462703622877598, -0.19269129633903503, -0.25172165036201477, -0.10051891207695007, -0.08300283551216125, 0.012763508595526218, 0.013279564678668976, -0.0705472081899643, -0.21380946040153503, 0.12426590919494629, 0.04374324157834053, 0.033257149159908295, 0.07024794816970825, -0.10629872977733612, -0.29317137598991394, -0.09797460585832596, -0.11498580127954483, -0.07303287088871002, 0.03141564503312111, 0.16963821649551392, 0.09351968765258789, -0.24405346810817719, -0.06683223694562912, 0.0365799181163311, 0.07018796354532242, 0.05054762586951256, -0.1434108018875122, -0.34292641282081604, 0.01719943806529045, -0.036026161164045334, -0.031092382967472076, 0.19540837407112122, 0.07973291724920273, 0.1958673596382141, -0.09321374446153641, -0.17027640342712402, 0.006450749468058348, 0.07295990735292435, 0.03094356507062912, -0.055496715009212494, -0.34155037999153137, -0.04540574550628662, -0.02593189664185047, -0.08270993828773499, 0.10238424688577652, 0.11873359233140945, 0.23893937468528748, -0.013964032754302025, -0.33047881722450256, -0.0007032239227555692, 0.05829862505197525, 0.01840350031852722, -0.03911234065890312, -0.2575412392616272, 0.006504010409116745, 0.001810209359973669, -0.04644640535116196, 0.020680226385593414, 0.10594155639410019, 0.3130340874195099, -0.01314933318644762, -0.3467884361743927, 0.0441957451403141, 0.013911985792219639, 0.04603797197341919, 0.02302432805299759, -0.19194628298282623, -0.18840192258358002, -0.07130524516105652, -0.1121848002076149, 0.03284284844994545, 0.06342014670372009, 0.2510509490966797, 0.06452234089374542, -0.33584320545196533, 0.04953567311167717, 0.014330757781863213, 0.04251392185688019, -0.07858637720346451, -0.1735982596874237, -0.14527231454849243, -0.11522530764341354, -0.15611271560192108, -0.10873236507177353, -0.07169101387262344, 0.042807288467884064, 0.011510810814797878, -0.3504829704761505, 0.022254297509789467, 0.03650752827525139, 0.027274878695607185, -0.044885650277137756, -0.02215348742902279, 0.00011245435598539189, -0.024826914072036743, -0.1172298714518547, -0.039210882037878036, 0.012303194962441921, 0.04496133327484131, 0.060137391090393066, -0.24203939735889435, 0.03258020803332329, 0.024355385452508926, 0.06351348757743835, 0.09789863973855972, -0.0555807426571846, 0.017367137596011162, 0.12090595811605453, 0.09892992675304413, 0.13313961029052734, 0.12123286724090576, 0.022875452414155006, -0.009458779357373714, -0.20941877365112305, 0.009462011978030205, 0.008436773903667927, 0.03654669597744942, 0.03534357622265816, -0.2937120199203491, -0.3137747049331665, 0.22626623511314392, -0.038355421274900436, 0.14206206798553467, 0.1749042123556137, 0.5303211212158203, 0.10787036269903183, -0.23125356435775757, -0.2870936691761017, -0.13760794699192047, 0.0033270628191530704, -0.0072902534157037735, 0.09437208622694016, -0.2845346927642822, -0.19135898351669312, -0.1714141070842743, 0.010958254337310791, 0.046612005680799484, -0.06668364256620407, -0.30048155784606934, -0.026372121647000313, 0.11818844825029373, -0.14241449534893036, 0.03152408450841904, -0.06466934084892273, -0.06921479105949402, -0.10932286828756332, 0.09237518161535263, 0.04666920378804207, -0.13447654247283936, -0.07518505305051804, -0.176277756690979, -0.05033629387617111, -0.018322497606277466, 0.06172139570116997, -0.07452303171157837, -0.015544661320745945, -0.010336635634303093, 0.10837040841579437, 0.08563076704740524, -0.028853295370936394, 0.09673862904310226, -0.030844220891594887, 0.12514759600162506, -0.2624277174472809, -0.15808190405368805, 0.057998985052108765, 0.047699518501758575, -0.0702868178486824, -0.0268216822296381, -0.024761131033301353, 0.07003816217184067, 0.016721472144126892, 0.028769375756382942, 0.14345242083072662, -0.10468790680170059, 0.12900342047214508, 0.03379861265420914, -0.06980885565280914, -0.006607747171074152, -0.017864996567368507, -0.08184819668531418, -0.035804733633995056, 0.0015564667992293835, 0.06854430586099625, 0.06667804718017578, 0.17245061695575714, -0.02622101828455925, -0.18011930584907532, 0.05250459909439087, -0.08456147462129593, 0.1149238720536232, 0.003478268627077341, -0.015513625927269459, -0.053202223032712936, -0.10934171825647354, 0.1314791887998581, 0.08095042407512665, 0.06098073720932007, 0.006472053471952677, -0.08090028911828995, -0.2592566907405853, -0.05651714652776718, -0.037720877677202225, 0.07379361987113953, -0.02909834310412407, -0.017213910818099976, -0.037613458931446075, -0.12238382548093796, 0.13356420397758484, 0.06283030658960342, 0.08149435371160507, -0.1008654236793518, -0.26853254437446594, -0.332183301448822, -0.017699118703603745, -0.07710351049900055, 0.07133067399263382, -0.04350108280777931, -0.011545374058187008, -0.0035120740067213774, -0.18222075700759888, 0.08841486275196075, 0.04063232243061066, 0.08355627954006195, -0.036498382687568665, -0.25958573818206787, -0.3540826439857483, 0.018361181020736694, -0.0062291887588799, 0.06964170932769775, -0.026991983875632286, -0.003119884990155697, -0.030641797930002213, -0.07559004426002502, 0.04844484478235245, 0.10057563334703445, 0.14716754853725433, -0.05272091552615166, -0.23528754711151123, -0.3589472770690918, -0.02381405420601368, 0.05597198009490967, 0.12394828349351883, -0.004914428107440472, -0.006485354620963335, -0.06373283267021179, 0.056977566331624985, 0.09628524631261826, 0.09169066697359085, 0.18352428078651428, -0.1213257908821106, -0.26490285992622375, -0.25895974040031433, -0.07092425972223282, 0.059021055698394775, 0.15919946134090424, 0.0831160694360733, -0.04765770956873894, -0.10938040167093277, 0.0007379117305390537, 0.20369815826416016, 0.11519224941730499, 0.24225936830043793, 0.046056490391492844, -0.06524942815303802, -0.08876723796129227, 0.029878834262490273, 0.07103408873081207, 0.06053667515516281, 0.12318823486566544, 0.004571895580738783, -0.01235176157206297, 0.026667140424251556, 0.08190334588289261, 0.1301604062318802, 0.12899170815944672, 0.27858802676200867, 0.19154170155525208, 0.10210452973842621, 0.08749402314424515, -0.08197620511054993, 0.008130142465233803, -0.015133579261600971, -0.004320476669818163, -0.01809654012322426, -0.051385730504989624, 0.020241713151335716, -0.20544086396694183, 0.043405260890722275, 0.23463261127471924, 0.08858515322208405, -0.0035403550136834383, -0.02324863150715828, -0.023647965863347054, 0.011461830697953701, 0.08117633312940598, -0.031591594219207764, -0.37107837200164795, -0.09644849598407745, -0.020670125260949135, 0.02588893286883831, 0.0035156842786818743, 0.0029368402902036905, 0.04304330423474312, -0.06577662378549576, -0.10386205464601517, -0.01065125409513712, 0.09146388620138168, -0.013627144508063793, -0.015229775570333004, -0.10432084649801254, -0.22211532294750214, 0.012284466065466404, 0.045550182461738586, 0.0810023695230484, -0.017497804015874863, 0.021860817447304726, -0.0715538039803505, -0.021524250507354736, 0.022884925827383995, -0.0517241507768631, 0.07594117522239685, -0.06283409148454666, -0.08852163702249527, -0.1912980079650879, -0.01570267044007778, 0.05160551890730858, 0.017593376338481903, 0.0161459781229496, 0.04486563801765442, 0.010977854952216148, 0.005304740741848946, 0.03033391386270523, -0.057810645550489426, -0.01600774936378002, -0.061037998646497726, -0.1003754734992981, -0.04765327647328377, 0.02326069213449955, 0.0053974948823452, 0.05137145519256592, 0.03575693815946579, 0.08253592252731323, 0.0070631010457873344, -0.048444025218486786, 0.038739629089832306, 0.022120390087366104, -0.01716640777885914, 0.002279924461618066, -0.07115619629621506, -0.013246536254882812, 0.00771919684484601, -0.0289829783141613, 0.07311683893203735, 0.007073604501783848, 0.07858020067214966, -0.027770450338721275, -0.08696094155311584, 0.0353737436234951, 0.008986829780042171, 0.008026531897485256, -0.02011369913816452, -0.03004680573940277, -0.06653056293725967, 0.05049017816781998, -0.024440113455057144, 0.10023430734872818, 0.027859259396791458, 0.049653559923172, -0.022720854729413986, -0.10777650028467178, 0.002198584144935012, -0.047931820154190063, -0.02704133652150631, 0.031252674758434296, -0.05044058337807655, -0.025147490203380585, 0.03733998164534569, -0.019226349890232086, 0.028771452605724335, 0.0324736163020134, 0.0574260875582695, -0.02469034306704998, -0.07634580880403519, -0.016629759222269058, -0.07679780572652817, -0.02751905657351017, 0.01281406544148922, -0.057415638118982315, 0.04456423223018646, -0.009636989794671535, 0.00480265449732542, -0.04870210215449333, 0.005600940901786089, 0.016557123512029648, -0.025148916989564896, -0.06057316064834595, -0.025984011590480804, -0.060632288455963135, 0.02642574906349182, 0.013379326090216637, -0.10697784274816513, 0.08656761050224304, -0.009120222181081772, -0.0036818853113800287, -0.05190671980381012, -0.007573815528303385, 0.020731111988425255, -0.037661775946617126, -0.052541788667440414, 0.00401028199121356, -0.060599762946367264, -0.0502491295337677, 0.00041251227958127856, -0.07037903368473053, 0.04846792295575142, -0.002065533772110939, -0.032361287623643875, -0.011894351802766323, 0.02495049685239792, 0.0026477074716240168, -0.001645880052819848, -0.003989678807556629, -0.003476533340290189, 0.031730566173791885, -0.032970771193504333, 0.001021035946905613, -0.06964699923992157, 0.04644254595041275, -0.00650803605094552, -0.0036488401237875223, -0.01751711219549179, 0.014416846446692944, -0.01761671155691147, -0.030786506831645966, -0.0016997676575556397, 0.012223929166793823, 0.07042744755744934, 0.024320779368281364, 0.03085230477154255, -0.028739402070641518, 0.00785124022513628, -0.007090757135301828, 0.08567741513252258, 0.029885344207286835, -0.02119535580277443, -0.13602763414382935, -0.1969955414533615, -0.18407271802425385, -0.0915006697177887, 0.08102566003799438, 0.12702150642871857, 0.09458085894584656, -0.0378129817545414, -0.11318675428628922, -0.06046502664685249, 0.015317396260797977, 0.08807630091905594, 0.12406492978334427, 0.01834603026509285, 0.06445536762475967, 0.0357913002371788, 0.12287184596061707, -0.0523390956223011, 0.08498309552669525, -0.1392037719488144, -0.29583731293678284, -0.036254577338695526, 0.10243717581033707, 0.0490495003759861, -0.025794386863708496, 0.04453865811228752, -0.003621967975050211, -0.04524388909339905, -0.02115037851035595, 0.0176876001060009, -0.015459006652235985, -0.013134226202964783, -0.012862690724432468, -0.3286586403846741, -0.05459031090140343, 0.08448680490255356, 0.07737497240304947, 0.07799530029296875, 0.01635344699025154, -0.020594947040081024, -0.035731565207242966, -0.01300656609237194, 0.002506874967366457, 0.03435533121228218, 0.028150541707873344, -0.0280893724411726, -0.18432287871837616, -0.0491105280816555, 0.04148665815591812, 0.051628075540065765, 0.040953125804662704, 0.0595516674220562, 0.04585365206003189, -0.03992445766925812, 0.033424776047468185, 0.026206081733107567, -0.006115653086453676, -0.02368852123618126, -0.03437840938568115, -0.16887634992599487, -0.01203800830990076, -0.0029796555172652006, 0.011814679950475693, 0.014719965867698193, 0.0783836618065834, 0.04511618614196777, -0.055595096200704575, 0.010045748203992844, 0.02004243992269039, -0.04693129286170006, 0.02798989973962307, -0.06960302591323853, -0.10702861845493317, 0.04802835360169411, -0.0002175236149923876, 0.041965194046497345, 0.02126828022301197, 0.05422127619385719, -0.0004009373369626701, -0.08695010095834732, -0.03616325184702873, -0.02839674986898899, -0.024207554757595062, 0.06357063353061676, -0.06265518069267273, -0.09955259412527084, 0.04741087183356285, 0.02482735365629196, 0.04271965101361275, 0.03570009768009186, -0.004001518711447716, 0.04270102083683014, -0.07932764291763306, -0.014540373347699642, -0.05055874213576317, -0.07872231304645538, 0.06113382428884506, -0.01943991892039776, -0.03278355672955513, 0.010444565676152706, -0.011770790442824364, 0.03114834427833557, 0.0301713515073061, 0.008584441617131233, 0.04200839623808861, -0.08345197141170502, -0.05285327881574631, -0.07028795778751373, -0.07604433596134186, 0.0632811188697815, -0.04626256227493286, -0.003048843936994672, -0.052931610494852066, -0.01624111458659172, 0.0048473370261490345, 0.00645999563857913, -0.007885701954364777, 0.009602183476090431, -0.039587076753377914, -0.013758551329374313, -0.05408342555165291, -0.05633703991770744, 0.044623274356126785, -0.015376162715256214, -0.0016888719983398914, -0.04905516654253006, -0.029023518785834312, -0.02586267702281475, 0.005469260271638632, -0.004625529050827026, -0.005334582645446062, -0.01698272116482258, -0.030764900147914886, -0.05853823199868202, -0.028032762929797173, 0.0005272509879432619, -0.0024507706984877586, -0.017240583896636963, -0.03668931499123573, -0.030239149928092957, 0.016825156286358833, -0.004862040746957064, 0.028884902596473694, 0.05453037843108177, 0.01217194739729166, -0.02605997398495674, -0.02027537114918232, 0.032713476568460464, 0.06943666189908981, 0.015430076979100704, -0.024273952469229698, -0.06562276929616928, -0.003606297541409731, 0.009871385060250759, 0.01550239697098732, 0.0220791082829237, 0.02481011301279068, -0.011654848232865334, 0.010928012430667877, -0.008984483778476715, 0.038149915635585785, 0.08216126263141632, 0.015188369899988174, -0.044655732810497284, -0.09884253144264221, 0.04566909745335579, 0.07577451318502426, 0.1354830414056778, 0.0026464220136404037, -0.05258217453956604, -0.0809522196650505, -0.08555493503808975, -0.026392750442028046, 0.09264810383319855, 0.16218352317810059, 0.08562366664409637, 0.005007585510611534, 0.06321484595537186, 0.054602719843387604, -0.2272869497537613, -0.15957531332969666, 0.24583536386489868, 0.20713742077350616, -0.06805838644504547, -0.4117077887058258, 0.21669155359268188, 0.1918882429599762, -0.17766909301280975, 0.01183762215077877, -0.0045054261572659016, 0.05462951213121414, 0.01506330631673336, 0.1927233785390854, -0.037140633910894394, -0.18828336894512177, -0.18091511726379395, -0.22392679750919342, -0.08065985888242722, -0.14203086495399475, -0.09157171100378036, -0.01299759466201067, 0.08933939784765244, -0.027059398591518402, 0.0854501873254776, -0.049112267792224884, -0.061456192284822464, -0.1457332819700241, -0.004061256069689989, -0.05382255092263222, -0.19361110031604767, -0.20298315584659576, -0.167411208152771, 0.027913760393857956, -0.06246195733547211, 0.026371775195002556, 0.024891003966331482, 0.08029058575630188, -0.02191597782075405, -0.07632364332675934, 0.039500147104263306, 0.05300687998533249, 0.06456954032182693, 0.032060179859399796, -0.006565305404365063, -0.029713550582528114, -0.07560880482196808, -0.033355068415403366, -0.012544271536171436, 0.018599994480609894, 0.08113149553537369, -0.05469736084342003, -0.12734293937683105, -0.02145705185830593, -0.04610894247889519, 0.2701222896575928, 0.20602154731750488, 0.03439541533589363, 0.1267244815826416, -0.04409542679786682, -0.05125059932470322, -0.025757066905498505, -0.022217588499188423, 0.015152456238865852, -0.13519158959388733, -0.051401104778051376, 0.1266210377216339, 0.0676659420132637, 0.0960671603679657, 0.09507238119840622, -0.06061740964651108, 0.11519370973110199, -0.0004936556215398014, -0.04727037250995636, -0.0008499806863255799, -0.005995397921651602, 0.010424073785543442, -0.07899822294712067, 0.10179280489683151, 0.09265107661485672, 0.14341065287590027, -0.002653199015185237, 0.015385182574391365, -0.17414186894893646, 0.09854567795991898, 0.008054959587752819, 0.0649571344256401, 0.01529812254011631, 0.0013887544628232718, 0.002683084923774004, 0.0094913300126791, 0.03866564482450485, -0.04702720791101456, 0.033248547464609146, -0.11105696111917496, -0.16197682917118073, -0.22391095757484436, 0.0847775936126709, -0.0756227970123291, 0.08249964565038681, 0.03073485940694809, 0.01833365298807621, -0.004724348429590464, 0.09094388782978058, 0.02850007452070713, -0.059659432619810104, -0.08421092480421066, -0.1510847508907318, -0.17113043367862701, -0.0982823297381401, 0.13673488795757294, -0.01902751810848713, 0.04947160184383392, 0.02163366787135601, -0.008705174550414085, 0.013104131445288658, 0.16824540495872498, 0.09267623722553253, 0.04371839016675949, -0.1392427384853363, -0.16547489166259766, -0.28412091732025146, -0.21537576615810394, 0.1709938943386078, -0.005395140033215284, 0.0793459489941597, 0.04497499763965607, -0.06698757410049438, 0.060412053018808365, 0.09480621665716171, 0.13690374791622162, 0.04005499929189682, -0.21441435813903809, -0.3569987118244171, -0.27382224798202515, -0.2732335925102234, 0.08251763880252838, 0.070429228246212, 0.0858660414814949, -0.016014834865927696, -0.04703648388385773, 0.053583208471536636, 0.12961745262145996, 0.12297826260328293, 0.03747675567865372, -0.07890478521585464, -0.26476573944091797, -0.1982436627149582, -0.18060502409934998, 0.055685002356767654, 0.028375230729579926, 0.1242755576968193, 0.05302795022726059, -0.017294488847255707, 0.0736701563000679, 0.21608534455299377, 0.08453333377838135, 0.035969749093055725, 0.3240588307380676, 0.0761568546295166, -0.0692741721868515, -0.025877930223941803, -0.12925688922405243, 0.07990653067827225, 0.11685746908187866, 0.1404636949300766, -0.015345840714871883, -0.062216028571128845, -0.006692850962281227, 0.13716034591197968, -0.2224983274936676, 0.025364995002746582, 0.2898717522621155, 0.0718051940202713, -0.2305421680212021, -0.10155561566352844, 0.1828054040670395, -0.11390919238328934, 0.2047112137079239, -0.09637382626533508, -0.08733165264129639, -0.48018133640289307, -0.02752898633480072, 0.11061140149831772, -0.05427796393632889, -0.08232250064611435, -0.3701256811618805, -0.28748419880867004, -0.06524237245321274, -0.03209027275443077, 0.002644124673679471, -0.14996789395809174, -0.006476485636085272, -0.3095758557319641, -0.37882086634635925, -0.1283900886774063, -0.06090841442346573, 0.23672884702682495, 0.1957048624753952, -0.10117321461439133, -0.10752242803573608, 0.06380122900009155, -0.06651227176189423, 0.07289572805166245, -0.0801042914390564, -0.3210352063179016, -0.529136061668396, -0.515701413154602, -0.25912684202194214, -0.21039979159832, 0.2749260365962982, 0.23594331741333008, 0.07350672036409378, 0.1047111377120018, 0.10075034201145172, 0.009805829264223576, 0.09918662160634995, -0.050874028354883194, -0.2323693484067917, -0.7450348138809204, -0.2939015030860901, -0.05555422976613045, -0.2212921380996704, -0.1334269642829895, -0.002860513050109148, 0.0004581109678838402, 0.06354726850986481, 0.13395078480243683, 0.00867483764886856, 0.08799608051776886, 0.006777983158826828, -0.2614213824272156, -0.914441704750061, -0.23406244814395905, 0.0237316582351923, 0.020175611600279808, -0.2378639578819275, -0.04162340611219406, -0.10213621705770493, 0.0299987755715847, 0.20518772304058075, 0.017786795273423195, 0.06390685588121414, 0.014440445229411125, 0.04026811197400093, -0.4596276879310608, -0.15639711916446686, -0.13893435895442963, 0.0007128631696105003, -0.2409592866897583, -0.12017728388309479, -0.035109058022499084, 0.059983160346746445, 0.13247168064117432, -0.028486011549830437, 0.03309140354394913, -0.06045960262417793, 0.05340733006596565, -0.08470412343740463, -0.12709558010101318, -0.11580623686313629, -0.11719374358654022, -0.203725203871727, -0.14576633274555206, 0.010065717622637749, -0.06337703764438629, 0.03500742092728615, 0.022092975676059723, 0.03659630939364433, -0.0760611966252327, -0.07205231487751007, -0.0586225651204586, 0.043543893843889236, -0.018727585673332214, -0.030520666390657425, -0.11137645691633224, -0.09044310450553894, 0.009269285015761852, -0.01769128628075123, -0.02773510478436947, 0.019691569730639458, 0.0943978950381279, -0.0147468950599432, -0.06026168167591095, -0.5690075755119324, -0.08225590735673904, -0.0938330665230751, 0.13187257945537567, 0.010848273523151875, -0.019165003672242165, 0.07095910608768463, 0.05392516776919365, 0.018195219337940216, -0.013736202381551266, 0.00782897137105465, 0.142690509557724, 0.03325103595852852, -0.45177096128463745, -0.2713977098464966, -0.34053897857666016, -0.00794945191591978, 0.12362005561590195, 0.060821086168289185, 0.1435718685388565, 0.06558775156736374, 0.11041007190942764, 0.07821698486804962, -0.029346056282520294, -0.038017965853214264, 0.01465262845158577, -0.6063736081123352, -0.36729270219802856, -0.4126439690589905, -0.28515857458114624, 0.10733144730329514, 0.026028797030448914, 0.027128325775265694, 0.14476227760314941, 0.048698436468839645, 0.09805183857679367, 0.011151564307510853, -0.006652476266026497, 0.013239683583378792, -0.18891483545303345, -0.49078893661499023, -0.7879408597946167, -0.28926384449005127, 0.18645323812961578, -0.06664813309907913, -0.0017683153273537755, 0.14980724453926086, 0.15091213583946228, 0.09770162403583527, 0.07966779917478561, 0.05371326580643654, 0.07499538362026215, -0.10115768760442734, 0.13205261528491974, 0.06647680699825287, 0.30477413535118103, -0.04120371863245964, -0.01448318362236023, -0.0960535779595375, -0.12653370201587677, -0.022829823195934296, 0.05107941851019859, 0.05530894920229912, -0.0790160745382309, -0.046752188354730606, -0.25742772221565247, -0.058292120695114136, 0.03092832863330841, 0.22441408038139343, -0.006885622162371874, -0.013763746246695518, -0.11538524925708771, -0.1035035029053688, 0.011979712173342705, -0.03129623457789421, 0.04525376483798027, -0.10738130658864975, -0.2195410579442978, -0.2993822991847992, -0.08547203242778778, 0.1331600695848465, 0.03616762161254883, 0.09207815676927567, 0.045353516936302185, -0.05488812178373337, -0.056803442537784576, 0.025715788826346397, 0.046821754425764084, 0.05795665085315704, -0.1075773686170578, -0.37327638268470764, -0.29196617007255554, -0.2704859972000122, 0.032640937715768814, 0.007005974184721708, 0.0031475210562348366, 0.10187578201293945, -0.03132344409823418, -0.0030068978667259216, 0.02867746353149414, -0.04010945186018944, 0.04485730454325676, -0.15973570942878723, -0.4615268409252167, -0.1894722878932953, -0.10557926446199417, 0.0005018307128921151, 0.054412953555583954, -0.05738631635904312, 0.07516085356473923, -0.03808126598596573, -0.07445540279150009, -0.07969403266906738, -0.09858908504247665, 0.017809290438890457, -0.1615884006023407, -0.16709983348846436, 0.16997018456459045, -0.04033797234296799, -0.00970774982124567, 0.032189104706048965, -0.04336192086338997, 0.07352267950773239, -0.014771295711398125, -0.05594366043806076, -0.1145714670419693, -0.1231616884469986, 0.04705165699124336, -0.07778982073068619, -0.005340632516890764, 0.2013189196586609, 0.03778621554374695, 0.051944173872470856, 0.009102186188101768, -0.05064982920885086, -0.025354748591780663, 0.03118647262454033, -0.08635203540325165, -0.08733103424310684, 0.0008134100353345275, 0.07905666530132294, -0.015292441472411156, -0.03886627033352852, 0.17907096445560455, 0.040688224136829376, -0.024468161165714264, -0.10841228812932968, -0.0072177741676568985, -0.023103462532162666, 0.05783100426197052, -0.05889371037483215, -0.06106414273381233, 0.015714693814516068, 0.014053785242140293, -0.0865163505077362, 0.004601181484758854, 0.10567403584718704, 0.09091763943433762, -0.0008544893935322762, -0.06806618720293045, 0.0016531813889741898, -0.023335786536335945, 0.05621689558029175, -0.06363914906978607, -0.04883204400539398, 0.008469102904200554, 0.019315358251333237, 0.07846220582723618, 0.05400600656867027, -0.015616805292665958, 0.19989436864852905, 0.058928463608026505, -0.10665642470121384, -0.0362996831536293, 0.0069018639624118805, 0.04358881711959839, -0.09719278663396835, -0.05755694583058357, 0.03487132489681244, -0.015895690768957138, 0.004813469015061855, 0.00570101011544466, -0.0369986854493618, 0.05844484269618988, -0.054616332054138184, -0.1882191151380539, 0.03835666924715042, -0.01639171876013279, 0.016072973608970642, -0.06459223479032516, -0.03025732934474945, -0.017273571342229843, -0.14623862504959106, -0.18430519104003906, -0.03811696544289589, -0.08843705803155899, -0.005140489432960749, -0.16361266374588013, -0.1362467259168625, 0.0708397924900055, 0.025868088006973267, 0.06645277887582779, -0.03176332637667656, -0.007702046539634466, -0.07255467772483826, -0.12258561700582504, -0.10375813394784927, 0.03780210763216019, -0.06476342678070068, -0.0032667801715433598, -0.16805031895637512, -0.028876308351755142, 0.11368895322084427, 0.08726415038108826, 0.15569233894348145, 0.028871437534689903, 0.10424202680587769, 0.02262587659060955, 0.060489628463983536, -0.037433646619319916, 0.05747591331601143, -0.23556718230247498, -0.10652612149715424, 0.10611987113952637, -0.03538626804947853, -0.08862869441509247, -0.10072202980518341, 0.009919439442455769, -0.2727082669734955, -0.10385977476835251, 0.02221916802227497, -0.2671356797218323, -0.16208752989768982, -0.05293602868914604, -0.03936101123690605, -0.1985703706741333, 0.26018738746643066, -0.10802274942398071, -0.13177230954170227, -0.03938375040888786, -0.20600469410419464, 0.05197704955935478, -0.007461908273398876, -0.007496540434658527, -0.018443578854203224, -0.13294002413749695, -0.11243292689323425, -0.1751118004322052, -0.18968655169010162, 0.08510845899581909, 0.020714161917567253, -0.07497666031122208, -0.0498797707259655, -0.24321340024471283, -0.24159155786037445, 0.3434179425239563, 0.05822490528225899, 0.047000281512737274, -0.05777702108025551, -0.26505404710769653, -0.10950379073619843, 0.07476650178432465, -0.007869679480791092, -0.1616118997335434, -0.13332273066043854, -0.17059747874736786, -0.25913169980049133, -0.329761803150177, -0.22412072122097015, -0.018991317600011826, 0.19804294407367706, -0.022418538108468056, -0.33383893966674805, 0.016485584899783134, -0.07536105066537857, 0.20867076516151428, 0.28958290815353394, 0.17435100674629211, -0.1460762470960617, -0.17978589236736298, -0.041461460292339325, -0.028751308098435402, -0.06948017328977585, -0.032000843435525894, 0.03144683688879013, -0.16397309303283691, 0.18257319927215576, -0.33583855628967285, 0.037043727934360504, 0.6036427021026611, 0.08702906966209412, -0.11012153327465057, -0.11533209681510925, 0.008006419986486435, 0.4325963258743286, 0.1183648630976677, -0.10478619486093521, -0.027694448828697205, -0.03074469603598118, -0.20320092141628265, -0.3659892976284027, 0.034214988350868225, 0.4353027641773224, 0.019849974662065506, -0.10781259834766388, -0.21621155738830566, 0.045352958142757416, 0.2475549280643463, 0.07644178718328476, -0.12391769886016846, -0.2877207100391388, 0.12110532820224762, -0.0678572803735733, -0.1963217556476593, 0.40164560079574585, 0.16535070538520813, -0.03759711608290672, -0.04151351749897003, 0.01807231828570366, 0.013724896125495434, -0.009862803854048252, 0.16899217665195465, -0.06428229808807373, -0.08879726380109787, 0.0016298473346978426, 0.143499493598938, 0.3024486303329468, 0.2752719223499298, -0.050252486020326614, -0.14266952872276306, -0.1392722874879837, -0.0486149899661541, -0.15628328919410706, -0.1655675768852234, 0.08406226336956024, 0.2073574811220169, 0.23007002472877502, -0.019898034632205963, 0.15549133718013763, 0.2940640449523926, 0.12865956127643585, -0.07536919414997101, -0.2221987247467041, -0.1566203534603119, -0.17961017787456512, -0.08217483758926392, -0.1480400264263153, -0.046949997544288635, 