{"conv_weight": [65, 99, 40, -13, -6, 57, -28, 83, 42, 33, 70, 64, -23, 61, 56, 49, 53, 72, 5, -111, -128, 116, 32, 34, 28, 117, -1, 101, 53, -52, 118, 49, -67, 57, 81, -43, 92, 127, 123, 6, 27, 31, -56, -83, -58, 2, 49, 49, -64, 30, 47, -40, 117, 48, -78, 84, 104, -9, 54, 121, -40, 14, 52, 20, 105, 102, 88, 78, -4, 61, -5, -10], "conv_weight_scale": 0.0070931087248027325, "conv_weight_zp": 33, "fc_weight": [31, 7, 19, 7, 8, 10, 7, 13, 21, 17, 2, 20, 19, 22, 23, 12, 14, 11, 12, 12, 8, 9, 15, 27, 28, 17, 22, 20, 8, 5, 11, 15, 10, 14, 14, 19, 20, 15, 11, 29, 16, 17, 17, 11, 15, 12, 15, 19, 17, 17, 9, 22, 24, 26, 16, 22, 17, 14, 15, 12, 21, 12, 12, 14, 10, 17, 21, 12, 16, 19, 9, 9, 19, 25, 3, 18, 15, -2, 14, 17, 17, 13, 19, 17, 8, 16, 14, -2, 9, 11, 7, 10, 12, 6, 14, 15, 10, 16, 9, 11, -9, 7, 0, 2, 14, 9, 2, 13, 17, 7, 11, 11, 8, 0, 11, 4, -4, 10, 8, 9, 18, 13, 13, 8, 8, 8, 5, 3, -2, -4, 13, 10, 17, 14, 17, 12, 13, 12, 15, 7, 7, -2, 7, 8, 11, 16, 21, 11, 10, 10, 12, 15, 13, 0, 4, 17, 16, 10, 14, 29, 15, 17, 9, 4, 8, 16, 8, 2, 20, 18, 4, 15, 11, 14, 7, 11, 15, 19, 27, 18, 27, 15, 16, 21, 18, 16, 16, 9, 6, 6, 14, 13, 27, 26, 4, 23, 18, 13, 11, 15, 12, 7, 7, 14, 17, 18, 20, 9, 28, 20, 17, 22, 17, 20, 14, 20, 18, 18, 19, 19, 8, 30, 31, 21, 22, 21, 15, 13, 13, 23, 14, 20, 12, 0, 12, 18, 14, 22, 20, 10, 8, 16, 21, 7, 15, 13, -7, 9, 13, 10, 11, 16, 17, 12, 17, 12, 0, 2, 1, -4, 3, 16, 4, 16, 18, 15, 12, 10, 8, -6, 3, 3, -9, 4, 15, 1, 19, 19, 13, 16, 16, 14, 0, 5, -5, -9, 5, 11, 3, 22, 14, 16, 12, 11, 9, 9, -4, -9, -2, 10, 10, 12, 23, 17, 20, 19, 13, 17, 16, 1, -6, 4, 11, 6, 12, 21, 18, 21, 19, 17, 13, 19, 5, -5, 18, 4, 11, 14, 30, 23, 23, 24, 16, 18, 21, 6, 3, 6, 18, 34, 37, 12, 24, 20, 27, -15, -11, -35, 25, 9, 13, -1, 20, 28, 25, 63, 15, 19, -24, -17, -16, 5, 10, 11, 34, -5, -15, 12, 46, 40, 1, 32, -16, 36, -25, -8, 14, -2, 9, 16, 35, 16, 22, 14, 33, 6, 20, 34, -13, -6, -13, 12, 4, 8, 28, 7, 5, 14, -49, -56, 4, 8, 5, -14, 5, 27, -22, 39, -15, -2, -21, -65, -50, -3, 32, 10, -11, -33, 13, -13, -14, -14, -2, -19, -60, -37, -21, -12, -1, -22, -18, -24, -36, -31, -4, -1, 4, -5, 5, 12, -10, -14, -17, 8, 28, -3, 0, 4, -19, 7, 18, 19, -10, -3, 4, 12, -29, -29, -1, -19, 0, -11, 15, 22, 17, 24, 18, 29, -6, 0, -32, -27, 21, -14, 18, 46, -12, -2, 8, 10, 13, 17, 24, 8, -16, 20, -3, 4, 14, -25, -9, 5, 16, 6, 27, 17, -40, -47, -39, 1, 12, 17, -31, -34, 15, 23, -34, 54, 61, 31, 45, 36, -14, -48, 6, 22, 5, 30, 8, 24, -7, 23, 37, 11, 21, -1, -11, 5, -13, -11, 13, 35, 28, 7, 18, 44, 38, 1, -5, -12, -6, -16, 26, -4, 25, 15, 12, 14, 25, 51, -21, -18, -20, -11, -3, 39, 15, 15, 17, -35, 15, -1, 21, 1, 2, -24, -12, 2, 15, 10, 33, 11, -71, -19, 10, -12, 16, 7, -19, 1, 13, 15, 3, 30, 6, -45, -16, 25, -6, 30, 23, -11, 12, 26, 11, 8, 13, 5, -40, -12, 23, 21, 20, 13, -10, 16, 41, 13, 3, 7, -4, -42, -21, 19, -6, 11, 15, -13, 6, 35, 20, 6, 7, 5, -48, -32, 20, -17, -1, 11, -5, 0, 5, 25, 15, -3, 15, -24, -2, 4, -9, -10, -5, -3, -5, -4, 13, 19, -5, 7, -10, 18, -28, -10, -21, 5, -10, -14, -6, 10, 14, 11, 1, 10, 1, -72, -17, -29, -4, -4, 5, 1, 16, 18, 18, -11, 35, 39, 21, 35, 24, 33, 30, 30, 12, 9, -20, 23, 23, 29, 16, -6, -14, -3, 54, 33, 24, -29, -39, 0, -4, 29, 19, 3, -24, -33, -1, 44, 45, 33, 17, -20, 0, -7, 3, 11, -22, -1, 20, -17, 42, 36, 44, 29, 19, 17, 25, 39, 39, 23, 29, 36, 3, 31, 38, 37, 5, -14, 27, 30, 35, 4, 40, 18, 25, -4, 20, 34, 38, -8, -6, 35, 37, 7, 24, 36, 6, 0, -13, 23, 14, 20, -11, -27, 22, 36, 23, 23, 18, -16, -21, -24, 4, 15, 24, -7, -33, 1, 10, 10, 9, 15, -4, -16, -23, 10, 19, -3, -13, -37, 31, 16, 4, -10, 1, -1, -23, -5, 5, 8, 7, -2, -27, 10, 14, -5, 7, 15, 2, -12, 8, 8, -15, -1, 8, -16, 5, 25, 3, 3, 9, 4, 14, 11, 17, 8, 10, 27, 24, 17, 13, 16, 18, 4, 5, -10, -5, 12, -3, -4, 2, -7, 3, 10, 38, 29, 16, 34, 27, 18, 12, 0, 11, 46, 42, 15, 35, 21, 26, 22, 16, -11, 2, 3, 18, -2, 33, 4, 3, 2, 23, 29, 22, -3, 5, 4, 13, 25, 16, 24, 20, 38, -1, 20, 27, 16, 9, 21, -5, -4, 4, 9, 11, 11, 44, 2, 23, 26, 24, 11, 17, -12, -7, -18, -14, 1, 16, 17, 14, 26, 21, 13, 20, 20, 14, 19, -11, 6, 46, -5, 40, 24, 24, 22, 14, 30, 15, 25, 20, 2, 11, 36, 12, 33, 41, 30, 18, 16, 25, 14, 30, 5, -15, -12, 14, 11, 43, 43, 24, 21, 18, 22, 23, 12, -3, -9, 4, 1, 14, 43, 41, 27, 22, 20, 21, 26, -9, 4, -19, -11, 11, -5, 26, 31, 19, 30, 15, 33, 21, -26, 14, -21, -7, 20, -15, 8, 28, 29, 20, 15, 31, 3, -35, -17, -13, -20, 9, -6, -17, 31, 29, 16, 29, 27, 25, -31, -11, 0, -18, 4, -15, -28, 29, 35, 27, -27, 5, 25, 36, 8, -6, 14, 12, 41, 15, 51, 24, 18, 17, 16, 14, 10, 40, -8, 2, 5, 13, 33, 47, 8, 10, 27, 9, -1, 1, 25, 2, 2, 22, 13, 20, 24, -7, 24, 14, 16, 19, -7, 0, -12, 17, 15, 26, 20, -2, 2, 24, 20, 15, 33, 1, -3, 16, 14, 11, 24, 23, 17, 2, 7, 23, 3, 28, 9, -4, -8, 5, 29, 14, 20, 9, -41, -1, -1, 1, 18, 28, 5, -4, 13, 17, 11, 20, 7, -35, 4, 7, -2, 17, 29, 10, 0, 1, 10, 6, 20, -1, -16, -6, 13, 4, 18, 17, 2, -8, 3, 14, -10, 32, -5, -17, -1, 6, 7, 20, 16, 3, -5, 2, 5, -4, 8, 6, -44, 4, 5, 15, 23, -2, 9, -8, -8, 2, -25, -18, -15, -13, -1, 4, 24, 16, -3, -3, -4, -22, -10, -20, -22, -8, 14, -12, 12, 18, 15, 4, 18, 23, 3, 12, 10, -26, -4, 16, 19, -7, -21, 7, 6, -3, 7, 10, 27, 27, 18, 8, 32, 10, 0, 30, 6, 15, 7, 18, 18, 13, 23, 27, 25, 28, 27, 14, 12, 8, 5, 6, 16, 7, 9, 11, 14, 27, 6, 22, 19, 15, 14, 15, 19, 10, 15, 14, 25, 20, 16, 21, 30, 21, 26, 19, 25, 15, 12, 16, 24, 27, 9, 16, 1, 15, 29, 26, 5, 22, 13, 11, 8, 23, 24, 17, 15, -12, 22, 16, 10, -4, 21, 16, 9, 12, 11, 9, -6, 5, -18, 15, 3, 9, -7, 22, 13, 12, 11, 6, -5, -8, 4, -4, 0, 5, 17, -3, 20, 15, 7, 8, 5, -4, -13, 7, -3, -8, 1, 7, 9, 20, 10, 10, 10, 7, -3, -9, 1, 3, 9, 5, 5, 13, 17, 9, 12, 9, 7, 8, 1, -2, -6, 22, -3, 3, 15, 15, 9, 13, 4, 17, 12, 8, 6, 2, 22, -7, 6, 26, 24, 14, 19, 19, 22, 12, 15, 10, 9, 15, 10, 19, 22, 38, 26, 25, 37, 38, 43, 42, 11, 7, 12, 8, 9, 15, 18, 22, 13, 10, 20, 10, 16, 14, 8, 12, 8, 9, 24, 21, 22, 27, 21, 21, 18, 7, 7, 6, 7, 11, 10, 19, 17, 21, 28, 20, 22, 8, 10, 11, 2, 9, 9, 7, 13, 18, 19, 30, 14, 19, 2, 5, 7, 1, 12, 10, 6, 8, 19, 14, 13, 15, 18, 0, 2, 2, -1, 11, 15, 19, 13, 13, 8, 9, 11, 9, 3, 5, 15, 9, 6, 12, 11, 15, 21, 13, 5, 11, 10, -7, 15, 6, 9, 7, 13, 8, 7, 16, 15, -4, 21, 13, -7, 1, 10, 9, 5, 14, 9, 6, 15, 13, -15, 14, 13, 2, 11, 16, 10, 10, 13, 12, 7, 16, 9, -17, 16, 12, 6, 5, 13, 14, 16, 8, 13, 12, 10, 11, -18, 14, 7, 9, 11, 8, 15, 20, 9, 14, 14, 22, 15, -11, 38, 3, 7, 6, 10, 12, 17, 18, 17, 19, 32, 27, 27, 35, 42, 42, 31, 8, -39, 18, 11, 7, 21, 26, 21, 26, 26, 25, 17, 16, 4, -36, 10, 7, 13, 22, 26, 29, 30, 28, 20, 18, 6, 2, -31, 6, 14, 6, 23, 28, 30, 32, 27, 30, 13, 8, 2, -25, 8, 14, 7, 12, 22, 19, 29, 16, 24, 8, 5, 1, -7, 17, 12, 10, 11, 12, 23, 22, 15, 24, 5, 5, 1, -1, 21, 13, 14, 7, 12, 20, 7, 18, 17, 0, 1, 10, 4, 16, 10, 11, 4, 12, 24, 4, 18, 18, -3, 9, 9, 7, 15, 12, 12, 2, 13, 18, -6, 15, 17, -1, 16, 4, 12, 17, 15, 10, 10, 15, 14, -19, 12, 15, 4, 9, 6, 9, 14, 8, 11, 7, 12, 17, -26, 13, 17, 3, 5, 7, 18, 16, 2, 14, 12, 20, 14, -22, 12, 20, 8, 5, 7, 22, 23, 5, 19, 21, 16, 18, -19, 18, 14, 1, 5, 15, 22, 19, -4, -61, -90, -63, -16, -83, -121, -36, -115, -58, -26, -45, 11, -4, 0, 28, 0, 15, 28, 3, 13, -4, -2, -10, -12, 7, 5, 16, 75, 46, 10, 35, 28, 35, -34, -26, -18, -20, 10, 23, 16, -11, -15, 41, -16, -15, 15, 3, -52, -12, -8, 11, 9, 3, 5, 8, 12, -33, 8, -37, 14, -33, -14, -38, 4, 22, 29, 22, 12, 34, -5, -13, -30, -27, 31, -23, -21, 4, 43, 28, 38, 24, -1, -11, 0, -24, -23, 2, 2, 2, 9, 17, 27, 8, 5, 15, -18, -30, -55, -44, -24, 14, -42, 16, 18, 14, 26, 20, 47, 17, -21, -25, -35, -25, -9, -34, 21, 35, 36, -1, 23, 72, 30, -20, 7, -7, -44, -7, 2, 16, 18, 22, 18, 50, 22, 47, -36, 21, -18, -30, 14, -13, 10, 12, -1, -1, 59, 23, 47, -20, 35, -20, -41, 28, -5, 13, 24, -20, 11, 28, 40, 62, -10, 7, 35, -11, 1, -1, -18, 11, 27, 33, -2, 42, 5, -31, 37, 33, 54, 33, -41, -11, -8, -15, 6, -1, 10, 6, 7, 31, 21, 25, 17, -10, -33, 22, 10, 9, 19, -31, 18, 27, 34, 20, 26, 18, -3, -56, 2, 33, 4, -7, -29, 14, 37, 37, 27, 11, 21, -3, -56, -15, 31, -12, -7, -22, 14, 28, 24, 32, 9, 15, -1, -5, 8, 10, -22, -7, -2, 15, 11, 25, 18, 13, -5, 5, 3, 13, 1, -23, -7, 5, 26, 40, 20, 5, 16, 4, 8, -4, 5, -2, -23, 2, 34, 32, 56, 25, 6, 13, 11, 12, 4, 4, -16, -5, 4, 58, 36, 44, 18, 8, 6, 21, 11, -20, 7, -15, 1, 35, 55, 42, 34, 18, 7, 8, 16, 6, -12, 17, -17, 13, 45, 62, 52, 30, 15, 9, 10, 17, 6, -7, 16, -33, 11, 58, 70, 72, 38, 11, 19, -10, 4, 3, -40, 4, -27, 14, 56, 95, 80, 48, 17, 12, -18, 5, 16, 4, 3, 20, -11, 8, -9, -43, -40, -10, -20, -17, -2, 9, 0, 12, -15, -21, 21, -30, -73, -53, 12, -6, -45, -1, 10, -8, -13, -27, -14, -19, -20, -29, -23, -16, -27, -41, -25, -1, -9, 2, -19, -15, -35, -22, -11, -3, -55, -26, -39, -28, -5, -20, -2, -17, -11, -11, -14, 11, -24, -49, -60, -41, -22, -15, -16, 3, -5, -21, -21, -58, -17, -49, -61, -58, -52, -34, -11, 5, 19, 6, -27, -6, -41, -15, -7, -36, -7, 1, -28, -11, -15, 34, 12, -9, -7, -8, 12, 1, -76, -41, -42, -14, -10, -6, 9, -4, -28, -21, -3, 31, 22, -39, -83, -56, -18, -13, -3, 10, -16, -40, -19, -35, -11, 15, -14, -50, -19, -16, -15, -4, 19, -2, -34, -43, -44, -27, 12, 14, -15, -16, -1, -22, 3, 8, 10, -13, -26, -39, -46, -35, 6, 27, -7, -17, 9, 13, 11, 3, -32, -57, -46, 62, 13, -57, -28, -27, -4, 6, 4, 10, 7, -4, 36, -22, 7, -2, -24, -10, 9, 7, 4, 14, 11, 10, 4, 26, 7, 16, -9, -10, -13, 4, 10, 9, 10, 5, 14, 11, 27, 8, -14, -36, -18, 1, 0, 12, 6, 4, 8, 14, 12, 14, -31, -10, -46, -8, -10, 9, 15, 9, 11, 11, 10, 11, 0, -37, 6, -37, -16, -22, 12, 10, 8, 15, 0, 9, 3, -4, -21, -7, -3, -7, -15, 0, 9, 5, 7, 2, 14, 2, 2, -10, 10, 20, -3, 4, 6, 22, 3, 9, 9, 7, 3, -7, 6, 22, 29, -4, 2, 12, 17, 6, 7, 6, 4, -3, 1, 13, 23, 42, 28, 5, -2, 13, 6, 2, 10, 14, -7, 3, 14, 25, 62, 28, 10, -3, 19, 2, -7, 9, 15, -2, 8, 14, 41, 74, 24, 6, -5, 13, 4, 8, 6, 19, -2, 6, 23, 54, 81, 19, 16, -9, 12, 9, 15, 4, 15, 12, 21, 39, 62, 101, 6, 27, -9, 2, 5, 23, 24, 47, 34, 44, -14, 9, 13, 15, 56, 58, -39, -22, 20, 6, 0, 20, 32, 1, -4, 9, 27, 28, 8, 5, -24, 6, 9, 9, 27, 28, 22, 26, -7, 4, 23, 19, 14, -28, 10, 10, 12, 26, 33, 9, 35, 4, 0, 14, 11, 10, -50, 9, 15, -4, 25, 26, 3, 32, -4, 0, -27, 21, 4, -62, 16, 12, 3, 7, 10, 0, 22, 3, 8, -24, -2, 18, -40, 26, 12, 10, 1, 12, 11, 26, 16, 0, -14, -8, 5, -36, 10, 14, 13, 4, 17, 23, 44, 21, 0, -10, 17, 22, -20, 7, -2, 10, -5, 12, 25, 31, 48, 24, -13, 8, 12, 2, 4, 2, 8, -3, 12, 24, 11, 42, 36, -3, -14, 25, 2, 7, 15, 16, 4, 11, 24, 1, 56, 40, 2, -27, 18, 15, 16, 8, 18, 9, 18, 32, 21, 53, 32, 10, -20, 1, 20, 28, 4, 15, 6, 10, 29, 43, 73, 7, 2, -18, 4, 14, -28, 3, 37, 9, 46, 27, 29, 33, 51, 50, 50, 18, -41, -17, 10, 4, -2, 26, 17, 22, 19, 29, 24, 20, 14, -6, 15, 1, 13, 9, 22, 31, 32, 25, 27, 15, 18, 7, -17, 12, 8, 17, 8, 21, 22, 37, 39, 22, 24, 5, 12, -3, 2, 13, 9, 5, 26, 20, 36, 27, 28, 16, 10, 2, -12, 4, 27, 4, 2, 6, 10, 27, 19, 33, 17, 11, 2, -2, 21, 26, 10, 4, 2, 16, 12, 20, 21, 5, 13, 5, 4, 14, 22, 11, 6, -2, 16, 7, 16, 20, 2, 1, 17, 3, 17, 15, 11, 1, -5, 22, -12, 16, 16, 6, 10, 21, 2, 24, 13, 11, 3, 2, 11, -29, 4, 20, 10, 11, 17, 12, 24, 25, 12, 1, 0, 8, -31, -2, 13, 17, 8, 13, 18, 18, 19, 8, 5, 8, 10, -25, 3, 10, 15, 1, 9, 23, 25, 20, 12, 10, 6, 20, -15, -3, 7, 0, -5, 11, 24, 14, 16, 22, 3, 28, 19, 10, 20, 50, 21, -8, 3, 10, 17, 24, 15, 5, 6, 6, 13, 16, 11, -7, 29, 14, 3, 15, 26, 19, 8, 6, -2, 6, 7, 11, 22, 15, 19, 2, 11, 18, 24, 15, 11, 9, 11, 18, 15, 7, 9, 13, -5, 15, 12, 16, 18, 24, 16, 6, 17, 17, 9, 16, 7, -2, 19, 10, 20, 17, 22, 18, 10, 12, 12, 17, 21, 1, -4, 15, 14, 20, 22, 11, 14, 4, 10, 8, 10, 15, 4, -3, 6, 15, 15, 19, 11, 19, 3, 12, 10, 7, 17, 3, 3, 1, 12, 15, 11, 12, 13, 8, 7, 4, 7, 15, 4, 9, 4, 17, 9, 17, 14, 10, 11, 5, 6, 7, 17, 2, 11, 11, 20, 9, 11, 12, 9, 9, 13, 8, 15, 17, 5, 11, 11, 16, 16, 22, 18, 14, 11, 12, 4, 9, 22, 17, 3, 0, 21, 27, 23, 7, -2, 2, 7, 8, 20, 32, 12, 12, -10, 16, 22, 17, 30, 18, 12, 14, 30, 20, 8, -7, -35, 3, 36, 14, 13, 16, 10, 10, 5, 14, 2, 19, 20, -36, 7, 23, 29, 21, 17, 5, 3, 9, 5, 13, 16, 25, -20, 4, 24, 25, 22, 17, 17, 11, 18, 8, 15, 13, 17, -19, 9, 13, 25, 22, 24, 16, 14, 18, 14, 11, 12, 7, -5, 16, 8, 24, 19, 19, 16, 7, 13, 13, 14, 19, 8, -13, 21, 16, 27, 23, 17, 16, 11, 16, 5, 15, 21, 4, -9, 8, 13, 23, 21, 14, 12, 9, 10, 6, 6, 18, 6, 0, 6, 17, 20, 18, 13, 18, 11, 13, 5, 8, 21, 11, 2, 6, 17, 18, 10, 12, 14, 15, 16, 12, 10, 20, 11, 2, 7, 14, 15, 15, 16, 13, 22, 14, 16, 10, 16, 10, 5, 8, 17, 14, 13, 18, 18, 17, 13, 10, 14, 21, 14, 9, 4, 19, 14, 23, 9, 0, -4, 1, 6, 24, 25, 17, 3, 25, 10, 0, -20, -34, 11, 37, -12, -19, 3, 25, 4, -8, 2, -27, -77, -16, 18, 7, -6, -37, 35, 12, 9, 30, -9, -3, -5, -14, 22, -8, -10, 29, 10, -25, 24, 43, 4, -27, 14, -19, -10, -20, -35, -39, -1, 8, -8, -42, -5, -7, -21, 9, 0, 21, -38, -44, -20, -5, 21, -2, -32, 9, 13, -13, -4, -2, -23, -45, -18, -51, -8, 2, -52, -76, 15, 4, 13, -18, 5, 20, -4, -28, 15, 5, 31, 10, -1, 0, -6, 10, -12, 8, 58, 7, -9, -31, 28, 35, -14, -15, -50, -17, 19, -4, 34, 11, -21, 18, 36, 6, 28, 34, -20, -46, -4, -9, -10, 13, 21, -35, -19, -2, 13, 18, 36, -8, -55, 4, -25, -3, -15, 16, -5, -3, -21, 38, 26, 19, -9, -69, -2, -8, 27, 26, 9, -7, 3, -26, -3, 31, 7, 16, -55, -4, 9, 27, 12, 32, -20, 12, -17, -26, -6, -35, 28, -43, -51, -51, 47, -33, 8, -16, 40, -27, -24, -57, 39, 48, 27, 14, -71, 3, 1, 51, -20, -10, -29, -46, -32, 8, -3, 2, 48, -10, -18, -12, 43, 43, 23, 8, -41, -24, -30, -2, 9, 17, 10, -41, 1, 25, 45, 37, 43, -15, 1, 12, -22, 6, 9, 7, -14, 11, 30, 21, 19, 52, -11, 6, 27, -6, 7, 6, 7, -26, 16, 23, 26, 33, 21, -36, -11, 11, 16, 12, 10, 12, -17, 31, 31, 24, 28, 3, -40, -33, 8, 9, 19, 11, 12, -30, 24, 24, 18, 22, -2, -55, -23, 8, -3, 27, 9, 5, -26, 28, 11, 12, 1, -7, -45, -13, 18, 3, 26, 16, -3, -20, 48, 21, 26, -2, -25, -65, -23, 20, 13, 23, 14, -4, -42, 36, 36, 36, -11, -45, -48, -20, 17, 26, 23, 20, -4, -4, 37, 33, 43, 3, -69, -63, -26, 16, 30, 34, 23, 5, 12, 49, 33, 23, 63, -49, -78, -59, -31, 33, 50, 37, 2, 23, 17, -61, -13, 24, 29, 34, 39, 32, 22, -54, 28, 32, 15, -29, -25, -39, -16, 19, 51, 31, -15, -7, 25, -24, 24, -5, -27, -56, -30, 26, 52, 54, 24, 38, -3, -34, -25, 7, -20, -16, -21, -29, 2, 46, 56, 60, 19, -24, -56, -40, -15, -27, -11, -35, -18, 14, 30, 24, 51, 46, -17, -53, -63, -22, -14, -29, -29, -30, 24, 32, 39, 20, 25, 29, -20, -35, -20, -17, -1, -3, -24, -2, 10, 27, 25, 8, 9, -11, -29, -30, -12, -2, 6, -9, 19, -3, 5, 13, 7, -10, -1, -33, -20, -11, 8, -11, -23, 6, 4, 2, -8, 16, 2, 2, -29, -13, -9, -13, -23, -1, 15, 20, 25, 11, -2, -31, -2, -7, 12, 10, -9, -32, -7, 2, 15, 29, 17, 11, -7, -25, -4, 11, 14, 15, -5, -4, 21, 28, 39, 26, 18, -16, -18, -13, -2, 10, 2, -15, 9, 7, 38, 51, 39, 10, -17, -30, -13, 12, 27, 26, 31, 14, -1, -18, 2, -13, 1, -15, -15, 22, 27, 23, 33, 1, 15, 40, -14, -19, -12, -7, -41, 33, -9, 28, 17, 24, 17, 16, -30, 43, 31, 17, 25, -5, 1, 12, 28, 18, 23, 10, 3, 5, 60, 40, 41, 50, -19, -18, 23, 25, 21, 16, 9, 20, 16, 17, 8, 24, 54, 4, 18, 9, 27, 21, 10, -1, 17, 7, 34, -5, 29, 35, 22, 24, -3, 30, 19, 11, 3, 17, 3, 32, -30, 19, 1, 15, 31, -7, 15, 18, 5, 4, 9, -8, 24, -35, -10, 9, 27, 30, 4, 18, 11, 4, 12, -4, 6, 3, -20, -4, 11, 43, 16, 6, 20, 5, 13, 24, 26, 15, 1, -18, -16, 26, 64, 30, 8, 14, 16, 12, 17, 32, 32, 11, -21, -14, -3, 65, 41, 15, 15, 18, 20, 29, 37, 56, 22, -9, 5, 7, 44, 24, 27, 11, 6, 10, 57, 50, 16, 8, 0, 1, 15, 45, 36, 21, 19, -9, -42, 6, 64, 66, -24, 15, 37, 44, 0, -45, -76, 0, -17, 38, 13, -32, -12, 3, -23, -9, 6, -50, 51, -15, -46, 13, 33, 25, 10, -8, -16, 2, 3, 20, -5, 6, 0, -90, 5, 20, 24, 9, -20, 6, 4, 12, 4, 1, 21, 1, -54, 6, 12, 13, 2, 31, 21, -13, 35, 20, -11, 11, -2, -43, 25, 9, 16, 14, 30, 13, -21, 13, 22, 24, 29, -2, -25, 24, 9, 22, 13, 17, 9, -37, 14, -11, 15, 43, -6, -33, 18, 12, 22, 14, 12, 14, -43, 6, -20, 4, 27, 2, -13, 0, 13, 12, 5, 14, 15, -31, -8, -12, 22, 28, 28, -14, 2, 14, 16, 14, 14, 4, -25, -18, -9, 9, 28, 24, -38, 1, 22, 16, 14, 23, 14, -4, -12, 9, 22, 28, 28, -15, 14, 18, 33, 15, 21, 3, -1, -4, -6, 16, 26, 28, -15, 2, 28, 29, 38, 9, -3, 3, 12, 27, 19, 23, 42, 14, 5, -31, -32, 54, 39, 4, 12, 20, 59, 27, -1, -4, -57, -28, 23, 29, 1, 11, 22, 8, 4, 2, -11, 16, 9, -11, -28, 20, 14, 25, 10, 6, 3, -5, 13, 8, 16, 23, -1, -33, 24, 18, 25, 17, 22, 9, 11, 11, 11, 15, 7, -6, -23, 17, 14, 21, 23, 24, 15, 11, 20, 7, 4, 3, -1, -26, 12, 13, 29, 22, 18, 14, 10, 14, 11, 8, 3, -1, -7, 15, 22, 21, 16, 12, 3, 4, 15, 6, 13, 6, -3, 0, 10, 21, 15, 16, 18, 4, 13, 4, 4, 12, 15, -3, 10, 0, 21, 8, 13, 17, 11, 9, 8, 1, 11, 13, -7, 4, -1, 15, 8, 12, 12, 6, 9, 4, 5, 8, 13, -2, -3, 5, 12, 9, 12, 11, 14, 13, 11, 2, 2, 9, -2, 0, 6, 22, 16, 16, 19, 18, 14, 9, 6, 11, 11, 0, 12, 3, 23, 23, 33, 16, 13, 7, -3, 3, 7, 26, -1, 12, 29, 20, 19, 27, 24, 18, 11, 14, 13, 18, 19, 9, 6, 14, 25, 6, 13, 6, 11, 10, 11, 14, -5, 2, 9, 10, 11, 15, 18, 24, 18, 11, 19, 22, 7, 16, -1, 7, 3, 10, 11, 9, 19, 19, 7, 16, 14, 14, 17, -12, 12, 11, 6, 12, -3, 13, 13, 7, 10, 1, 21, 22, -8, 1, 23, 7, 14, 7, 15, 13, 16, 15, 3, 19, 13, -8, 2, 11, 4, 8, 14, 7, 17, 16, 11, 15, 9, 11, 5, 13, 12, 1, 11, 13, 13, 15, 15, 11, 12, 9, 13, 11, 11, 14, 13, 8, 21, 17, 16, 16, 19, 11, 6, 8, 11, 10, 12, 11, 13, 25, 11, 13, 25, 13, 11, 11, 14, 17, 7, 5, 18, 10, 20, 17, 15, 20, 12, 16, 4, 11, 16, 18, 10, 14, 8, 9, 14, 14, 24, 15, 24, 8, 22, 20, 15, 7, 8, 3, 12, 22, 24, 23, 17, 23, 11, -5, 15, 23, 0, 37, 21, 39, 16, 18, 13, 6, 14, 17, 8, 9, -10, -6, 13, 23, 20, 18, 15, 10, 13, 11, 9, 3, -14, -10, -20, 3, 14, 15, 23, 13, 12, 14, 22, 11, 13, -16, -27, -20, 8, 13, 11, 19, 18, 9, 13, 11, 6, 9, -19, -26, 3, 10, 16, -1, 12, 19, 10, 11, -6, 7, 13, -17, -4, 27, 3, 16, 2, 12, 17, 12, 10, 4, 2, 5, -5, 5, 25, 9, 5, 4, 11, 12, 19, 14, 9, 7, 12, -1, 14, 16, 2, 5, 15, 16, 12, 16, 13, 10, 7, 5, 3, 18, 17, 10, 12, 16, 13, 11, 21, 7, 9, 13, 12, 5, 12, 7, 17, 12, 15, 16, 10, 21, 10, 14, 4, 8, 6, 0, 7, 14, 8, 13, 14, 17, 20, 15, 17, 1, 7, 1, 15, 3, 13, -2, 10, 20, 15, 25, 20, 23, 12, 14, 2, 26, 3, 5, 5, 22, 30, 22, 33, 28, 23, 24, 22, 4, 29, 7, 1, -13, -13, -38, -10, 28, -34, -48, 25, -16, -2, 13, -4, 4, -8, -67, -48, 42, 40, 30, 15, -7, 3, -12, -17, -7, -15, -14, -54, -42, -40, 10, -29, 3, 15, 10, 3, -23, 0, -3, 8, -26, -34, -28, 12, -9, 6, -1, 9, 43, -12, -18, -26, -7, -36, -102, -30, 2, 1, 66, 40, 29, 29, -9, -28, -22, -15, -27, -73, -21, 22, 54, 72, 85, 13, -14, 25, -34, -63, -23, -54, -67, -7, -20, 21, 50, 59, 24, 3, -5, -50, -10, -11, -23, -8, -4, -2, -2, 17, 42, 23, 0, -30, -30, -7, 36, -2, -16, -14, -11, 19, -23, 15, 44, 44, 14, -40, -9, 21, -18, -35, -48, -19, 5, -10, 8, 29, 25, 16, -18, -34, -24, -17, -30, -2, -17, 32, -5, 37, 38, 45, 34, -15, -16, -8, -57, -21, 1, 8, 30, 12, 48, 51, 47, 29, -3, -35, -63, -78, 19, 7, -8, 39, 58, 38, 36, 50, -3, 18, -19, 56, -40, 13, 18, -2, -10, -11, 30, 4, 12, 20, 18, -48, 4, 17, 8, 18, -33, -19, 25, 6, 15, -18, 0, -24, -23, -2, -35, 59, 54, -16, 3, 45, -2, 22, -4, -16, -40, -61, 10, -39, 75, 47, 6, 23, 43, -3, 27, 13, -29, -74, -29, 43, 3, 15, 15, -3, 29, 44, -8, 17, 16, -19, -93, -7, 27, 22, -9, -3, -1, 21, 34, -8, 15, 6, 1, -68, 1, 17, 9, -7, -4, 7, 15, 26, 7, 18, 5, 1, -11, -1, 5, -10, -25, -17, 25, 3, 6, 7, 17, -6, -7, -45, 16, 15, 9, 3, -11, 17, 15, -1, 14, 15, 10, 3, -66, 12, -15, 30, 24, 19, 32, 12, 15, 14, 6, 20, 15, -48, -34, -15, 15, 28, 21, 31, 14, 21, 22, 3, 11, 11, -77, -39, -42, -27, 46, 7, 15, 23, 19, 23, 0, 18, 19, -23, -54, -91, -38, 52, 11, 7, 17, 29, 17, 12, 24, 15, 15, 19, -6, -20, 18, 16, 20, -2, -18, -20, 15, 23, 14, 10, 19, 27, 18, 13, -31, -11, -28, -23, 50, 2, 19, 12, 10, 31, 45, 67, 40, -16, -16, -28, -13, 49, 55, 38, 19, 2, 4, 26, 29, 54, -9, -16, -14, 15, 35, 31, 31, 13, -24, -20, 19, -1, 35, 4, 0, -8, 18, 85, 41, -12, -5, -22, -38, 8, 19, 41, 11, 12, 8, 21, 62, -4, -42, -16, -4, -24, 28, 39, 6, 12, 0, -18, 37, 47, 32, -7, -2, 22, 3, 36, 32, -11, -9, 4, -11, 11, 27, 30, 6, 11, 33, -2, 12, 13, -15, -15, -10, -1, -33, -20, 21, 17, 29, 23, 44, 50, 34, -36, -42, -8, -20, -28, 33, 55, 41, 12, 27, 46, 55, 32, -25, -51, -29, -24, -33, 3, 39, 44, 22, 6, 14, 0, -18, -29, -48, -34, -21, -25, -17, 25, 27, 4, 13, 29, 34, -15, -28, 9, 1, 1, -21, -6, 51, 49, 33, 14, 21, -1, 21, -18, -9, 2, -19, 12, -39, 12, 11, 11, 15, 14, 24, 17, -7, -7, -23, -21, -9, 36, -4, 23, 12, 15, 7, 25, 3, 10, 12, -18, 7, 46, 40, -9, 24, 16, 14, 5, 24, 7, 38, 41, -17, -10, 35, 58, -11, 23, 19, 16, 11, 15, 13, 43, 29, -35, -7, 25, 46, 5, 11, 12, 21, 4, 6, 10, 47, 13, -8, -9, 18, 43, -7, 5, 14, 24, 5, 8, 19, 31, 23, 9, -4, 11, 19, -22, 12, 13, 13, -3, 15, 19, 36, 13, 17, 6, 19, 0, -13, 22, 16, 10, 16, 20, 20, 21, 21, 21, 4, 24, 2, -14, 21, 14, 15, 20, 14, 18, 42, 21, 41, 19, 33, -9, 0, 16, 11, 12, 17, 15, 26, 33, 15, 22, 4, 38, -12, 0, 13, 14, 17, 15, 10, 20, 25, 15, 11, -3, 36, -10, -17, 16, 11, 19, 11, 10, 14, 20, 17, -22, -35, 19, -13, -71, 7, 8, 12, 65, 10, 39, 22, 12, 1, 25, 15, -35, 26, -35, 18, -8, 11, 33, 13, 0, -9, 4, -4, 19, 3, -45, -62, -13, -23, 7, 25, 17, 12, 1, -31, 24, 35, 8, -23, -37, -10, -42, -3, 11, 2, 37, 38, -21, 11, 62, 35, -33, -53, -58, -13, 1, 23, -14, 25, 28, -25, -8, 24, 52, 3, -55, -72, 16, -2, 21, -1, 27, 21, -14, -11, -3, 29, 0, -19, -49, 20, -4, 24, 11, 13, 14, -14, -8, 23, 21, -7, 0, -54, 12, -17, 13, 16, 16, 21, 0, 3, 6, 3, -19, 10, -5, 16, -2, 16, 24, 20, 17, 8, -1, 9, 1, -6, 40, -25, 9, 23, 19, 21, 19, 14, 12, 19, 11, 17, -6, 24, -19, 8, 10, 11, 24, 20, 7, 19, 18, 14, 13, -18, 0, 3, -5, 3, -10, 11, 21, 4, 15, -1, 39, 17, -27, -12, -22, 5, 8, 7, -1, 25, 14, 25, 9, 32, 41, -7, 23, 16, 3, 31, 28, 47, 27, 16, 14, 13, 15, 8, 23, 6, 14, -7, 10, 6, 29, 1, 18, 5, 10, 12, 7, 13, -11, -19, -14, 4, 18, 21, 19, 25, 8, 12, 20, 12, 11, 0, -11, -28, -14, 22, 18, 23, 30, 13, 11, 17, 4, 11, -8, -56, -32, -3, 12, 24, -3, 24, 9, 5, -1, -10, 14, -12, -17, 15, 2, 10, 22, 6, 27, 20, 13, -8, -14, 12, -15, -8, 41, 6, 5, 20, 9, 15, 24, 13, 0, 0, 11, 0, 3, 35, 9, 3, 13, 16, 13, 28, 5, 5, 12, 9, -9, 10, 29, 5, 7, 12, 12, 16, 22, 11, 9, 14, 11, 2, 18, 7, 35, 20, 8, 8, 11, 18, 8, 7, 17, 8, 13, 0, 14, 22, 18, 3, 11, 13, 20, 6, 6, 15, -4, 5, 10, 0, 15, 8, 3, 23, 20, 23, 9, 14, 10, -4, 7, 20, 8, 13, -1, 14, 30, 26, 32, 21, 23, 13, 14, 16, 39, 8, 7, -10, 7, 15, 19, 39, 33, 24, -9, 1, 3, 7, 7, 4, 3, 25, 19, 15, 31, 17, 10, 5, 4, -1, 5, 8, 10, 11, 20, 27, 23, 25, 21, 13, 15, 10, 10, -1, 8, 16, 17, 9, 16, 17, 19, 6, 14, 14, 13, 15, -1, 9, 21, 21, 13, 10, 13, 15, 4, 13, 15, 15, 18, -16, 11, 24, 18, 15, 7, 3, 13, 8, 6, 14, 5, 6, -15, 13, 17, 22, 18, 13, 6, 10, -1, 7, 22, 12, 16, -12, 10, 15, 16, 13, 13, 8, 12, 6, 13, 22, 16, 11, -5, 5, 12, 16, 16, 12, 5, 16, 5, 17, 22, 15, 6, 0, 12, 9, 12, 12, 9, 14, 13, 8, 14, 15, 12, 4, 2, 5, 8, 7, 19, 14, 5, 7, 10, 15, 10, 18, 12, 0, 8, 11, 12, 7, 5, 4, 5, 9, 8, -1, 6, 12, 7, 16, 16, 12, 8, 8, 12, 14, 27, 15, 19, 9, 30, 9, -38, -16, -22, -3, 16, 27, 31, 32, 22, -5, -17, -25, -15, -21, -1, 4, 22, 27, 24, 29, 29, 17, 15, -6, -19, -39, 3, 12, 19, 20, 28, 33, 27, 21, 13, 19, 7, 7, -33, 12, 21, 17, 10, 15, 18, 17, 16, 8, 13, 11, 15, -26, 16, 20, 24, 15, 13, 9, 13, 9, 13, 20, 13, 14, -25, 9, 26, 24, 19, 10, 9, 13, 5, 14, 24, 18, 13, -11, 16, 22, 24, 23, 8, 8, 16, 8, 14, 24, 20, 18, -3, 11, 18, 20, 15, 6, 11, 16, 7, 18, 23, 16, 13, 2, 9, 13, 18, 16, 6, 15, 13, 9, 18, 20, 22, 5, 7, 8, 16, 18, 17, 7, 14, 14, 7, 13, 14, 17, 10, 6, 3, 20, 13, 13, 11, 8, 13, 8, 17, 13, 16, 16, 8, 9, 22, 8, 9, 7, 8, 11, 15, 13, 9, 13, 21, 5, 28, 23, 10, 5, -1, -1, 0, 5, 4, 17, 3, 29, 15, 7, -8, -13, 18, 16, -88, -105, -3, 50, 50, -3, -45, -23, -9, -21, 11, 19, 9, -27, -29, 22, -2, 9, 8, 19, -26, -30, -71, 8, 5, 29, -7, -40, -25, 4, 16, 30, 24, 5, -32, -56, -16, 33, 77, 23, 0, 23, 24, -2, 20, 15, -26, -27, -23, -26, 66, 57, -3, 12, -13, -20, 37, 11, -5, -12, -24, -3, -19, 42, 22, -35, -40, -53, 5, -1, 36, 9, -5, -28, -4, -30, -10, -12, -23, -29, -36, -6, -33, 30, 6, 8, -25, -19, -32, 53, -13, -21, -63, -19, -7, -20, 16, 9, -2, -14, -23, -38, 50, -8, -62, -90, -14, 18, -28, -17, -12, 2, -29, 22, -52, 25, 24, -30, -50, -29, -23, 9, -22, 0, 5, -19, -21, -49, 45, 22, 49, -59, 6, -19, -13, -54, 17, -13, -3, -7, 2, 51, 11, 8, -37, -11, -19, 30, -30, -1, -32, 0, 10, -14, 53, -31, -18, -45, -24, -27, 64, 48, -11, -5, -17, -22, -58, -42, -17, -44, 10, 46, 39, 17, -26, -41, -88, -23, -70, -20, 12, 42, 51, 99, 101, 46, 38, 2, -6, -46, -58, -74, 21, -21, -33, 25, 88, 69, 39, 30, 19, 11, -11, -74, -82, 58, -31, -41, -4, 53, 47, -20, 7, 10, 21, 11, -100, -33, 36, 12, 29, -3, 47, 34, -24, 21, 9, 23, 20, -100, 4, 16, 26, 47, 13, 60, 25, -9, 18, 16, 16, 21, -100, 12, 6, 34, 27, 24, 54, 14, 1, 18, 20, 19, 25, -102, 1, 16, 38, 42, 15, 62, 23, 4, 21, 29, 21, 19, -59, -9, 22, 20, 41, 3, 70, 20, 10, 19, 24, 17, 7, -18, 19, 16, 2, 12, 0, 59, 34, 5, 1, 8, 19, 7, 2, 13, 12, 10, -2, 9, 19, 25, 6, 15, -2, 25, 11, 0, 14, -7, 19, -34, 19, 18, 5, 5, 27, -4, 16, 12, 2, 30, 0, 20, -50, 2, 12, -8, -11, 23, 0, 10, 35, -6, 0, 10, -61, -9, 26, 1, -9, -2, -21, 25, 0, -4, 2, 0, 74, 34, 28, 15, 31, -24, 37, 32, 45, 3, 3, -14, -16, 12, 43, 42, 1, -1, -26, 26, 39, 27, -7, -7, -12, -25, -41, 13, 39, 5, -33, -28, 45, 63, 23, -17, 0, -17, -49, -49, -27, -10, -13, -47, -50, 1, 32, -7, -37, -26, -26, -54, -53, -17, -4, -21, -52, -35, -3, 12, -24, -70, -18, -22, -24, -20, 1, 16, -50, -73, -62, 6, 17, -13, -29, -19, -31, -13, -9, 30, 29, -43, -56, -48, 30, 38, 4, -32, -38, -44, -15, -12, 51, 26, -41, -62, -54, 8, 32, -16, -68, -46, -24, -21, 5, 53, 33, 13, -14, -10, 24, 27, -21, -48, -43, -55, -32, 36, 43, 32, 20, 11, 18, 22, 42, 11, -22, -65, -35, -24, 32, 31, 26, 24, 17, 16, 20, 34, 17, 23, -13, -26, -12, -5, 20, 17, 22, 17, 23, 10, 32, 24, -15, -43, 0, -5, -11, 4, 33, -3, 17, -14, -19, 2, 17, -3, 2, -1, 3, 8, 29, 39, 8, 48, 36, 2, 29, 15, 6, 0, 4, 13, 8, 17, 17, -47, -14, -22, -38, -14, -6, 3, 5, -1, 18, 10, 10, -20, -59, -16, -19, -33, -28, 9, -6, -1, 7, 15, 18, 7, 2, -1, 17, -14, -29, 4, 15, 0, -3, 1, 20, 6, 2, -8, 6, 26, -3, -20, -4, -8, -11, 4, 6, 16, 6, 5, 6, -26, 25, -27, -23, 14, 5, 11, 0, 6, 7, 15, 2, 9, -7, 18, 16, -17, 23, 12, 5, -7, 4, 3, 20, -5, -6, -17, 22, 7, -53, 3, 8, -3, -8, 5, 4, 17, -27, -6, -9, 20, -1, -37, -3, -1, 15, -4, 3, 4, 4, -13, 19, -11, 4, 1, -12, 1, 18, 11, -7, 5, 6, -13, 3, 13, -19, -2, -4, -5, -4, 3, -8, 1, 11, 17, -24, 26, 23, 40, 39, 59, 35, 28, 5, -2, 0, -41, -4, -47, -10, 21, 46, 39, -58, -55, -24, -59, -10, 28, -26, -5, -23, 29, 35, 53, 65, 26, 17, 27, -38, -95, 3, 5, 7, 7, 31, 48, 45, 51, 27, -12, 7, 27, -24, -47, 26, 21, 20, 15, 24, 12, 29, -5, -9, -12, 39, 12, -64, 28, 20, 17, 9, -6, -3, 29, -18, 0, -2, 29, -2, -67, 25, 25, 16, 10, -13, 1, 26, 8, 15, 18, 17, -4, -120, 27, 34, 20, 11, 0, -14, 29, -9, 10, 28, 6, 19, -104, 17, 26, 20, 16, -5, -14, 32, -3, 23, 31, 21, 10, -59, 13, 13, 20, 13, -3, -11, 27, 10, 23, 17, 9, -2, -62, 6, 25, 14, 4, -1, 5, 36, 7, 18, 14, 2, 3, -28, 2, 19, 13, 12, 16, -9, 14, 7, 9, 17, 9, 12, -21, 11, 14, -6, 27, 24, -3, 21, 24, 21, 31, 7, 3, -7, 23, 25, -11, 7, 5, -11, 0, 16, 3, 44, 7, -1, -13, -13, -16, -13, -33, 32, 30, 29, 29, 20, -8, -28, -31, -76, -19, 0, 4, 9, 20, 25, 34, 45, 31, 12, -6, -16, -25, -77, 20, 17, 22, 26, 27, 39, 45, 33, 21, 2, -4, -18, -39, 25, 18, 10, 21, 24, 21, 30, 18, 15, 2, 12, 5, -36, 13, 13, 11, 19, 11, 11, 18, 8, 12, 10, 11, -4, -33, 15, 18, 25, 13, 2, 5, 9, 6, 10, 8, 11, 7, -26, 24, 14, 24, 18, 10, 7, 13, 3, 12, 21, 13, 12, -7, 16, 18, 29, 22, 7, 9, 5, 6, 17, 22, 19, 1, -9, 7, 19, 25, 9, 5, 8, 7, 6, 22, 10, 11, 1, -5, 6, 24, 18, 11, 6, 12, 9, 2, 17, 15, 10, -6, -22, 7, 24, 16, 10, 6, 8, 8, 10, 21, 13, 14, 1, -6, 14, 8, -3, 8, 8, 3, 8, 11, 19, 19, 11, 18, -12, 26, 22, 17, 12, 11, 9, 13, 6, 8, 11, 18, 20, 14, 10, 4, -5, -4, -7, -13, -10, 9, 21, 27, 14, 10, 10, 7, -1, -1, 3, 7, -6, 3, 14, 31, 32, 30, 18, 9, -7, -13, -7, -2, 10, 10, 0, 3, 16, 15, 28, 16, 5, -12, -19, -19, -8, 15, 13, -7, -13, -2, 10, 12, 24, -7, -12, -14, -14, -10, 10, 11, 5, -4, 9, 11, 8, 2, 4, -5, 13, -5, -6, -7, 2, 8, 4, 19, 27, 6, -7, 0, 33, 15, 16, 17, 10, 12, 10, 21, 8, 5, 5, -10, 2, 32, 40, 21, 12, 13, 5, 12, 22, 19, 19, 11, 14, 6, 27, 21, 26, 15, 9, 16, 6, 11, 17, 17, 21, 23, 7, 10, 13, 9, 5, -3, 1, 6, 12, 18, 9, 14, 16, 10, 23, 16, 18, 8, 7, 3, -11, -16, 7, 18, 16, 21, 12, 13, 11, 14, 13, 13, 16, -7, -10, 9, 22, 26, 22, 20, 14, 7, 9, 15, 7, 5, -6, -5, 1, 15, 24, 29, -17, -29, -19, -23, -11, -11, -10, -7, 13, 23, 30, 30, 17, -10, -25, -22, -17, -5, -5, -7, -8, 6, 21, 32, 35, 16, -7, -29, -39, -27, -13, -8, 6, -2, -9, 12, 14, 23, 9, -25, -38, -39, -29, -17, 10, 21, 1, -13, 0, 0, 10, 11, -42, -23, -25, -20, -23, 1, 9, 2, 0, 16, 16, 15, 2, -17, -1, 8, -4, -5, -3, 3, 5, 8, 9, 15, 10, -4, -2, 28, 29, 13, 11, 7, 6, 8, 17, 10, 13, 8, -7, -2, 28, 40, 26, 8, 5, 4, 9, 22, 22, 24, 15, 11, -4, 25, 29, 22, 13, 5, 8, 10, 21, 20, 29, 28, 32, 5, 20, 23, 20, 9, 7, 1, 8, 9, 5, 24, 30, 32, 0, 15, 25, 24, 15, 10, 7, -2, -4, 3, 12, 22, 18, 4, 17, 16, 22, 11, 6, 15, 0, -19, -2, 18, 27, 25, 27, 23, 11, 26, 19, 20, 19, -20, -25, -13, 2, 29, 32, -13, 0, -35, 6, -34, 7, -1, -17, -62, 0, 10, 4, -19, -18, -7, -36, -44, 8, -13, 3, -14, -29, -1, -12, 1, 17, -22, -46, -9, -66, -25, -20, 1, -2, -6, -14, 13, 12, 21, -34, -29, -19, -21, -39, -7, -5, 42, -13, -19, -8, -20, -1, -51, -9, -5, 25, 1, -8, 17, 38, 5, 11, 43, 17, 8, 12, -20, 35, -6, 69, 67, 34, 52, 22, -8, -4, -26, -1, 32, 40, 74, 50, 75, 70, 51, 12, 37, -2, 9, 4, 14, 14, 14, 21, 62, 35, 30, 40, 8, 9, 8, 9, 58, 56, 27, -38, -5, 37, 76, 50, 32, 42, 33, 17, 14, 51, -13, 56, -9, -23, 14, 33, 6, 3, -20, -26, 10, -17, -8, -38, 63, -21, -23, 38, 55, 38, -20, -40, -33, -47, -16, 6, 10, 73, 26, -1, 7, 70, 50, -4, -40, -6, -4, 16, 13, 15, 61, 31, 16, -20, 20, 15, -15, -46, -49, -39, -14, 22, 21, -42, -39, -62, -18, -91, -33, -50, -61, -68, 17, 43, 34, 25, -28, 12, -56, -39, -41, -65, -61, -46, -46, 21, 34, 39, 25, -43, -4, -30, -122, -27, -40, -32, -8, 7, -19, 37, 42, 30, -74, -55, -32, -76, -78, -42, -11, 23, -32, -17, 31, 24, 10, -94, -54, -42, -50, -29, -11, -6, 12, -65, -19, 36, 2, -3, -43, -20, -43, 1, 29, 16, 24, 10, -7, 16, 27, -6, 5, -13, -7, 55, 13, 21, 25, 23, 22, 30, 56, 20, 29, 16, -7, -3, 84, 55, 43, 18, 9, 28, 21, 30, 42, 51, 19, 7, 0, 52, 67, 33, 47, 5, 32, 4, 12, 10, 28, 41, -34, -26, 22, 38, 35, 37, 35, 48, 41, 4, -8, 2, 62, -57, -63, -45, 15, 57, 32, 46, 48, 29, -24, 3, 13, 55, -42, -71, -68, -13, 39, 18, 33, 48, 13, -20, -9, 11, 49, -20, -23, -64, -65, 3, 17, 45, 55, -10, -23, -22, 15, 38, -2, -10, -10, -22, -20, -41, -73, -57, -9, 25, 15, -10, -14, -4, -17, -10, -8, -2, -3, -11, 14, 29, 47, 40, 23, 16, -15, -27, -17, 3, 7, 14, 9, 33, 47, 54, 53, 67, 17, -12, -18, -31, -18, 10, 10, -3, 28, 51, 70, 97, 104, 76, -21, -26, -23, -15, 30, 76, 58, 34, 58, 97, 107, 95, 79, -42, -50, -55, 63, 46, 34, 73, 67, 59, 59, 69, 51, 65, -42, -33, -23, 20, 23, 28, 31, 33, 24, -3, 10, 80, 101, 23, 0, -15, 3, 23, 24, 36, 29, 17, 2, 18, 24, 15, 18, 10, 22, 28, 15, 16, 25, 15, 17, 26, 23, 19, 20, 27, 15, 15, 11, 10, 10, 9, 10, 27, 30, 14, 14, 16, 24, 36, 19, 22, 20, 19, -7, -20, -13, 3, 8, 10, 4, 10, 18, 18, 8, 13, 5, -13, -23, -14, 4, 22, 23, 14, 22, 24, 16, 3, 2, 3, 18, -9, -27, -5, 20, 22, 14, 6, 6, 1, -4, 1, 2, 6, 0, 26, 18, 29, 9, -1, 10, 3, -7, 3, 14, 11, 1, 8, 6, 22, 27, 17, 11, 4, -6, -13, 2, 8, 15, 20, 14, 9, 32, 9, 28, 9, -3, -10, -12, 10, 9, 23, 19, -24, -19, 20, 6, 26, 27, -3, 1, 8, 19, 9, 3, 3, -10, 7, 8, 38, 30, -2, 12, 4, 38, 10, 12, 21, 21, 27, 24, 25, 22, -9, -38, -10, 29, 42, 17, 17, 3, 26, 33, 28, 31, 35, 40, 27, -5, 45, 45, 3, 11, 7, 16, 25, 33, -1, 10, 32, 21, 1, 47, 29, -4, 16, 9, 28, 22, 26, 5, -1, -22, -12, -4, 30, 6, -6, -5, -6, 15, 21, 11, 23, -3, -1, 4, 12, 28, 19, -4, -1, 2, 6, -4, 10, 30, 16, 8, 12, 17, 24, 0, -2, 0, 4, 13, -4, 24, 30, 13, 16, 19, 20, 3, -7, 2, 0, 4, 7, 9, 19, 21, 14, 25, 25, -46, -35, -49, -60, -23, -19, -34, -24, 16, 40, 66, 33, -7, -15, -84, -44, -27, -17, 1, -18, 1, 26, 25, 47, 23, 3, -37, -89, -79, -17, 3, 4, 7, 6, 8, 28, 29, 58, 4, -30, -97, -100, -50, -19, 29, 40, 9, -5, 1, 3, 34, 40, -54, -60, -60, -48, 2, 55, 44, -3, -15, -9, 4, 3, 8, -33, -19, -6, 16, 12, 18, 37, 29, 15, 4, 29, 4, -57, -20, 53, 12, -7, 2, 15, 27, 34, 32, 11, 18, -12, -65, -1, 76, 54, 14, 3, 14, 13, 17, 31, 21, 18, 8, -22, 0, 50, 28, 17, 15, -5, 23, 6, 25, 8, 28, 18, 10, -3, 49, 19, 6, 6, -8, -6, 6, 16, 18, 2, 11, 8, 0, 33, 35, 10, 9, 22, 13, 2, 4, 31, 16, 36, 5, -5, 17, 13, 17, 3, 10, -6, -22, 2, 30, 25, 49, 30, 34, 16, -1, 13, -3, 4, -7, -39, -16, 6, 14, 41, 26, -9, -43, -28, -63, -61, -39, -41, -25, -1, 32, 43, 39, 25, -25, -17, -53, -53, -20, -20, -5, -3, 19, 32, 49, 39, 16, -18, -51, -77, -53, -13, -10, -8, 6, 17, 27, 39, 43, 22, -21, -47, -102, -74, -53, -21, 13, 20, -8, 1, 26, 17, 4, -56, -59, -47, -50, -40, -8, 2, -14, -8, 10, 24, 13, 9, -51, -36, 1, 0, -31, -17, -12, -7, 13, 25, 30, 22, 19, 3, -12, 45, 20, 10, -8, -10, 6, 12, 18, 4, 14, 6, -3, 14, 46, 39, 17, 5, 2, 6, 26, 29, 23, 19, 6, -8, 14, 48, 30, 19, 8, 9, 13, 20, 24, 21, 28, 33, -8, 11, 30, 20, 9, 11, 20, 20, 15, 17, 12, 13, 36, -1, 12, 25, 33, 23, 18, 26, 16, 0, -17, 11, 18, 23, 0, 11, 19, 23, 21, 23, 18, 11, -23, -5, 13, 24, 31, 38, 39, 20, 15, 21, 21, 27, 1, -45, -15, 0, 20, 30, 9, 21, 12, 31, 0, 7, -1, -6, -45, 8, 26, -5, 3, 14, 6, 26, 29, 22, 21, 14, 19, 21, 36, 12, 7, 10, 18, 17, 17, 22, 7, 11, 21, 16, 12, 5, 12, 6, 9, 11, 17, 13, 25, 12, 10, 12, 13, 14, 18, 12, 13, 10, 16, 18, 18, 22, 6, 13, 12, 8, 10, 21, 15, 6, 26, 20, 23, 20, 16, 8, 11, 20, 11, 15, 16, 10, 18, 22, 7, 14, 6, 11, 12, 8, 19, 8, 11, 14, 5, 12, 24, 12, 15, 11, 10, 15, 7, 15, 12, 8, 12, 6, 10, 10, 7, 12, 15, 12, 13, 15, 12, 9, 9, 11, 12, 15, 19, 12, 14, 19, 8, 13, 15, 20, 13, 15, 10, 10, 22, 10, 6, 9, 19, 5, 15, 15, 18, 15, 18, 19, 9, 23, 13, 6, 10, 22, 12, 11, 16, 21, 14, 23, 25, 22, 11, 9, 11, 3, 8, 1, 23, 19, 17, 9, 16, 2, 16, 15, 5, 26, 30, 34, 27, 0, 16, 11, 11, -7, 5, 22, -7, -18, 22, 12, 29, 28, 8, 21, 20, 18, 13, 30, 21, 0, -2, 18, 15, 15, 23, 13, 8, 17, 10, 12, 16, 20, -4, 0, 16, 20, 15, 23, 13, 14, 15, 11, 12, 15, 21, 6, 10, 18, 22, 20, 21, 10, 10, 16, 13, 13, 23, 17, 4, 14, 13, 19, 16, 16, 7, 12, 13, 8, 12, 15, 6, 1, 16, 3, 20, 11, 11, 6, 7, 11, 6, 7, 16, 3, 4, 6, 3, 19, 10, 5, 10, 3, 13, 7, 10, 16, 1, 7, 3, 8, 16, 14, 9, 11, 5, 14, 10, 9, 18, 0, 10, 5, 9, 11, 22, 4, 10, 10, 18, 14, 7, 18, 5, 22, 8, 8, 11, 20, 8, 11, 7, 13, 9, 14, 16, 11, 15, 9, -1, 4, 22, 7, 0, 11, 14, 12, 12, 13, 20, 11, 3, 7, 6, 20, -1, 6, 17, 26, 24, 19, 2, 19, 6, 23, -29, -13, 22, 33, 24, 41, 32, 51, 8, -13, -3, 29, -13, -15, -10, 43, 31, -17, 1, -5, -11, -83, 3, 0, -2, 20, -52, -3, 31, -18, -9, 16, 5, 6, -19, -49, -38, -8, 10, -30, 6, 11, 8, -11, 22, 0, -18, -25, 19, -6, 14, 31, -49, -30, -21, -43, -1, 10, -12, -45, -58, -23, -16, 12, 19, -53, -41, -23, -36, 14, 8, -4, -11, -31, -1, -38, 17, 13, -46, -65, -44, -29, -9, 9, 25, -22, -1, 20, -8, 27, 24, -64, 5, -45, -38, 18, -6, 18, -14, 9, 23, -3, 33, 34, -75, -42, -44, -54, -44, -16, 21, -16, -37, 17, 28, 21, 27, -22, -44, -12, 1, 3, 12, -4, -1, -4, 3, 27, 4, 27, -32, -19, 12, -18, -40, -30, 6, -44, 4, 15, 51, -13, 34, -42, -45, -20, -7, -11, -6, -6, -21, 19, -28, 24, 5, 24, -29, -10, -1, 5, 37, 5, 10, -4, -15, -67, -7, 45, 84, -50, -8, 32, 59, 25, 72, 93, 87, -15, -37, 11, 18, 2, -17, 11, 15, 69, 20, 5, 42, 12, -4, 11, 40, -6, -3, -37, -6, -12, 35, 6, 0, 25, 15, -4, 6, 22, 10, 6, -46, 12, -29, 38, 23, -1, 19, -1, -21, 25, 21, 21, 2, -55, 13, -5, 40, 23, -7, 26, 3, -15, 31, 33, 12, 9, -49, 14, 12, 25, 1, -14, 29, 18, -6, 25, 20, 23, -2, -43, -9, -1, 18, 6, -22, 8, 23, 0, 33, 8, 25, -3, -64, 11, 1, 18, 11, -4, -8, 12, 3, 33, 4, 16, -1, -53, -6, 16, 33, 9, -6, -12, 5, 6, 31, 16, 10, 11, -30, -2, 21, 40, 32, -9, -6, 13, 9, 27, 21, 1, 23, -7, 9, 18, 15, 28, -3, 14, 11, -1, 10, 36, 5, 21, 5, 11, 55, 18, 48, -1, 27, 35, 15, -4, 31, 6, 3, 13, -14, 56, 36, 13, -22, 26, 53, 64, -1, 16, 0, 11, -7, -14, 39, 84, 8, -12, -32, -29, -11, 41, 61, -16, -2, -1, 25, -14, 49, 22, 26, 6, 20, 5, 4, -18, 22, -3, 17, 32, 35, 3, -14, 6, -13, 13, -49, -35, -3, 21, 12, 28, 50, 41, 8, -2, -6, 7, -25, -39, -58, 3, 10, 4, 19, 39, 29, 22, -4, 4, -14, -27, -41, -24, -2, 31, 27, 62, 40, 36, 20, -6, 6, -11, -2, -10, -4, 16, 31, 49, 49, 40, 37, 25, 9, 12, 2, -11, -12, -2, 5, 26, 59, 33, 28, 19, -6, -8, 22, -12, -30, -6, -6, 7, 43, 44, 5, 19, 19, -19, 4, 2, -12, -9, -5, 9, -3, 37, 24, 23, 25, 3, -24, -3, 9, 3, -8, -8, -6, 5, 19, 33, 19, 18, -12, -23, 18, 16, 12, 8, -8, -8, -5, 9, 41, 17, 18, 4, 19, 9, 4, -13, -5, 2, 2, 13, -1, 17, -1, 13, 43, 46, 61, -5, -49, -29, 36, 34, 18, 16, 3, 1, 7, 11, 26, 16, 55, -3, 46, 33, 54, 34, 9, 2, 5, -3, 25, 3, -60, 13, 8, 36, 18, 35, 12, 33, 6, 11, 4, 16, 10, 20, -9, 19, 18, 1, 12, 25, 6, 2, 8, 9, 11, 19, 7, 14, 17, 12, -13, 35, 21, -1, -2, 10, 5, 17, 9, 0, 3, 21, 31, -6, 11, 1, -7, -2, 11, 16, 25, 10, -12, -15, 13, 8, -14, 17, 12, 21, 8, 9, 19, 15, 13, 6, -3, 15, 4, 16, 15, 15, 12, 6, 8, 23, 10, 24, 14, 14, 27, -12, 18, 10, 12, -6, 11, 14, 22, -8, 28, 27, 21, 17, -6, 36, 8, 21, -1, 8, 11, 15, -11, 26, 13, 24, 15, -7, 20, 4, 18, -6, 0, 6, 15, 7, 12, -4, 30, 31, -5, 17, -10, -7, 8, 11, 7, 8, 21, 22, -4, 48, 18, -1, 15, 0, 31, 9, 9, 16, 8, 2, -20, 30, 4, -3, -33, -13, -22, 42, 15, 2, 24, 52, 43, -30, -66, 47, 26, 27, 38, 29, 38, -7, -25, 23, 5, 44, 32, 10, -11, 38, 20, -8, 40, 9, -13, -12, 32, 8, 15, 0, -3, 1, 18, -6, -12, 10, 5, -6, -17, 19, 18, 19, 26, -2, 1, 29, -3, -2, 15, -23, 13, -3, 17, 21, 24, 33, 0, 20, 14, 7, -4, 33, -21, 0, 4, 33, 23, 20, 26, 3, 21, 24, 9, -10, 15, -6, 11, 21, 14, 22, 9, 24, 7, 22, 31, -5, 0, 19, -14, 11, 29, 3, 23, 11, 19, 15, 4, 23, -18, 13, 22, -6, -3, -13, 9, 15, 9, 12, 9, 12, 16, -8, -3, 20, 5, -27, -1, 17, 11, 16, 11, 10, 12, 16, -3, 10, 16, 25, -16, 25, 9, 0, 10, 8, 1, 27, 26, 1, 19, 7, 26, 6, 16, -6, 11, 28, 12, -5, 40, 28, 7, 16, 7, 38, 9, 21, 9, -5, 23, 13, 34, 40, 17, -14, 10, -17, 39, 17, 20, 21, 25, 64, 3, -22, 18, 14, 17, -35, -8, 6, 3, -7, 8, 23, 12, 50, 16, 15, 23, 13, 16, 34, 13, 2, -16, 10, 4, 24, 8, 11, 14, 7, 15, -3, 15, 12, 5, 0, 18, 5, 19, 19, 13, 6, 10, 6, 5, 9, 21, 8, -9, 19, 11, 25, 20, 17, 5, 11, 11, 8, 25, 21, 16, 8, 32, 19, 24, 11, 17, 5, 13, 11, 14, 18, 17, 13, 1, 17, 13, 8, 10, 9, 5, 12, 8, 6, 13, 5, 5, 5, -6, 13, 6, 11, 6, 8, 14, 9, 8, 10, 6, 8, -2, -1, 18, 3, 18, 13, 5, 13, 7, 10, 7, 17, -1, 5, 20, 18, 6, 21, 14, 8, 19, 11, 11, 7, 18, 8, 17, 15, 12, 8, 25, 16, 12, 17, 10, 12, 10, 23, 18, 12, 6, 8, 17, 27, 5, 5, 15, 13, 13, 18, 16, 17, -1, 5, 10, 4, -6, -17, -1, 6, 12, 28, 33, 16, 0, 10, 14, 11, 12, 10, 0, -6, -6, 2, 9, 10, 16, 18, 21, 19, 14, 13, 4, 1, 1, 8, 22, 14, 12, 18, 13, 19, 14, 4, 1, -2, 1, 1, 7, 19, 43, 20, 30, 14, 2, 5, 0, -6, -5, -16, 2, 12, 29, 30, 29, 12, 16, 8, 0, -9, -22, -8, 11, -3, 16, 24, 24, -1, 8, 22, 23, -5, -7, -17, 7, 7, 29, 29, 25, 20, 8, 6, 26, 42, 16, -11, 11, 13, 13, 17, 17, 20, 20, 27, 26, 27, 42, 14, -1, 6, 22, 16, 15, 23, 19, 15, 18, 17, 29, 33, 18, 7, 2, 14, 9, 22, 17, 20, 19, 18, 14, 21, 18, 18, 20, 16, 21, 24, 26, 24, 19, 13, 9, 20, 14, 24, 23, 18, 18, 14, 6, 8, 17, 34, 28, 6, 7, 13, 13, 16, 22, 18, 14, 10, 0, 11, 23, 30, 7, 0, 6, 14, 24, 17, 11, 8, -3, 4, 9, 13, 14, 19, 8, 8, 11, 6, -12, -1, -5, -9, -11, -3, 2, 14, 10, 7, 6, 13, -20, -8, -1, -2, -12, -1, 21, 32, 29, 17, 15, 8, 14, -38, -15, -13, -17, -14, -1, 9, 17, 41, 25, 13, 5, -10, -43, -32, -25, -27, -23, -12, -6, 19, 29, 16, 11, 1, -6, -26, -33, -41, -31, 10, 4, 7, 21, 22, -4, 0, 15, 21, -23, -28, -21, 13, 19, 25, 19, 22, 20, 13, 14, 20, 39, 10, -14, 3, 19, 12, 15, 22, 20, 21, 18, 25, 28, 41, 15, 1, 5, 13, 22, 20, 25, 18, 20, 20, 20, 27, 36, 20, 5, 4, 12, 13, 18, 17, 16, 16, 18, 15, 13, 18, 14, 10, 6, 10, 11, 6, 19, 20, 20, 11, 7, 3, 11, 18, 8, 11, 10, 3, -2, 10, 28, 31, 5, 1, 1, 7, 15, 15, 18, 6, 4, -1, 11, 24, 23, -1, -1, -6, 0, 28, 20, 6, -1, -11, -3, 0, 0, 7, 4, -1, 1, 4, 21, 24, 17, 6, -26, -48, -60, 13, 12, 17, -8, 20, 11, 10, 4, 3, 6, -18, -52, -15, 21, -3, 20, 38, 17, -1, -5, -8, -13, -20, 3, -17, -20, -4, 3, 24, 18, 6, 5, -18, -11, -28, -25, -33, 19, 23, -7, 29, 31, 29, 27, 22, 28, 23, 9, -23, 5, 22, 15, 0, 21, 10, -8, 8, 32, -6, 22, 17, 22, -22, -23, -6, -7, 21, 59, 46, 37, 33, 0, -6, -35, -44, -26, -34, -27, -3, 6, 10, 19, -15, -10, 9, -9, -7, -30, -9, 10, -11, 19, 16, 22, -4, -48, -30, 21, 30, -3, -21, -38, -25, 5, -1, 1, -6, 16, -13, 3, -19, 2, 55, 28, 22, 45, 21, 42, 44, 16, 44, 49, -7, 8, 36, 38, 50, 40, 44, 73, 56, 34, -4, -4, 1, -24, -6, 21, 12, 20, -11, 10, 32, 15, -24, -5, -7, -21, -26, -12, 15, 7, 5, -15, -18, -15, -9, -33, -47, -34, -34, -46, 59, 42, 33, -2, -53, -87, -27, -47, -17, -25, -25, -6, 12, 39, 5, -4, -23, -55, -96, -31, 4, 11, 9, 21, 1, 8, -6, -26, -35, -54, -35, -67, -29, -9, 24, 70, 37, 4, 9, -21, 3, -22, -47, -52, -11, 19, -24, 48, 76, 44, 25, 5, 2, 17, 10, -32, -90, -27, 36, 11, 77, 59, -10, 25, 23, -33, -21, 7, -66, -51, 17, 1, 15, 37, 27, -16, 9, 28, -35, -39, -65, -11, 16, 4, -4, 7, -14, -31, -15, -12, 26, 41, -25, -78, -42, -17, -1, 8, 4, -2, -16, -26, -24, 42, 36, -35, -34, -47, -11, -3, 29, 4, 17, -2, -3, 10, 16, 21, -57, -48, -22, 6, -28, -48, -52, -27, -11, -4, 27, -20, 12, 4, 7, 11, 8, -43, -77, -78, -30, -3, -33, -4, -22, 17, 2, -1, -2, -7, -51, -83, -57, -36, -37, -41, -37, -4, 32, 23, -3, -24, -26, -37, -40, -52, -50, -37, -48, -44, 5, 23, 23, 16, 8, 4, -14, -14, -6, 6, 15, 18, 29, 27, 19, 19, 13, 14, 6, -8, -24, -18, -15, -8, -2, 16, 17, 14, 17, 9, 15, 9, 7, 2, -28, -16, -20, -25, -27, 25, 18, 15, 19, 11, 18, 30, 23, -9, -26, -34, -38, -38, -12, 8, 16, 11, 11, -5, -44, -11, 42, -12, -68, -49, -22, -28, 1, -7, -9, -67, -32, 13, -13, -25, -6, -20, -16, -7, -20, 4, 14, 15, 16, 29, 20, 5, 2, 20, 31, 10, -44, -52, -2, 24, 60, 36, 25, 10, 16, 26, 23, 42, 36, 31, 46, 11, 8, 15, 7, 17, 20, 17, 16, -2, 6, 12, 28, 35, 8, 11, 6, 6, 17, 15, 10, -7, -10, -1, 20, 19, 25, 20, 19, 11, 5, 11, 8, 23, 36, 34, 11, 19, 15, 13, 11, 14, 20, 20, 13, 10, 32, 61, 51, 14, 13, 5, 8, 27, 20, 14, 9, 7, 17, 23, 38, 40, 29, 16, 4, 8, 22, 20, 16, 18, 10, 21, 27, 30, 41, 22, 23, 20, 20, 21, 16, 12, 16, 17, 19, 31, 39, 24, 0, 15, 15, 21, 16, 17, 11, 19, 14, 23, 18, 28, 41, 18, 16, 14, -8, 12, 9, 14, 12, 11, 21, 30, 52, 50, -25, 22, 28, 18, 10, 14, 11, 23, 53, 36, 31, 43, 22, -6, 26, 47, 55, 15, 11, 9, 47, 16, 4, 25, 13, -14, 0, 46, 78, 76, 28, 2, -3, 20, 4, 18, -11, 3, -14, -11, 5, -23, 5, 9, -18, 3, 33, -5, -2, 7, 17, 4, 21, -3, -27, 8, -1, -9, -2, 14, -3, -8, 7, 21, 20, 15, 13, 42, 42, 11, 11, 19, 45, 36, 35, 33, -1, -2, -21, 38, 32, 41, 20, 18, 25, 30, 27, 32, 43, 39, 7, -30, 14, 21, 17, 20, 15, 18, 16, 19, 23, 20, 19, 12, -4, 4, 10, 12, 24, 19, 14, 7, 9, 18, 17, 18, 22, 20, 17, 20, 12, 30, -13, -35, -79, -51, -58, -56, -34, -19, -35, -37, 4, 18, 17, -39, -35, -70, -50, -21, 13, 18, 28, -5, -11, -33, -18, -51, -56, -56, -83, -55, 0, 12, 27, 42, -5, 31, -29, -26, -57, -70, -63, -48, -47, -17, -8, 21, 43, 8, 31, 7, -35, -33, -47, -45, -56, -44, -46, 2, 40, 38, -9, 12, 24, 14, -20, -52, -53, -27, 8, 16, 8, 12, 19, 0, 10, 36, 89, -4, -66, 9, 22, -4, 14, 18, 15, 8, 13, 8, 38, 86, -9, -48, -11, 27, 14, 12, 19, 23, 1, 6, 16, 6, 43, 5, -11, 9, 32, 23, 33, 25, 36, 11, 5, 1, 8, 27, 9, -16, 4, 25, 22, 35, 46, 24, 20, -9, 29, 21, 27, 18, 1, -5, 5, -1, 9, 24, 37, 15, -64, 0, -10, 1, 15, 2, -1, -3, -24, -15, 27, 32, -19, -89, -44, -52, -35, 29, 15, 2, -25, -33, -13, -35, -2, -6, -32, -19, -27, -16, 22, 9, -32, -34, -59, -46, -42, -65, -40, -22, -21, 3, 11, 7, -24, -34, -32, -53, -37, -9, 14, 31, 27, 18, 15, 13, -31, -62, -51, -61, -79, -39, 3, 27, 35, 34, 12, 4, 4, -73, -83, -80, -61, -45, -44, -7, 1, 44, 30, 1, 3, -4, -44, -49, -61, -66, -61, 4, 4, 28, 25, 4, -13, 12, 10, -39, -39, -57, -30, 46, 34, 36, 33, 20, -2, 1, 20, 29, 3, 8, -12, 22, 19, 29, 31, 24, 18, 24, 25, 29, 44, 27, 1, -7, 5, 17, 21, 22, 32, 21, 17, 26, 28, 38, 34, 9, 6, 6, 24, 26, 26, 23, 24, 24, 18, 25, 19, 14, 9, 2, 16, 18, 13, 6, 11, 20, 21, 14, 25, 16, 12, 9, 7, 8, 2, -4, 0, 19, 36, 14, 9, -3, -1, 12, 17, 19, 9, 0, -6, 5, 28, 37, 2, 2, -10, -15, 20, 25, 10, 1, -3, -2, -9, 1, 14, 11, 4, 3, -1, 3, 4, 24, -1, -4, 3, 21, 21, -6, 1, 23, 33, 20, 8, 2, 9, 8, -5, 7, -18, 3, 7, 8, -7, 1, 28, 16, 16, 17, 8, 5, 6, -9, -1, 8, 5, 0, 7, 31, 16, 16, 20, 14, 16, 1, -22, 2, 6, 2, 11, 11, 17, 26, 12, 15, 15, 19, 0, -15, 2, 10, 6, 12, 15, 31, 19, 18, 20, 13, 21, 13, -7, 0, 11, 11, 16, 9, 34, 23, 16, 17, 14, 8, 6, 1, 11, 18, 14, 13, 2, 23, 22, 16, 13, 13, 17, 14, 8, 7, 14, 15, 8, 16, 19, 9, 12, 13, 12, 19, 20, 9, 14, 16, 10, 10, 15, 11, 19, 10, 11, 11, 18, 21, 26, 12, 11, 18, 13, 13, 11, 16, 13, 12, 8, 13, 18, 20, 12, 12, 15, 8, 5, 8, 19, 16, 14, 11, 15, 20, 25, 24, 18, 12, 6, 8, 2, 12, 8, 15, 18, 17, 16, 23, 20, 22, 12, -4, 2, 3, 10, 8, 10, -3, -15, -1, 3, 2, -3, -3, 17, 28, 41, 20, 1, 2, 2, 0, 4, -10, 2, 8, 2, 0, 7, 45, 12, 6, 9, 9, 8, 3, -6, 3, 6, 7, 8, 12, 41, 22, 15, 12, 10, 16, 7, -10, 0, 4, 10, 9, 21, 36, 30, 13, 15, 20, 21, 7, -12, 1, 7, 14, 11, 15, 38, 28, 17, 20, 14, 18, 14, 5, 5, 15, 21, 13, 11, 34, 17, 16, 18, 20, 17, 21, 13, 15, 11, 11, 19, 15, 21, 11, 12, 18, 23, 20, 17, 16, 15, 17, 17, 12, 16, 17, 5, 7, 15, 18, 24, 19, 16, 17, 23, 15, 16, 17, 17, 10, 4, 9, 20, 16, 19, 23, 27, 18, 26, 16, 18, 14, 20, 16, 16, 20, 14, 20, 26, 27, 27, 20, 12, 15, 4, 24, 20, 12, 23, 16, 20, 26, 24, 30, 23, 8, 8, 1, 20, 15, 15, 33, 32, 31, 31, 25, 32, 23, -4, -7, -15, 34, -11, -14, -11, 5, -26, -44, 79, 69, 25, 9, -2, 36, 44, 28, 10, 6, -32, -36, -29, 61, 57, 34, 24, -6, -2, 41, 59, 22, 14, -10, -17, 1, 31, 46, -4, 4, 35, 1, 81, 46, 24, -17, 20, -8, -10, 32, 14, 12, 7, 4, 16, 68, 41, 18, 25, 36, 26, 14, -3, 34, 21, 24, -12, 42, 95, 44, 9, 53, -2, 29, 44, -16, -3, 7, 25, 3, -17, 15, -25, -34, 51, 41, 9, 0, 6, 10, -9, 0, -19, -28, -9, -37, -1, -34, -7, -9, 4, 11, 34, 18, 27, -9, -5, 40, -7, -10, 11, 3, -14, 3, 14, 3, 9, 21, 10, 1, 41, 19, -34, 13, -18, -14, 12, 5, -6, 7, 2, -8, 2, 46, 40, 49, -8, -37, -17, -24, -7, -10, -3, -28, -18, -22, 37, 41, 34, 29, -35, 3, -20, -25, -13, -37, -36, -29, -9, 8, -31, 5, -2, 25, 1, 16, -13, -10, -26, -4, -41, -43, 35, -12, -32, -49, -96, 53, 83, 9, -57, -60, -27, 1, 33, 59, 20, -43, -31, 3, 71, 40, 25, 6, -4, -8, -13, 21, 70, 50, -28, -16, 45, 39, 15, 22, 24, -17, -9, -3, -2, 92, 64, -6, -24, 35, 48, 13, -12, 19, -23, -6, 0, -2, 109, 48, 8, -25, 3, 62, -10, -40, -16, -17, -13, -12, -5, 127, 59, 17, -9, 13, 54, -20, -26, -33, -11, 12, -4, -3, 117, 76, 19, -4, -7, 36, 4, 6, -20, -13, 3, 17, -8, 105, 65, 13, -13, -4, 15, 5, -11, -7, -1, -12, 20, 2, 114, 58, 4, 16, 5, -20, -12, 6, -9, 7, 2, 21, 22, 122, 45, 4, 24, 11, -3, -11, 10, -4, 10, 4, 28, 20, 103, 30, -2, 16, 25, 4, -29, 8, -3, 10, 0, 37, 11, 60, 3, -36, 15, -2, -3, -21, -16, 6, 18, -5, 16, 20, 34, -26, -87, -26, 0, 5, -10, -5, 19, 27, -1, -6, -1, -4, 14, 39, -6, -15, -12, 97, 78, 44, -6, 23, 32, -6, 15, 36, 19, -15, -1, -41, -60, 46, 81, 42, 11, 5, -1, 41, 47, 43, -9, -31, -64, -40, 16, 36, 41, 5, 12, 28, 44, 64, 41, 0, -17, -45, -9, 25, -2, 16, 1, -4, 5, 26, 29, 18, 32, 9, -29, -5, 32, 25, 14, -16, -21, 2, 10, 5, 37, 36, 22, 8, 8, 11, 33, 10, -28, -59, -30, 13, 2, -7, -20, -16, -2, 30, 36, 32, 36, 6, -48, -31, -8, -5, 11, 24, 29, 39, 28, 32, 48, 31, 3, -20, -31, -4, 10, 16, 34, 31, 15, 8, 8, 15, 3, -22, -16, -29, -2, -4, -5, 16, 38, 39, 31, 24, 23, 15, -16, -8, -9, 14, 10, -2, 12, 11, 15, 20, 15, 10, -10, 4, 2, -4, 31, 21, 15, 3, 4, 6, 22, 14, -7, -11, 7, 5, -3, 19, 24, 18, -31, -46, -24, 14, 17, 15, 6, 24, 27, 11, 9, 4, 3, -20, 8, 60, 86, 56, -7, -3, -16, -10, 8, 6, 8, 20, 13, 25, 61, 8, 29, 27, -7, -16, 3, 7, 3, 19, 32, 27, 17, 64, -3, 23, 23, 26, -1, 6, 14, 12, 18, 32, 27, 22, 40, -5, 12, 27, 27, 4, 8, 18, 15, 24, 19, 11, 6, 5, -15, 18, 44, 7, -22, -5, 2, 5, 27, 18, -8, -1, 24, -4, 10, 42, 1, -16, 6, 17, -10, 32, 23, -4, -12, -3, -20, 15, 32, -9, -25, -28, 34, 8, 51, 23, 4, -11, -10, -6, 7, 11, -7, -18, -4, 56, 10, 43, 17, -1, 11, 10, -6, -20, -7, -11, -27, 4, 35, 23, 41, 12, -10, 9, 9, 10, -31, -17, -11, -18, -3, 40, 18, 28, -2, 2, -5, 0, 12, -23, -17, 3, -17, -5, 34, 15, 18, -9, -6, -3, -13, 23, -22, -19, -18, -17, -15, 12, 12, 2, -5, -22, -13, -33, -3, -36, -21, -22, -51, -10, 8, -7, 20, 36, -60, -87, -32, 29, 50, -40, -51, -26, -9, 2, 6, -5, -1, -9, -18, 29, -21, 64, 61, -3, -29, -7, 42, 14, 0, 14, -2, -11, 32, -23, 33, 37, 20, -2, 12, 54, 9, 20, 14, 17, 19, 21, -35, 36, 24, 12, 8, 10, 54, 18, 10, 18, 18, 23, -4, -40, 6, 32, -8, -3, 11, 55, 17, 26, 35, 15, 27, 11, -19, 5, 30, -14, -13, -10, 51, 20, 27, 34, 7, 9, 0, -7, 7, 29, -8, 10, -7, 53, 15, 27, 32, 8, 8, 7, -16, 18, 19, -24, -11, -10, 45, 21, 29, 28, 19, 24, 16, -13, -7, 2, -4, -16, 10, 36, 16, 32, 20, 15, 21, 22, 19, 4, 12, 0, -16, 11, 43, 30, 37, 29, 20, 19, 26, 36, -2, 3, 13, -8, -16, 29, 40, 32, 2, 6, 4, 5, 31, 7, 4, 5, -24, -21, 5, 30, 20, 8, 7, 0, 1, 23, 17, 15, -1, -41, -33, -6, 0, 34, 20, -9, -11, 21, 25, -60, -42, -10, 30, 27, 26, 33, 5, 5, -3, 16, 19, -16, -25, -17, 0, -2, 9, 24, 34, 15, 9, 7, 4, 8, -8, -21, -10, -8, -6, 7, 23, 36, 18, 13, 9, 9, 18, -6, -21, -17, -11, -8, 5, 15, 49, 23, 15, 19, 18, 22, -13, -16, -9, 1, 1, 11, 22, 50, 23, 20, 21, 20, 19, -3, 0, 9, 8, 10, 5, 29, 31, 20, 15, 11, 13, 23, 10, 10, 15, 13, 13, 10, 29, 4, 5, 13, 17, 21, 18, 12, 15, 21, 10, 6, 9, 22, 3, 12, 13, 14, 15, 19, 20, 16, 14, 17, 16, 13, 21, 12, 3, 11, 13, 23, 27, 22, 29, 24, 26, 20, 14, 13, 22, 14, 14, 13, 20, 17, 28, 28, 23, 27, 22, 22, 12, 28, 28, 14, 13, 20, 17, 30, 31, 25, 31, 21, 16, 10, 14, 17, 11, 14, 26, 28, 35, 30, 33, 30, 23, 5, -1, 13, 11, 3, 10, 10, 9, 7, 7, 12, 22, 23, 24, 18, 9, 5, 8, 6, 7, 1, 14, 2, 10, 6, 9, 19, 17, 3, 0, 7, -1, 8, 4, 11, 19, 3, 20, 19, 23, 41, 2, 0, 8, 1, 14, 0, 17, 22, 14, 13, 18, 27, 30, -5, -8, -3, -5, -6, 19, 22, 20, 16, 21, 18, 25, 26, -11, -6, -13, -14, 7, 9, 18, 20, 13, 19, 23, 28, 22, 16, -11, -32, -21, -4, 22, 23, 16, 19, 17, 17, 21, 14, 37, -2, -27, -14, -1, 16, 11, 11, 19, 17, 17, 23, 19, 35, 8, 7, -2, 3, 14, 13, 19, 20, 28, 21, 26, 27, 24, 16, 2, 6, 6, 12, 8, 11, 18, 30, 20, 24, 22, 17, 10, 5, 9, 14, 10, 13, 5, 15, 32, 24, 24, 21, 24, 17, 14, 8, 12, 19, 14, 5, 3, 19, 25, 22, 24, 23, 15, 20, 18, 9, 13, 14, 5, -6, 7, 19, 17, 21, -18, -15, -3, 4, 3, 9, 6, 10, 14, 18, 30, 23, 29, -12, -9, 1, -3, 8, 4, 2, 4, 13, 16, 19, 22, 27, -27, -5, -2, -2, 5, 1, 11, 11, 8, 16, 25, 26, 37, -41, -12, -3, -6, 11, 3, 11, 19, 19, 23, 24, 35, 46, -43, -17, -12, -10, -7, 7, 25, 19, 27, 28, 28, 28, 29, -49, -32, -34, -31, -5, 5, 19, 21, 18, 23, 26, 20, 18, 18, -2, -27, -17, -9, 13, 19, 20, 24, 20, 16, 23, 17, 37, 19, -1, -11, -5, 3, 13, 18, 19, 15, 15, 17, 13, 48, 21, -3, -4, 4, 15, 17, 18, 13, 16, 18, 20, 17, 38, 16, 7, 3, 7, 15, 18, 11, 8, 21, 24, 22, 26, 25, 17, 4, 2, 17, 15, 10, 4, -4, 22, 27, 29, 27, 32, 20, 9, 11, 17, 18, 12, 1, 0, 14, 26, 26, 31, 15, 10, 7, 13, 12, 10, 8, 9, 1, 2, 19, 15, 20, 28, 24, 17, -2, 7, -3, -19, -17, -30, -26, -3, 27, 39, 17, 6, 14, 9, -16, 1, 21, -6, 25, 21, 6, 5, 20, 4, -5, -3, -34, -23, 30, 25, 9, 2, 6, 5, 23, 18, -2, 4, -11, 22, 27, -16, 6, -20, 8, 7, -25, 3, 13, 9, -2, 5, -17, 1, -26, 0, 19, -27, 5, -10, -26, -6, -7, -4, -5, -31, -26, -29, -49, -28, -67, -89, -55, -8, -8, -8, 7, -16, -52, -45, -29, -74, 15, -32, 0, 20, 14, 38, -6, 45, 36, 22, -2, -33, -73, -17, -31, -22, -12, 27, 24, -17, 18, 35, 30, -11, 1, -43, -46, -24, -24, -12, -5, 40, -20, 29, 30, 2, -28, -46, -12, -21, -15, -7, 10, 14, 87, -51, 15, 13, -35, -69, -54, -35, -27, -31, -15, 3, 14, 30, -49, -19, 13, 3, -52, -65, -43, 17, -6, -50, -6, 12, 33, -19, -10, -11, 16, 4, 9, 4, 37, -11, -44, -10, 10, 19, 3, -2, -20, -37, -50, -57, -45, -41, -21, 0, 25, 33, 25, -8, -33, -44, -34, -25, -32, -6, -31, -18, -3, 9, 15, 28, -29, -56, -62, -2, -19, -25, 9, -11, -22, -23, -5, 9, 27, -45, -48, -19, 1, -18, -13, 8, 17, 2, -26, -25, -3, 31, -47, -63, -25, 3, -16, -14, 2, 51, 4, 5, 0, 4, 38, -57, -61, -34, -33, -35, -29, 21, 42, -4, -8, 20, 28, 32, -63, -51, -84, -67, -50, 6, 6, 7, -5, -14, 22, 29, 30, -84, -6, -69, -70, -22, 8, -6, -16, -12, -13, 14, 15, 10, -57, 44, -60, -74, -23, -36, -26, -8, 3, -1, 20, 9, 6, -21, 62, -8, -60, -52, -17, 25, 26, 15, 0, 18, 4, 31, 24, 19, -11, -65, -64, 11, 42, 39, 39, 10, 34, 15, 23, 29, 42, 9, -39, -34, 25, 35, 45, 31, 13, 20, 40, 14, 3, 10, 11, 12, 2, 14, 13, 34, 22, -2, 13, 29, 18, 21, 13, 10, 10, 6, 7, -15, -6, 0, 6, 13, 16, 23, 21, 12, 14, 10, 4, -3, -10, -15, -9, 0, 6, 7, 9, 11, 8, 1, 7, -3, -18, -12, -14, -16, 2, 8, 0, -12, 5, 12, 23, 12, 5, -22, -10, -13, -9, -16, -25, -34, -23, 10, 5, 15, 14, 21, 3, -35, -59, -15, -15, -37, -46, -38, 2, 17, 24, 29, 19, -22, -57, -40, -47, -9, -31, -6, -6, 0, -1, 30, 26, 0, -13, -3, -20, -41, -11, 17, 7, -40, 43, 9, -20, 9, 7, 23, -6, -29, 15, 6, 3, -10, -32, 47, 41, 26, 15, 12, 6, 4, 28, 46, 29, 26, -2, -12, 39, 29, 32, 28, 13, -4, 17, 38, 36, 23, 9, 1, 1, 12, 4, 11, 13, 9, 17, 22, 11, 14, 35, 19, 15, 26, 27, 13, 4, 10, 13, 18, 7, -7, -3, 25, 22, 25, 33, 28, 35, 33, 28, 18, 15, 12, 1, 3, 13, 20, 22, 29, 20, 12, 11, 13, 15, 21, 11, 10, 0, 9, -2, 18, 20, 18, 16, 10, 18, 23, 19, 22, 8, 24, 30, 15, 28, 19, 11, 11, 15, 15, 20, 18, 14, 13, -2, 1, 18, 9, 49, 10, 14, 16, 22, 36, 19, 28, 26, 11, 45, 17, 1, 9, 4, 13, 15, 16, 15, 32, 41, 18, 9, 31, -23, -23, -4, 5, 6, 1, 2, 29, 38, 28, -2, 7, -15, -40, -10, 0, 27, 10, -3, 6, 27, 34, 49, 1, -9, -17, -21, 10, -6, 40, -14, -41, -12, 23, 50, 31, -10, -21, -18, -12, 20, -17, 47, -41, -28, 13, 21, 54, 18, 4, -23, 24, 30, 34, 15, 36, -23, -12, 4, 2, 7, -23, 9, 34, 57, 16, 12, -8, 20, -20, -16, 13, 9, -11, -8, 14, 35, 58, 22, 20, 9, 17, 4, 14, 8, 14, 7, 19, 17, 25, 45, 34, 32, 27, 17, 19, 25, 16, 20, 22, 26, 17, 21, 27, 32, 11, 21, -15, -73, -60, -2, 4, -4, 8, 12, 1, 14, -3, 11, 51, -47, -70, -48, -14, 7, 2, 10, 1, -11, 6, 3, 49, 49, -86, -8, -19, -20, 15, 5, 18, 14, -2, 14, -13, 13, 59, -108, -12, 12, -26, 17, 5, 21, 21, -1, 19, 5, 9, 47, -115, -37, -5, -2, 7, 26, 31, 18, 18, 32, 24, 42, 24, -128, -40, -22, -29, -11, 21, 30, 10, 3, 20, 3, 29, 12, -40, -76, -74, -21, 16, 28, 33, 7, 5, -9, 6, 31, 19, 67, -30, -57, -31, 10, 33, 25, 5, 15, 10, 9, 43, 29, 47, -34, -31, -26, -24, 12, 12, -1, -2, 26, 16, 37, 15, 44, -12, 0, -2, -6, 4, -4, 6, 7, 45, 21, 20, 17, 22, -10, -16, 5, 12, 7, -12, -13, 6, 62, 34, 35, 37, 40, 14, 6, 11, 19, 12, 3, -16, 22, 62, 32, 43, 44, 12, 14, 28, 21, 17, 3, 26, -8, 7, 29, 34, 16, 30, -14, -34, -45, -35, 2, 11, 6, 17, 24, 31, 37, 30, 31, -10, -47, -40, -20, -8, -2, -9, -4, 2, 10, 14, 24, 32, -38, -61, -11, -13, -18, -2, 7, -2, 5, 11, 19, 27, 36, -65, -44, -20, -18, -27, 1, -1, 14, 6, 15, 24, 39, 51, -87, -91, -49, -42, -2, -19, 26, 31, 23, 32, 28, 25, 43, -94, -93, -55, -52, -44, 11, 22, 21, 17, 25, 24, 27, 22, -57, -58, -68, -49, 0, 7, 26, 21, 25, 23, 21, 22, 3, 37, 25, -6, -15, -6, 10, 19, 11, 19, 16, 19, 14, 18, 38, 30, -8, -5, -3, 0, 16, 16, 18, 20, 24, 18, 19, 43, 28, 6, 4, 11, 19, 22, 20, 21, 10, 24, 19, 17, 24, 21, 11, 3, 13, 24, 25, 16, 4, 25, 20, 29, 31, 36, 19, 13, 7, 21, 22, 19, 13, 4, 20, 23, 30, 37, 16, 17, 18, 16, 18, 14, 18, 19, -4, 3, 18, 25, 24], "fc_weight_scale": 0.006416718941181898, "fc_weight_zp": 13, "conv_bias": [-0.0007716547697782516, -0.001577076967805624, 0.056030936539173126, -0.0011256815632805228, 0.09324892610311508, 0.17309513688087463, -0.003497579600661993, -0.004456681665033102], "fc_bias": [0.10182899236679077, -0.023785604164004326, 0.09792977571487427, 0.03889284282922745, -0.11248531192541122, -0.042707525193691254, -0.0638924166560173, 0.02988346852362156, -0.023238282650709152, 0.007407697848975658]}